solver_type L2R_L2LOSS_SVC_DUAL
nr_class 2
label 1 2
nr_feature 3711
bias 0
w
-0.03260431161891444 
-0.003436394954190979 
-0.0324620521053979 
-0.0002568429835867721 
-0.05297512009604366 
0.01123264938702825 
-0.02197141260557947 
-0.005161659267756516 
0.09431209890566759 
0.01538175999770208 
-0.01480509845275967 
-0.006733865234386218 
-0.009899235113330513 
-0.0001352344725272249 
-0.03627043964172354 
0.00614752524385292 
-0.004657705046089791 
-0.0009863110139175279 
0.01293887942032179 
-0.003448611640375156 
0.004280589545905017 
-0.004588938537093001 
-0.03054407907313399 
0.001138878415734475 
-0.05082927399487985 
0.003713214419294917 
-0.02980083965885146 
-0.003509106340796171 
0.04421908784575343 
-0.01265094427943722 
-0.01890279610555465 
-0.0009759062279015254 
-0.03339992942110838 
0.006445807832874002 
0.01958009945740431 
-0.01448727478791399 
0.0161822689527135 
-0.01130227409923384 
-0.01080302096742627 
0.003572934264532512 
-0.01056074319218824 
0.0004115605193597983 
-0.0006424874234941967 
-0.01115872880586973 
-0.01043105182825936 
0.004115936167635401 
-0.04199515807327051 
0.008559065581829039 
-0.04985309710695326 
0.0008851336316674756 
-0.008427960397434087 
-0.00540424634023391 
0.004550057040772055 
-0.008456926484967483 
-0.04389360949284887 
0.004333086931515358 
0.02121496498765112 
-0.01176597552697226 
0.02423219978549277 
-0.01077228686990116 
0.02472938614148825 
-0.01138566598979183 
-0.008738981699927833 
0.002461681842358428 
-0.003573519609571155 
0.01039418145192788 
0.001059796419062006 
-0.001311479855815783 
-0.007174690235009449 
-0.008400152027765583 
-0.02276281923112695 
0.008914908084724813 
-0.023828501514623 
-0.01070483429728398 
-0.02961411125727173 
0.003222752545631394 
0.03906073304399148 
-0.01446150760397065 
-0.02722843551340698 
0.001386945934489535 
-0.03195279589694608 
0.01128136394728611 
0.007009796326960013 
0.001084328649104574 
0.01307470826472817 
-0.002367314153342938 
-0.002701696696852658 
-0.002427547834460014 
-0.005166975227856854 
-0.004655599884349923 
-0.01114511029937548 
-0.01224974030376274 
-0.009437398915022883 
0.0006235341074467361 
-0.03852138861164818 
0.003519640936861164 
0.0002870514523553767 
-0.00515008968905954 
0.03218213472401673 
-0.02737954274460773 
0.01936542892001063 
-0.0149291075311206 
0.02085318614077371 
-0.01057884422599815 
-0.01162533478996832 
-0.004223042145041218 
-0.03334483384923911 
-0.006753158389565036 
-0.03484159298849786 
-0.006111528010272048 
-0.009347190148681163 
-0.002496759906622898 
0.01606343272967075 
-0.02317256992753725 
0.02980485733187617 
-0.0185974779717199 
0.004925127166701155 
-0.0163082073369171 
0.003945933793889417 
-0.01848447052373522 
0.0009164259972786228 
-0.00258412715455903 
-0.02776235237582289 
-0.002979373525160764 
-0.01828762203462002 
-0.01396757796873423 
-0.006695022300280856 
-0.008560092211243861 
-0.04361728219315121 
0.01617956589802457 
0.005779152558968379 
-0.0002659221290443569 
-0.01757635084712204 
-0.005384742677772926 
-0.005510218659300624 
-0.002936700315440763 
0.02564268629177116 
0.01223720846043551 
-0.04235357622107915 
-0.004780056149053641 
-0.01939682151445194 
0.007471674930010084 
-0.01636236234881841 
-0.006461256094711912 
0.02693048417819421 
0.001547536143897626 
2.381913706260462e-05 
-0.0001343685119710615 
-0.02958704209089918 
-0.004732144997084099 
-0.04738739720424295 
0.0002832110255309982 
-0.05084705783551217 
-0.002328934720238804 
-0.002156806931206995 
0.001293047985883686 
0.006869394047054822 
-0.001950375546883918 
0.03859420925821998 
-0.006271096506477542 
-0.07458087808463615 
-0.004010656111586292 
-0.01917661026630261 
0.00121180343522516 
-0.02179226399780082 
-0.002864773833070533 
-0.02777255700049765 
-0.006046697413950417 
0.003508256471545669 
0.002884323519881156 
-0.002971726998286496 
-0.004663574455810789 
0.01702392428451604 
-0.00851833705966081 
0.04968857721528659 
0.001912396868253044 
-0.04558511584187538 
-0.002086622246639879 
0.01736119625714088 
-0.004983813682454831 
0.0001091088215079161 
-4.063881948941848e-05 
-0.04035511865694304 
0.01561319829480708 
-0.0138276702527526 
0.01505979463288677 
0.009299605906964553 
-0.00771256532522361 
-0.01510074307431769 
-0.001478842396336242 
-0.02932135964364832 
0.01139139801329481 
-0.05183156201659408 
0.01964969911551616 
-0.007657268807400129 
0.007976032350050299 
-0.00140555100517465 
0.01204893393539965 
-0.033354830573517 
0.02108870424566399 
-0.02996001347625241 
0.01432624171630557 
-0.01142201202313688 
0.007120281384895691 
-0.007172020029879485 
0.005697693482387441 
-0.04125573879376673 
0.009443095095340016 
0.002651871015497959 
0.01582924148232099 
-0.01661732915781159 
0.009192153468975174 
-0.02949506328193684 
0.005543039789438156 
-0.04832851592647845 
0.02024691159031476 
-0.0679030850056086 
0.01662419290178799 
-0.05466424203540901 
0.0102684187023605 
-0.003280395629844651 
0.006992872313915581 
-0.01725167940346166 
0.01486040557228247 
-0.0005925777405579905 
-0.005137993422980939 
0.03427961836613158 
-0.005198544473991006 
0.02595752621869091 
-0.01074528408059655 
-0.01064654051663506 
-0.0009426931063858456 
-0.03224675732436381 
0.007537106954820338 
-0.01790848580503718 
-0.008327243315452197 
-0.03711922644447756 
-0.002251310653002183 
-0.01502550098045962 
0.008572852524591616 
0.01124456904262796 
-0.004570024888089544 
-0.03057346607367797 
-0.01099285374661985 
-0.04003619298724048 
-0.0003995060188991104 
-0.02048706152609892 
-0.01323868657600364 
-0.0002293292121764998 
0.004677612418048167 
-0.03965567360300212 
-0.003599511959411357 
0.005815830655002863 
-0.008453169322423825 
0.03379352964312542 
-0.012619602278945 
-0.006173666369148408 
0.005818085944453812 
-0.01844275147835503 
0.004378208832825134 
-0.01080698258987853 
-0.008016056722241385 
0.01258795300422581 
-0.01612953616155409 
0.01824141679143714 
0.007229089189387989 
-0.03610011779859649 
0.0001964007266746894 
0.002557407998884962 
-0.008941092374618735 
-0.03459938800077697 
-0.00179734247964959 
-0.05115865236650767 
0.00505382097727346 
-0.05713727799775845 
0.005907903846430898 
-0.06131698649453825 
0.01308774732886687 
-0.04420685421568117 
0.01603627682566694 
-0.02696470870202035 
0.006783130579268163 
0.07559858538317642 
-0.01466828519679507 
0.03689041677502321 
0.007321888687611874 
-0.01903180234301902 
0.006582641291723963 
-0.06619253566874943 
0.01007728726451709 
-0.04601137039698699 
0.012064698142337 
-0.06264395774442216 
0.01381265506589295 
-0.03346201223092778 
0.007499884356490194 
-0.01363168532972221 
0.006647531533269833 
0.03557637733683214 
-0.005881425681059378 
0.04655106644539977 
0.00259912842525495 
-0.005445866648098621 
0.007520209855342219 
-0.05087406448707613 
0.005106999683234027 
0.005425345660754441 
0.00366753891537777 
-0.001801084807417065 
-0.001353198965730803 
-0.004850607342668077 
0.01025026991832411 
-0.03374827040626035 
0.004292205726987194 
-0.01736981170987549 
-0.002458440729106056 
-0.008766571197969 
0.002822718321988037 
-0.01085312401180386 
0.008116907010376607 
-0.02617739801552772 
-0.001256851678680533 
0.007597062571899555 
0.0004784035480274091 
0.01762356073321984 
0.004174216937910499 
-0.01644927114037418 
-0.008446284025115729 
-0.01409669542660348 
0.001865239613645501 
-0.0215418683228749 
0.002256389578507403 
-0.009251849830002859 
0.001442903839537724 
-0.01338150195343889 
-0.001755259914463551 
-0.00608692845808016 
0.01005386890368693 
-0.005501585552848012 
0.002650808559206367 
0.004520331997255257 
-0.003615411959912232 
-0.02716558054715718 
0.002137876173520469 
-0.03633750078824244 
0.0102541590786269 
-0.01063775479116603 
0.002628619117318528 
0.01041855160641238 
-0.001157991846343566 
-0.06962469638873994 
0.0110662298411247 
-0.03005142122871438 
-8.312444082168521e-05 
0.02693675392446758 
-0.0007344827691921796 
0.006628115855665095 
-0.01070666202723227 
0.004724750375558829 
-0.008584389993481703 
-0.03177838162959156 
0.001366018835180865 
-0.04570031793871662 
0.009500237069477795 
-0.004501337790292165 
0.0002760594570863692 
-0.02070597139642133 
0.001928500829169377 
-0.01526664742317428 
-0.01238863279189728 
-0.02252194888390915 
-0.01566503670618594 
-0.003972194964416899 
-0.008293084166949681 
0.02952484658702969 
-0.01763322257459208 
0.03820456906439797 
0.002431119616355398 
0.01946356948100635 
-0.01584995878261945 
-0.03264999269811 
-0.005017693474437975 
-0.003887253648811619 
-0.011619065166595 
-0.001055951128631554 
-0.0009697299461234797 
-0.0214964811122482 
0.0004511783369760955 
-0.02044001602337046 
-0.005575200821249141 
-0.02765489924715158 
0.002673110449971879 
-0.0004245512706792651 
0.01353435452956829 
-0.02843033636209947 
0.003387741882372354 
0.009247185133674606 
-0.005799215908488154 
0.003016626882461968 
0.01199722165743118 
-0.05802801795841008 
-0.004240999601308907 
0.04173178289058672 
-0.009907345937257917 
-0.01272506836284779 
-0.006396667506611373 
-0.024988880537838 
-0.00540544053326693 
0.02747519401149483 
-0.008213716087013925 
0.0299054822991716 
-0.00559002680550676 
0.0002148518990208264 
0.007993029251671229 
-0.05013815986427674 
-0.006790219939192633 
-0.02387633818998946 
0.005060506283976038 
-0.05684541164728032 
0.01276076297082329 
-0.04106710575489171 
0.003401075757865716 
-0.0417081484666586 
-0.004013367973623926 
-0.02460138026033386 
-0.008430930377141408 
0.05495280840546118 
-0.01515070928826069 
0.05264427592293402 
0.0007518681612680425 
-0.0356276730752686 
0.001412603540935251 
0.03686076340411594 
0.01565725287583862 
-0.0304282250089299 
0.002278633062213099 
-0.03984114519600419 
0.003240775466559869 
-0.04354814275340159 
0.004897352058319724 
-0.07181702283047948 
0.01136092287345367 
0.005224761255174503 
-0.005110239159942096 
-0.009323970125483307 
0.008095118739998571 
-0.02965677411774536 
0.001908282552035281 
0.01926037158834146 
0.01137184257576968 
-0.01677927329224535 
0.01358290324302315 
-0.02976774462045245 
0.01033957953533859 
-0.04359064323426765 
0.01027991448182804 
-0.07390799175789495 
0.01955788106118264 
-0.04221189858240919 
0.009476359486612441 
-0.03447156984469583 
0.02246054963479569 
-0.03726975304700283 
0.01427650615982467 
0.04954616457070919 
0.008445119900061566 
-0.004508888895983366 
0.008819212859959636 
-0.0517522381689897 
0.01384645847210739 
-0.01066836619498333 
0.008999373415197688 
-0.05782473059148784 
0.01363119595985189 
-0.07046877671419967 
0.01652587534279792 
-0.06423115367061674 
0.01663087649074806 
-0.03796280495854649 
0.008098444856906202 
0.01149344989218096 
0.00630376689195727 
-0.05688494239370721 
0.004070699734320717 
-0.02147346014115939 
0.006864761323125753 
-0.00157038996838728 
-0.004912938382008333 
-0.02373624151134642 
-0.001585595386995404 
-0.02303572078088844 
0.004579779306556152 
-0.0334349806555722 
0.006827924235163327 
0.01683565185528383 
0.004012373200772608 
-0.0191559991883528 
-0.005590681269339632 
-0.0165900636957601 
-0.004499631404592038 
-0.03168887214426173 
-0.004299999593129657 
-0.05012577029190137 
0.00602551275984522 
0.02943859342811452 
0.01165718900291734 
-0.008813980269057399 
0.001730761985048634 
-0.0274247103969276 
5.340540167065683e-05 
0.02243425848818373 
0.001843925494326302 
0.007486442325131862 
0.005339495292071223 
0.006274082468960273 
0.001806102637341447 
-0.02090569284734657 
-0.01651109292442641 
-0.00207632246123591 
-0.005747661710236429 
-0.007768813304364126 
0.002711904171286675 
-0.02315868356572391 
0.0004452023856072927 
0.007155309052534564 
-0.011926406625116 
0.01122478299782389 
-0.007272395766173553 
-0.00478925856353004 
-0.00804768046521954 
0.01529870271896619 
-0.01056101789530087 
-0.006106075860666861 
-0.00763780550984616 
-0.0578349717917367 
0.002382009990995298 
-0.03220109756724655 
-0.00661803078840435 
0.03507613044377379 
-0.000506535730968157 
0.004054341831094273 
-0.003033070373954652 
-0.002022080005455038 
0.007086220058767448 
0.03032296759742583 
-0.001801196234290674 
-0.02635967015778535 
0.005987996268865667 
-0.03606347196080408 
0.001181553703944315 
-0.02872528827295313 
-0.004982184423335131 
-0.07092156912176215 
0.003910666432871072 
-0.01337517354775873 
-0.0125594398254842 
-0.006945341125736208 
0.003941641476587808 
0.03890208375693679 
0.012035339430551 
0.04832301618428828 
0.02260682443222063 
-0.01799945615435793 
0.00693666076752442 
-0.03734459990303832 
0.009489510873775345 
-0.05322471358447405 
0.009298617104137827 
-0.06259867216235336 
0.0149507285131823 
-0.03143650700200343 
0.01387436699073095 
-0.0373714454650849 
0.01528460065065331 
-0.0147179650913826 
0.009320350135657676 
0.03892786419249406 
0.01432753727520409 
0.04183556813473207 
0.001906906151346552 
-0.01495924977672237 
0.009721245194978094 
-0.0561991781624859 
0.007481387843747317 
-0.08040374793201489 
0.02002911800196612 
-0.04386662268997224 
0.01687804031343891 
-0.03905465883971488 
0.01649607701960847 
-0.03041006681327079 
0.00507940751517864 
0.06421526357088952 
0.01858595085939773 
-0.03102222763723983 
0.00618971237204582 
-0.01790265352678449 
-0.004316396743292533 
-0.023869331896683 
-0.00684008655035909 
-0.03230930484159208 
-0.005992383131485637 
-0.001955229900357724 
0.00385517125721793 
-0.01895450209203132 
-4.487014565684371e-05 
-0.04329913903406411 
-0.00177006620554759 
-0.02575887432480237 
-0.00108124405445193 
0.006411806642442195 
-0.005821871832747913 
-0.01334487027807613 
-0.007005803349200828 
-0.05422104427824705 
-0.0005608844509789466 
-0.03788568714369413 
-0.003502265698863751 
0.007638359587089251 
-0.008496959826900156 
0.01322238699212895 
-0.00467272223353904 
0.05391239263533544 
0.008500944921934111 
-0.05435110854638911 
-0.0122188292149803 
-0.01389941955146364 
-0.002716037883528818 
-0.02541593938150131 
0.005171475109114852 
0.01311900279095807 
-0.01576760244506394 
0.04685805910785928 
0.0076135380770315 
-0.006646314115618454 
-0.004783947803178717 
-0.02338555361466909 
0.001589688546995673 
-0.01209242788315696 
0.004433226050564977 
-0.06264698891131588 
0.004773668993001565 
-0.02881037047019714 
0.0098748161894674 
-0.02175708216928002 
0.01185264449635986 
0.003988210491383898 
-0.006924141939277781 
-0.01257144557037235 
0.01205548409821101 
-0.02674647433909862 
-0.004548951706739992 
-0.0007977763693930041 
-0.006031112404830917 
0.0117922311088657 
0.01183719403420184 
-0.03057948581025859 
0.005863206522256075 
-0.02521295020513891 
-0.002384464416226486 
0.01034603873000333 
-0.008598618387832099 
-0.02680384679505383 
-0.000546049914164568 
-0.04618767264495057 
-0.006649668166767505 
0.04847982464378595 
-0.03128981864807848 
-0.02846465390680641 
-0.001903756903911237 
0.0535926480040176 
0.008759334548642365 
-0.006792669801869657 
0.001603728532355055 
-0.05886321840264195 
0.008825570863145345 
-0.0261399850847487 
-0.0006100532631263422 
-0.03696157351067034 
0.005267335813144513 
-0.05208313300624257 
0.006507730853648265 
-0.02506630101340562 
0.003686967765743362 
-0.03493910365455807 
0.002316424925400682 
0.08667888590561668 
0.01816615860349933 
0.05570957148381053 
0.008106719645314992 
-0.01935602016503605 
0.01350621012245259 
-0.0005927023871036545 
0.001668066171954116 
-0.04685131082799094 
0.004467524776014219 
-0.07887795317413979 
0.01967255506714686 
-0.05482456761228087 
0.02092521166110117 
-0.05997591752731628 
0.01109623106955485 
0.03941163646028562 
0.01085554312927571 
0.04351481078071496 
0.006694920576972538 
0.04051391135920605 
-0.006848256391009982 
-0.008116375216435483 
0.0006535554377265441 
-0.04797179815765286 
0.0002475157927209821 
-0.05014553108587126 
0.003003049472934185 
-0.02176178176533256 
-0.0001769967809688912 
-0.03093741770838509 
0.002660066057234983 
-0.002060959187239696 
-0.005005240789893477 
-0.01046804891008004 
0.009657572175963507 
-0.04379740970255334 
0.005053138740005065 
-0.01785326726285841 
0.001672544559519256 
-0.02721229338456552 
0.007039106778163655 
-0.04448538902512665 
0.0158083095521839 
-0.004809058849551433 
0.005406367484793241 
0.001986937068754498 
0.006494557527698844 
-0.01645692520254478 
0.0160573062686129 
0.009272012505849669 
0.002758153171595845 
-0.00436803889234996 
-0.00545550266419204 
-0.006643538577914244 
-0.01909902699239849 
-0.01672968921202614 
-0.009454339449043432 
-0.02872673336002345 
-0.007902957691366388 
-0.004380918880164457 
-0.0005706965443334088 
0.04661315142517822 
-0.007433385713415335 
-0.01140582982947764 
-0.003710786369929384 
-0.03741759187442868 
-0.0149827592300851 
-0.00936813498505281 
-0.01348281169379196 
-0.02755252145116014 
-0.001172923920000299 
-0.01370782183964426 
-0.006117137161601702 
0.08916807883449959 
0.0142778593915389 
-0.01347693569379169 
-0.005813139079394426 
-0.005654179361718287 
-0.01074301695120249 
-0.03037354590091242 
-0.004191344080268971 
-0.005566805985440092 
0.005661461378075817 
-0.003458133303881745 
-0.001224186444878525 
-0.02455226118726648 
0.001743955837361467 
0.002119977389497734 
-0.004272669672993782 
0.04470854648208419 
0.008961859490080356 
-0.05813424028181298 
0.0001904678028239164 
-0.03453129545703939 
0.004237987343840627 
-0.02941750374175207 
0.01290681883552082 
0.02471923524495932 
0.008867437321176468 
0.01658467349471615 
-0.007027296592884378 
0.007868039899186342 
-0.003908338856681032 
-0.04373313529592014 
0.009668847554046484 
-0.04629512071277519 
0.01353507619377574 
-0.03436425771349463 
0.001363900881615172 
0.001501932711302106 
-0.007269699713894941 
0.009731195070017606 
0.001188834856748025 
-0.009450261290224572 
0.000918811852315149 
0.002993425606726537 
-0.008328352725454976 
-0.03168699385118245 
0.0004260224271601594 
-0.04070954477248902 
0.01051727324678608 
0.003184544589235955 
0.007402459085610699 
-0.005654470544880438 
-0.008551385798532665 
-0.005169601025962552 
-0.008964656458379069 
0.03964856096779854 
0.002742317300064486 
0.03099593483047499 
0.01674858050802974 
-0.03163715249474524 
0.003678181399432754 
-0.0250921721071751 
0.002902632104395181 
-0.023667871732918 
0.004863089804295915 
-0.01929860042921618 
0.001345875033437952 
-0.01914303249581634 
0.006562036774253735 
-0.01371933388541164 
-0.00259530819938469 
-0.01160817891399607 
0.006140811599452366 
-0.000264762230915393 
0.009511483263998245 
-0.04777389666971833 
0.005944143550928557 
-0.009572296626435035 
0.001976863485689909 
-0.01701645274129857 
0.001040164369852654 
-0.003077393882429288 
0.003578563001147231 
-0.001877898870081618 
-0.00478806850892882 
-0.02995890283329463 
0.007349829055803848 
-0.008129747319574655 
0.01228343297369497 
0.008046842821769503 
0.01810588898616232 
-0.04860425483679632 
0.002957564579079974 
-0.03987061054081384 
0.01723231181328926 
-0.01365162182532854 
0.005961693251275163 
-0.0579543226904335 
0.004946873123699878 
-0.0331034444858722 
0.008521481259697672 
-0.00291719326002005 
-0.001124993345968996 
0.002313589448411336 
0.01529125409538001 
0.01610452373588502 
0.006800009156244105 
0.008360995571358696 
-0.007933292613707926 
0.02241930054345683 
-0.0009669814618070257 
-0.03768169221889826 
0.009269680599159568 
-0.01844926557577344 
0.01163075781228947 
-0.02392215230531701 
0.009273592682478633 
-0.05620325844963661 
0.01339726489459761 
-0.02516392018250397 
0.01143206484855649 
0.0005198884073461231 
0.004540449584022744 
-0.04268696225949273 
0.005552932939043578 
-0.01747853737719384 
-0.004378492317856421 
-0.07353160333683334 
0.009764595270368274 
0.09380363504474153 
0.01455651571014199 
-0.01183183808088492 
-0.007084511161357528 
-0.02965884164572373 
-0.00525233009976834 
-0.02618627837177115 
-0.001967429311110856 
-0.0420309601741107 
-0.001974453874394643 
-0.03161416525029476 
-0.005771883178697295 
-0.02817501142920307 
0.00162248274506668 
0.004094346951985794 
-0.006848347989937171 
0.07862889479486207 
0.02744105228530904 
-0.04752412359256001 
0.01033948760531872 
-0.06258128014635708 
0.01478670422930493 
-0.005569532894008622 
0.01031847262003094 
-0.02931331387472555 
0.003344705345841386 
0.008778562740457229 
-0.008294217596847028 
-0.009158353051160206 
-0.007686563314328836 
-0.01966216723833482 
0.003781406463716965 
-1.810252623357149e-06 
0.00765124511220204 
-0.01046655937401901 
-0.003878610016041381 
-0.01258614924616645 
-0.004020157579924822 
0.02417420839505725 
-0.000324734760297815 
-0.00368706634396694 
0.00567635093537723 
-0.02270212089326442 
-0.004324011685080466 
-0.00387002295340154 
-0.008212637770676583 
-0.007456238428991038 
-0.01002252209442644 
-0.01186830405653517 
-0.006713008612057302 
-0.01401416550220018 
0.002069518647482607 
0.01262145136446102 
-0.005855450652185169 
0.0395396179910943 
-0.006144377083351644 
-0.01913754594174317 
-0.0009864699896160439 
0.027603198259165 
-0.01606008694755303 
0.01685509163870835 
-0.01302971160838487 
-0.02462611570851633 
-0.003959523077986075 
-0.02980414843233626 
0.001604717380263993 
0.002933576974289242 
-0.01721138001021351 
0.002368736939837168 
-0.007709823855156114 
-0.00940431494799529 
-0.002163426779636573 
-0.05665908358469515 
-0.003547760155488194 
0.01654186765256851 
-0.01027691152810241 
0.02445560027293214 
-0.002420692897588891 
-0.0007686903207254818 
-0.01465588647323725 
0.005773115843291017 
-0.006078881174336559 
-0.01364244894575428 
0.007288735894243676 
-0.0122445188594861 
-0.004040768260158709 
-0.01044951695495854 
-0.0002177997787071511 
0.009931067688178604 
0.006253809616495015 
-0.01360034483858748 
-0.009408838181838304 
-0.008912111751408528 
0.000933420379342855 
-0.009474941372238796 
0.002347880149043548 
-0.03003863587506597 
0.008097138701987701 
-0.003011681057448691 
0.00266838676838758 
0.01370451364688387 
-0.004643772463450299 
0.0007210239739561519 
-0.002407349140543679 
-0.007570735274464648 
-0.006706568329561305 
0.02175513526021333 
-0.02153043144344546 
0.04052399777487993 
-0.01614704355907963 
0.004845176536469314 
-0.01686027060233079 
-0.03325821746753132 
-0.01146716467461853 
0.03172141597174023 
-0.02549603274344272 
0.01819348516126483 
-0.01749693388067938 
0.01454941081464091 
-0.008229581991998773 
-0.01511607082879612 
-0.02148576096253576 
-0.03496259761318388 
-0.008742087995377375 
-0.007960614284519097 
-0.01105594981957689 
0.007872408231260966 
-0.01825386420533223 
0.1204331142721459 
0.01351330677509052 
-0.02060050946318009 
-0.004063831139450643 
-0.06454577977339684 
0.0008010763134106482 
0.009009818580436929 
-0.01430903374315805 
-0.06236299091548785 
-0.008635586216784669 
-0.02780837716384284 
0.01147615517303864 
-0.07321918283086938 
0.006640854177616333 
-0.03322325041541129 
0.02230266340130762 
0.07699323273158133 
0.02021602708352322 
-0.01472740017048457 
-0.004811188722478888 
-0.01241976677506714 
-0.006700123302251139 
-0.06180144910892266 
0.01527395736473244 
0.04998785669729056 
-0.01196436505932091 
-0.03446053141128003 
-0.009566252629775514 
-0.00177391799534889 
-0.01813052387155415 
-0.05257023755917255 
-0.005244764521880036 
0.02492371295451197 
-0.006202574824877136 
0.02218304962205333 
-0.03390573125360196 
0.03799886600165883 
-0.02446641477664636 
0.02110581697120817 
-0.02168256054339793 
-0.006439390086714594 
-0.0104588802264994 
0.03628756867474224 
-0.02431197187189603 
0.01621209441514995 
-0.01323941869816754 
-0.002404405369837674 
-0.009683662153884817 
-0.03271553544278018 
0.01337738837442278 
-0.00612043991494864 
-0.009497426230383806 
0.08062112149247393 
-0.04336667820780252 
-0.01443928183761304 
-0.01248486477434789 
0.01052951566415603 
-0.008529168576052286 
0.04370081097331662 
-0.03212830116674915 
0.06293717106566564 
-0.02831148519604948 
-0.02389338169201169 
0.001699938284628078 
0.03270247129872488 
-0.01769534378980607 
0.01132141082059921 
-0.007717989714463877 
0.03252052139152219 
-0.02419242499944983 
-0.07805916600231627 
0.002947551618067011 
0.01967307313315871 
-0.01010737863534771 
0.0225389233662562 
-0.02032844412829835 
0.03900079538137471 
-0.02330170766672136 
-0.03784703216534892 
0.007190940791875763 
0.0133238546316909 
-0.02624596619523094 
0.002334097733936636 
-0.01001902383471353 
0.05846223862500483 
-0.02926265819512169 
-0.03273029735992002 
-0.002835345172328142 
-0.01662739858849546 
-0.002742056106642 
0.01473067547740606 
-0.0270297823895043 
0.05702048800077927 
-0.03659048536252042 
-0.0221554298253341 
-0.001378419269855228 
0.02586644191993388 
-0.02037225650374777 
0.0003390616761295998 
-0.01553628436247983 
0.04114023089566252 
-0.03362586561053921 
0.01896088975082008 
-0.02006646560544466 
-0.03114683897374624 
0.006286728188341751 
-0.003541461259216162 
0.001690852895834917 
-0.04340358095364293 
0.0002616036268818393 
-0.04413031264431889 
-0.003110911006142217 
0.00506826354408417 
0.006310852037798803 
0.006755210876276195 
-0.02158969620979261 
-3.697323862539404e-05 
-0.01008871508131561 
-0.03598119990563085 
0.005962780717248347 
0.01585203067515454 
-0.01605730179766256 
0.009656177202470266 
-0.01585527254304225 
-0.006659403572237207 
-0.01049822421667435 
-0.006819999751247067 
-0.01726375420546558 
0.01643626920093219 
-0.01585257016561243 
-0.03373533225053955 
-0.009307756252587928 
0.04312479860075893 
-0.02704143632076729 
0.02294879053827305 
-0.01391614648508759 
-0.06024756457243249 
-0.002949106927929789 
0.03021875084407036 
-0.02063120749983816 
0.04898487704908855 
-0.02057886599767755 
0.001437525923959568 
-0.01472272416286267 
-0.01130759554678074 
-0.02157169026445995 
-0.05108448607236284 
-0.007493482117172409 
0.0356437488919401 
-0.01376621525719538 
0.01435351995730562 
-0.002460267071685519 
-0.07509015744319571 
-0.000435571201614842 
-0.008599229250943481 
-0.009732063488644237 
0.02726441584996913 
-0.009512346366318376 
-0.005892572703425713 
-0.01115043155456865 
-0.008216940057545943 
0.002100260299826597 
-0.01590839120043888 
-0.01796786386104332 
0.04430815847453765 
-0.02294364118805764 
0.02771362774659698 
0.01042712471100921 
-0.04461058036521279 
-0.01590920578587573 
0.01786854193959906 
-0.01494602040126843 
0.01735627282273191 
-0.02017009610259205 
-0.002195494746970727 
-0.008321336271949741 
0.05441150946200184 
-0.01235326821154954 
0.01749533624193846 
-0.02783795344450661 
-0.02416025110739439 
-0.007748073349707995 
-0.0007063488694129843 
-0.003410881468887135 
-0.0498308909461609 
-0.004058748916151219 
0.003743963196179717 
-0.006062347015082317 
-0.008300230725771341 
-0.009900553167870913 
-0.008438727919580998 
0.001134024257231127 
0.03347367483201109 
-0.01120140760930886 
0.02037402690797916 
-0.01681622017968175 
0.03130020786618706 
-0.01673932667093229 
-0.02203188698010702 
0.00637418912600524 
-0.02318511273721044 
-0.0006865520058592597 
0.01052702457811435 
0.001440441932266994 
0.01311063212552331 
-0.007142807354713007 
-0.04541573250372487 
-0.009752187292193151 
-0.03763008740639211 
0.004654703841282791 
-0.04278190073593814 
-0.0005637334565807482 
0.001005136256026192 
-0.004232285975985933 
-0.01926978066571308 
-0.01033455360615396 
-0.01275445750144056 
-0.009669392828985941 
0.001188514256154229 
-0.01394636799292998 
0.01847734102807087 
-0.03299675244065669 
0.006699733274086737 
-0.01693529706011405 
0.003171362992970535 
-0.01193520096811671 
0.02904719581408515 
-0.02440268191748594 
-0.009099447461891433 
-0.01805884098750088 
0.03696094304348749 
-0.01871230074050976 
0.04544265032132479 
-0.012841809534723 
0.01007468490439278 
-0.01905237314627001 
-0.0464236221496177 
-0.00139984442559475 
-0.05677524161750932 
0.003060174508452702 
-0.02761071183967632 
-0.009681509196214752 
-0.001768442241785267 
-0.01004239445730003 
0.04620929042205574 
-0.02316900093583437 
0.01242488854897305 
-0.01197834694980853 
-0.04891685228780464 
-0.0138668424244226 
-0.0127970850587318 
-0.01764264535692655 
0.01129263554462501 
-0.0275823053070232 
-0.03145666048967478 
-0.01639296826272088 
-0.02785348153292382 
-0.003476379179157611 
0.02643752192980938 
-0.026611911509322 
0.03224671400493856 
-0.02189987156859238 
0.06962372780642188 
-0.01371144132855124 
-0.05535583515461642 
-0.0002445011275413815 
0.04886868344483048 
-0.0347159874844082 
-0.01417211071072245 
-0.002419996423953887 
-0.0401292980941745 
-0.007209737285961566 
-0.03418917485863322 
-0.001913080560114447 
0.03489702441171276 
-0.0147654565967629 
0.03488346487736474 
-0.02216357072736137 
0.016547230904234 
0.002681717495064151 
-0.04810595765854339 
-0.009122186752411103 
0.03914802254333509 
-0.01222169345674636 
0.01099056079406081 
-0.007119494641340567 
-0.01781088400640583 
0.004122058831357923 
-0.02079074404213808 
0.006555130346150952 
0.01214452341455745 
-0.02664545399996273 
0.007928612399784417 
0.0001684505454623212 
-0.03365047772615219 
0.003733646233116937 
0.01278181068717017 
-0.007515184025600923 
0.02240539669561296 
-0.01126625407769517 
-0.01401684352267301 
-0.0009299470695089605 
-0.02127522331660661 
0.004749604903333889 
0.0122438177554396 
0.003999571903577764 
-0.06145697097265895 
0.01121209014135652 
-0.001562283597535521 
-0.02179064649111156 
-0.03556772776273909 
0.010228690382415 
0.01782053341477841 
-0.003562462718513369 
-0.04696758153779362 
-0.007165138164079256 
-0.04309751489902254 
0.000382742721401418 
-0.01641981544734661 
-0.01787245027426713 
0.0184745117222401 
0.006796726813268436 
0.04110712202584493 
-0.01235049459614771 
0.03541150711217242 
-0.03663868080483922 
-0.007469299827988209 
0.003551796300785084 
-0.05787606491224562 
0.007142804555179005 
-0.06326416711683726 
-0.005320185503239658 
-0.06900936837004261 
0.001550470821142624 
-0.03354480526548402 
0.009865989100698922 
0.0123073790718421 
-0.01322261852300434 
0.1106336600275571 
-0.02785822781510279 
0.03095756927766334 
-0.009574138875531416 
0.01458930194320521 
-0.01551109356086964 
-0.06691121194436868 
-0.00304308683674259 
-0.02084382483961208 
0.00271062230893431 
-0.06334647617362744 
0.002139513596696754 
-0.02028236887302306 
0.0003164989653284402 
0.01382826114180814 
0.006151103344365402 
-0.01725315358302398 
0.003410468745345474 
0.05347983653839332 
-0.0009214517218355257 
0.02705877321315152 
-0.004912078584472774 
0.01059952510258594 
-0.00275699082825 
0.01575807430592869 
-0.002823219129153989 
-0.01166172863178921 
0.006519210065838171 
0.0119037786266509 
-0.01025710359246475 
-0.03042368952460459 
-0.01025236732321571 
-0.05051617781089655 
0.008899463009273053 
-0.01414233594600348 
-0.009347613162211154 
-0.01356973406525986 
-0.0008136419489639648 
-0.06363873293997223 
-0.0004894959637677367 
0.003751088623472749 
-0.003361896058789875 
0.004574059570630245 
-0.002879718489940351 
-0.02327383800673592 
0.005143294540885066 
0.01566105506289681 
-0.01009892668096955 
-0.02065860644909089 
-0.003498715549463904 
-0.0269594218433373 
0.003903788659964558 
-0.004485364251149549 
0.01518816176782321 
-0.01761964854579745 
-0.003066379544907356 
-0.01832055915448799 
-0.004840094849731497 
0.02969514624325946 
-0.01999025215816204 
0.005463099037767158 
-0.01820962997197668 
0.03751480307958842 
-0.01628267041432176 
-0.02009315316076792 
-0.02035055791212023 
-0.02664950997371622 
-0.006131582633495236 
-0.01195026685622638 
-0.004620841846370161 
-0.01010047347847445 
-0.001464544876083428 
0.005202255211502789 
-0.01940541486383147 
-0.01490658503929883 
-0.01819770484086361 
-0.01192100101505395 
-0.004797870461981903 
0.01850653871371895 
-0.0111297707020255 
0.004973055969211406 
-0.008553552939264956 
0.0164608362783832 
-0.0110909677110572 
-0.01265544869855077 
-0.01194076594075416 
-0.08485205100663724 
-0.005397881777418204 
-0.004071999579195546 
-0.006246129314291985 
-0.03953831777063521 
-0.01411401166230231 
0.003680898732005464 
-0.004786657862840851 
0.005435715530576987 
-0.01275047031643943 
0.09189282634691616 
-0.02745556219663969 
0.04769759222292771 
-0.005300795823000551 
-0.06011992178402108 
-0.002633647724626922 
-0.09651885200633807 
0.001757580231754415 
-0.0360312243203864 
0.00268115849240119 
-0.05495405150703585 
0.007015112605964555 
-0.05283847318138375 
-0.0001046926781002551 
-0.00200738004993031 
-0.01394836876943826 
0.09051458949413592 
-0.007798193863204939 
0.1144325751877884 
-0.01447560332234079 
-0.0292347969663888 
-0.006205881267582672 
0.0327364908743298 
-0.004371192000640153 
0.03861527390403392 
-0.02296978953395759 
-0.01629332638440249 
-0.01550878906514249 
-0.002774452468919465 
-0.01159321871945118 
-0.03216066715795561 
-0.007598590425889514 
0.007062410127158269 
-0.02021041573607216 
0.002661495934190424 
-0.01669046743920862 
-0.0001516201262639638 
-0.01040138051210829 
0.01137660439502677 
-0.01705031683011814 
0.06293997312643621 
-0.01295454187562773 
0.0008263093182272233 
-0.005475904001485688 
-0.0411695994956815 
-0.00740807761147543 
-0.0439629495173303 
-0.007467730876141933 
-0.01854984529873888 
-0.003516180216610267 
-0.007988520485854087 
-0.01162381858821483 
-0.002787772717441377 
-0.01189272999932075 
0.01802382611124151 
-0.009569340698222227 
0.03110765860118821 
-0.008936503390586454 
-0.01577513633502486 
-0.007538110134978536 
-0.05221869734892893 
0.006320950520377113 
-0.04391644445069341 
0.02305614866966789 
-0.04064913895057323 
0.003409187344574299 
0.01477498592482343 
-0.0151169045648867 
-0.009411817625527813 
0.005072194344352124 
-0.04038406222126648 
-0.006740296367701965 
0.006486878545858638 
-0.018246398176834 
0.02495000388021384 
-0.02665280939125335 
0.02531403555918225 
-0.01447174126739133 
0.05392437593117813 
-0.009785703096068256 
-0.01759744292602001 
-0.01435473206697133 
0.005168931544522066 
-0.008428532761656915 
-0.03106134497194547 
0.00637095869507149 
-0.07978393101364398 
-0.01385348402629088 
0.05515335970864959 
-0.02186552970129208 
-0.00861428548725294 
-0.01018556103797689 
0.002500630550206858 
-0.027800909969575 
0.04368461481809881 
-0.03671219012235562 
0.08191264585727807 
-0.03536468950011233 
0.0472587454522817 
-0.01226132322544367 
-0.0657034566191243 
-0.01318010946029687 
-0.08432556732782938 
-0.003050740428338009 
-0.07961510913927848 
0.01737178820454953 
-0.03783335087812741 
-0.009185583751185115 
0.001385219988450007 
-0.01689259080467113 
0.0222394964784448 
-0.02690439638635117 
0.08775812658129853 
-0.01591549247785855 
0.1088039787496319 
-0.005147637693246137 
-0.06760874279744584 
-0.01153790414441053 
0.02059515713137431 
0.01435220280805907 
-0.04325032435507337 
-0.000272034749235196 
-0.04286862318241847 
0.008967507025618538 
-0.04780956471161771 
-0.0116396601575519 
-0.0736479517307 
0.009761214829778675 
-0.004908240980160347 
-0.01147570478455671 
0.01965931958289199 
0.003678391585715876 
0.01015170989576702 
0.0005740579390924673 
0.05569048117030732 
0.001160298459612765 
-0.02637265168754613 
0.008642170681325499 
-0.05232827965409249 
-0.004334907785323141 
-0.03231955093918307 
0.004483641200170844 
-0.07688624711880215 
0.01120206950511792 
0.0276015284294928 
-0.01608261518339663 
-0.005576666416709851 
-0.01300917231058525 
-0.01158962281217365 
-0.006002215528724176 
0.01107669431579033 
-0.0124577030669443 
-0.01082967098940385 
-0.008337908230134956 
-0.004975071992969559 
-0.01116136896409682 
-0.03203654298731509 
-0.007798110763823499 
0.03413520225024962 
-0.03345479993670927 
0.008098161674573888 
-0.02025473910318846 
0.05447934862488795 
-0.02359490253256676 
0.04056740970940002 
-0.02597581840495851 
-0.0387477758625256 
0.0004255742349547534 
-0.001631100997037117 
-0.005302506584899789 
-0.003045442864270239 
-0.01536291037479079 
0.01475529838608246 
-0.02585744321949327 
0.06593334340466174 
-0.02479048968690486 
-0.000812206211402567 
-0.01301229207146067 
0.02105794773440324 
-0.01853385158672542 
0.01678482059739711 
-0.01678431942265091 
-0.04325529016235327 
-0.01290894410773664 
0.02685650225175504 
-0.01885700378311682 
0.04258216225943633 
-0.02647037858889486 
0.01797051834432094 
-0.01337518001739104 
0.03372589473588816 
-0.02395749929503553 
-0.007059821050648547 
-0.0289193745099873 
0.00928048430544479 
-0.008513749828524991 
0.02266440172993389 
-0.02290099024261397 
0.02406805237565959 
-0.008874637170320054 
-0.004406594087804507 
-0.02269965648035038 
0.02372370612559998 
-0.02220100104755939 
-0.00766405438276906 
-0.01467796055961361 
0.04010918775764016 
-0.01582069137097443 
0.005971192197903481 
-0.02978657984503473 
0.01518874769109824 
-0.02397008176090117 
-0.004964193810404419 
-0.005903278280424572 
0.01575013056657854 
-0.01647852306902552 
0.006801836397826541 
-0.02880415393356645 
0.04511364935107805 
-0.02856272622444398 
0.03329144899784266 
-0.03047033414913421 
0.02659752240232166 
-0.01699112323939405 
0.04144495315004841 
-0.03664687136249966 
0.006806745377130744 
-0.0429879226487685 
0.01487088932889106 
-0.01984770299902939 
-0.0001876232806748549 
-0.002149274830070195 
0.0257475177936831 
-0.01824105232708382 
0.03080184452153535 
-0.02499695042575034 
-0.02272846816068364 
-0.004386603319588863 
0.05431255212552841 
0.00347273670275506 
-0.00473487393861748 
0.001272807265943028 
-0.03423585254255792 
-0.002760725198644938 
-0.02471491122988541 
-0.01068625203767124 
-0.06619897018197496 
0.0009101793422727248 
0.03737079311076866 
-0.0184805571565968 
0.0172723415146635 
-0.01550406842763427 
0.007336785236653373 
-0.01208398253358133 
0.01542036240329658 
-0.02943685053285471 
-0.0003153232393503711 
-0.01040885908645811 
0.04849859570835047 
-0.02831482343876186 
-0.03551625368817494 
0.00310083560754684 
-0.05408069382234397 
-0.008530411752618912 
0.02494145463536836 
-0.001136100631852213 
0.03234231191420681 
-0.0163390167284098 
-0.009431432581726049 
-0.00501188135164564 
0.03585881588349546 
-0.03213992329660119 
0.005169085185002496 
-0.01989515369287671 
0.05610547151325512 
-0.01818951447378024 
-0.04384055170586219 
-0.0132309707419385 
-0.009100603686004087 
0.004108051652026678 
0.04234143483009 
-0.01505528129491524 
0.01176989456768919 
-0.01231608421791302 
-0.01038160383247574 
-0.0187080634905759 
0.0002732748285533219 
-0.002829405117780098 
-0.003047122730659189 
-0.02399568331953215 
0.005827701490631914 
-0.01439771936362479 
-0.04683092501900332 
-0.008196962206131897 
-0.03558880263215337 
-0.01475092509392436 
0.07041212432361646 
-0.01909889235777213 
0.03955736702561065 
-0.02787925329183499 
0.002501558773563958 
-0.01089830185481416 
-0.01965499027227591 
-0.01510643480342519 
-0.04519508227105724 
0.003758654561670531 
0.0204347363952289 
-0.01895946878077767 
-0.0007732528369647358 
-0.009853855370427479 
-0.0278145977601475 
-0.0150516619329246 
0.04383100894439911 
-0.03147936684124254 
0.01875993285423216 
-0.02486499983052756 
0.03974131783700887 
-0.02601326289125902 
-0.01654180134259461 
-0.01896772614579163 
0.01707556864930025 
-0.03204445203221798 
-0.004519236445276175 
-0.02351456246241757 
0.03446002798505508 
-0.02024811056184139 
-0.005903254996926218 
-0.001731461093252145 
-0.03778125889195218 
-0.007666519918173979 
-0.03763961331782575 
-0.0002083560373102666 
0.01970858804701028 
-0.02549566789676183 
0.04999273490786868 
0.0009083255696314752 
-0.002069986772208936 
-0.01012974750394906 
-0.01972862970764522 
-0.009101227237407718 
0.04568086670554774 
0.004589750275184933 
-0.04890808477360943 
0.01521302962508411 
-0.01536160389222154 
-0.01312508926322622 
0.03139392988030079 
-0.0140191603484199 
-0.001754180279568493 
0.006463672002899662 
-0.04412036126131504 
0.006945331158378515 
0.01535484187868303 
-0.02482750748670823 
0.02902822722805468 
-0.01640284479469781 
-0.04355575895659101 
-0.006269424394213059 
0.0488673780962804 
0.00904946329254447 
-0.04627736655395562 
0.01054090407166596 
-0.05725815888866539 
0.01178949895963812 
-0.02187122980449119 
0.01256861013581496 
-0.04126353918107328 
-0.003082819313791886 
-0.02949936271359749 
0.00808312811719732 
-0.02800381670577157 
0.006046812417641238 
-0.004821058846368989 
-0.01102841730315074 
0.0093320410195919 
-0.01233186685975304 
-0.002975285204760495 
-0.01271143602687452 
-0.01490019104087913 
-0.008615096189188119 
-0.02540953086596195 
0.009387383541937296 
-0.02827717212810736 
-0.001018584463269416 
-0.01454862694560316 
-0.0008902308084983197 
-0.02879983135164529 
-0.0002833290042765727 
0.03797592661925331 
-0.006615046286987211 
0.005233797831776701 
-0.01477080129363352 
0.05580931637910226 
-0.02740695762002424 
0.03206080173317723 
-0.02290392831992961 
-0.02022906861970276 
-0.008874492708257877 
-0.01323685251790534 
-0.01194504032196342 
0.005438566025087021 
-0.01638024169761581 
-0.03200564955827476 
-0.01875915419703265 
0.01124331326439265 
-0.008639829695393958 
-0.01755260925826719 
-0.01823233313104537 
-0.01572988080777573 
-0.0141238056456012 
-0.02188867105967849 
-0.004650019612621526 
0.0195499915334111 
-0.02401536215587795 
-0.03357514983590711 
0.001642901465485136 
0.006949251108921507 
-0.0176818778382182 
0.04953725457277425 
-0.03618964977722908 
0.05550143013244156 
-0.02168345719136822 
0.01214066079469625 
-0.008378837580438111 
-0.01924197599237808 
-0.002017993064123699 
-0.02432263075710224 
-0.01043800693871045 
0.006819569439297233 
-0.02124567708424059 
0.04325548210764391 
-0.0001834541012487507 
-0.01417963244488063 
0.003417176638173423 
0.006768372179815313 
-0.002013653473874916 
0.05294938189772393 
-0.01683755319878292 
-0.01321786758480763 
-0.002882018095935587 
-0.001139638845643967 
0.005442469906922054 
-0.0003160260780131896 
-0.008737311004470748 
-0.0429338173764262 
-0.001099546832815302 
-0.02026840028667889 
-0.00561639779822518 
0.01069990375538474 
-0.01153374353274331 
-0.02088908513412792 
-0.00735134097918031 
0.006975982962073772 
-0.007058498997235364 
-0.01669206503331735 
0.0003193684992868837 
0.0311651731904815 
-0.004329399120221403 
0.01466821655972385 
-0.006852388379698655 
-0.01778100820974596 
0.001793823212331032 
-0.06828766521146658 
-0.005871485112206195 
0.001034741510733144 
-0.01285563201500352 
0.03160346618439304 
-0.01536025882212782 
-0.05286090636146196 
-0.007705539043970708 
0.03401097331023623 
-0.006987803635848224 
0.02788108807946147 
-0.01450778189431427 
0.01731710349514182 
-0.008165728012498338 
-0.01418315932420976 
-0.01785358580582417 
-0.06490303052774317 
0.0171443083430796 
-0.01306153926969589 
-0.003086947005287274 
0.02115675929823727 
-0.001680657259643151 
-0.05801262675444437 
-0.005083027279198696 
0.005143576327582153 
-0.0005096210872424262 
0.01487270087531777 
0.000608755256325416 
0.01957104859636341 
-0.006705314766504779 
-0.005245575173930223 
-0.001624461582229344 
0.0009448931424768361 
-0.004134123056876104 
-0.03970994668917888 
-0.007089043878445434 
-0.03122601108775902 
0.004653981268807263 
-0.03650431244950689 
0.004623247866927414 
0.04297296570939249 
-0.002973423490926186 
-0.0219731156406022 
-0.01158990144510641 
0.008094176808652886 
-0.03042774793430571 
-0.008092406246482451 
-0.01176569961166728 
-0.02896674103896741 
0.00383066222292393 
-0.01926237172983546 
-0.001228320367393134 
-0.02731662301516932 
-0.01407422431147339 
0.010035898614321 
-0.001665466458651918 
-0.005774639740362909 
-0.01839355693805507 
-0.0008549425414078013 
-0.009944982619821541 
0.01946282009158206 
-0.01901373259739185 
-0.003293239119496548 
-0.01281410603278497 
0.01736658611762206 
-0.01711940037844517 
-0.001928918561253945 
-0.01119541626520915 
0.0369332252828022 
-0.006386539990149711 
0.02010866203768621 
-0.001866410413695938 
-0.02015945685322585 
-0.01686035066743875 
0.03059359753506818 
-0.03161046930581158 
0.04487774395592324 
-0.02647380382065326 
0.01490869365762111 
-0.01764983135201688 
0.01364005278036504 
-0.0244472914346481 
0.02530331762537502 
-0.02422282161446246 
-0.01305851374535319 
-0.02338280504414929 
-0.03761216029197614 
-0.009715024154522245 
0.03420984091301269 
-0.01436713539033367 
-0.02815186546162666 
-0.01263606627325372 
0.003759691112076872 
-0.0251064356261212 
0.03099538720806818 
-0.02104674505835996 
-0.01047624673478272 
-0.01494752250295285 
-0.01590719969363947 
-0.008815086566559003 
-0.007205477482976282 
-0.01604003630379066 
0.01981522832683972 
-0.02217948794789618 
0.01998071371208928 
-0.003746957541589294 
-0.01004699872482679 
0.005461124435470248 
-0.006405072203086451 
-0.003207751711772692 
-0.01754015501087128 
0.009335038572495862 
-0.0306043163500394 
0.006518412357362558 
-0.0510895926835774 
0.0005637603208091978 
-0.02894851155644656 
0.002837651377973433 
-0.01349643165514442 
0.002378356048338534 
-0.0435332776227382 
-0.00737309480426712 
0.03048485403457383 
-0.01348971897307804 
-0.01343490041394224 
-0.02248090703427497 
-0.01057525141687788 
-0.01781428111277115 
-0.01913132235468012 
-0.01719351225727019 
-0.02256227974740578 
-0.01035415793735658 
0.04595868914082107 
-0.01782885858857724 
0.02587275970364692 
-0.009002234319779881 
0.001524834426910523 
-0.0173496155437844 
-0.009513532742342292 
-0.02206237465481379 
-0.001883657455695282 
-0.01311058705143598 
-0.005570396401334718 
0.0004385726619980069 
0.03140796087081847 
-0.02706891838162341 
0.004491847326727343 
-0.02222950615702277 
0.02666944825280925 
-0.01913907354296478 
0.003449949904955063 
-0.01431157879072913 
0.0006510325297894967 
-0.005426507963163711 
-0.0289805283972917 
-0.003288547372996546 
0.03812805077927919 
-0.03900428756525784 
0.01868764130135313 
-0.02023017464274103 
0.04226839395146063 
-0.007438562126506065 
0.03410558485799066 
-0.0157713371158778 
-0.02389192132329342 
-0.01086708321396962 
-0.02638436907675168 
0.006958750286249796 
0.02777864459180147 
0.004128507213317622 
0.0272126599953909 
-0.01651846746123569 
-0.001786922398184737 
-0.0160038927065464 
-0.04217769450551944 
-0.0003657863642514862 
-0.07996318671326941 
0.03324129501339831 
-0.04100495389984831 
-0.002661251637694145 
-0.003759306215699983 
0.002654900029087933 
-0.02386211547027474 
-0.001388831648668197 
0.04205521426544493 
0.00230715414416685 
0.02797787747891788 
-0.009871519821202379 
-0.01596951465448452 
-0.005611346932508174 
-0.03710256778563044 
0.002301431024820827 
-0.05059895942059545 
-0.006053046358545477 
-0.02921568212945976 
-0.006956274700986539 
-0.06147861156135268 
0.006702809061954627 
-0.001534687159740059 
-0.004275155562548248 
0.04932095836092255 
-0.0001434665789063566 
-0.0002755007269320952 
-0.003794262522881463 
-0.01586676155614056 
-0.01190957592246655 
-0.034646558184065 
0.002493524270685305 
-0.03285446390774449 
0.001139715071499047 
-0.02060093045075382 
-0.01325294817064328 
-0.02137067415022613 
0.003552071847479602 
-0.02979202758899963 
-0.004178211227981152 
0.004993393678899283 
-0.001398558601730714 
-0.02261241652013398 
-0.004921744197562124 
0.01404945059098693 
-0.01920746028159814 
0.01565903631676171 
-0.02427809163510588 
0.01465222426230272 
-0.01475447782948928 
0.007775195636336198 
-0.02227645153417628 
-0.0121336941915458 
-0.006590938513679438 
-0.006202002194747352 
-0.01105038098950835 
-0.01484470614871316 
-0.002090461118232294 
-0.06367518577511079 
0.000657880495156845 
-0.01872197747358097 
-0.01031332280883081 
0.02327551071671923 
-0.01245152248345968 
0.01311630657421844 
-0.01118180968731462 
0.01156865617829779 
-0.01585196615921818 
0.006613191906899505 
-0.01061026748073676 
0.02097601517516352 
0.0008097772925536442 
0.03000495822733163 
0.004288359918290129 
-0.01286007754550189 
-0.001272122893629047 
-0.03488096060012986 
0.001071002461300049 
-0.09257207039605675 
0.009806922673039722 
-0.008404630566616712 
-0.003091551465878928 
0.007525054628195462 
-0.009431343773266931 
0.01615563860757711 
-0.007374739662494584 
0.05598824609765884 
-0.009244669644828132 
-0.005382487708326073 
-0.01039280998931897 
0.03323378139108452 
-0.02096759579852572 
-0.02523781966070263 
-0.01117102725765677 
0.01692844956754537 
-0.01699617279491762 
0.02421899789156803 
-0.01792705882906314 
0.01582496346770533 
-0.0106102564805539 
-0.01295432661228725 
-0.01333623260778701 
0.009058880203601797 
-0.01016893749162746 
-0.007733909168733767 
0.00464993759788472 
-0.0001698989608583101 
-0.0006724518154224111 
0.01440570978123657 
-0.01524637573197769 
-0.06243650093751719 
-0.01729242156436563 
0.01624790676211152 
-0.02240526090542274 
-0.002406067125570358 
-0.01486784850311724 
0.03242805470481157 
-0.01076864197663709 
0.01826321506849952 
-0.006538998034917494 
-0.01630652021776589 
-0.0110206738764676 
0.03826478174263177 
-0.01357249398097357 
0.0197202588902082 
-0.02230938330841708 
-0.03573561992489759 
-0.01415917327126277 
-0.02091502788420578 
-0.01052498080497775 
0.01768470268411073 
-0.01636135046909602 
0.005864585170531785 
-0.01318569055923259 
-0.04885007824599136 
0.002765092701070657 
0.07471823829862034 
-0.00875174077642573 
-0.009620855857516646 
-0.01517255405792371 
-0.03297942299048598 
0.004885273676029709 
-0.05076649049658943 
-0.01183179131903992 
-0.05824307447226058 
-0.005957185184507863 
0.01455865379148387 
-0.01354008552802124 
-0.00103579335605112 
0.002178526998303878 
0.008345766625282304 
-0.006464289801609586 
0.09120841395485056 
0.01407120896107924 
0.00966839047817678 
-0.02089714290183823 
-0.0146403745226876 
-0.00317748620145795 
-0.02815763547573335 
-0.008546707830316226 
-0.0240101637570712 
-0.004116214119985721 
-0.0325396151379763 
0.0008210687454819441 
-0.06123201462436371 
0.005837179301509964 
0.02128022184096857 
-0.01133066906788267 
0.04528236486849955 
0.00148940879305293 
-0.01190351949983766 
0.01580328669073737 
0.007701984633641453 
-0.009834899007386454 
-0.04931505674987203 
-0.004135470706494926 
-0.05995966292871352 
0.00833782128494886 
-0.01220013644887267 
-0.007827523613313054 
0.001168720055348472 
-0.01406283625490511 
-0.01103944566783585 
-0.008052992746729246 
-0.01436750696657662 
-0.001124003327046638 
0.03941004742044553 
-0.02300413154516001 
-0.01092857071479956 
-0.01395867322588763 
-0.005598950451563251 
-0.0008091846826322754 
0.003407314511035294 
0.009908812098493517 
-0.001188075468545217 
-0.01100056717716417 
0.009012307824905948 
-0.005024489869113071 
-0.05155792809598529 
-0.0009716478745683679 
-0.0099558826309792 
-0.005503339553567517 
0.02546880587648134 
-0.03064504091405233 
0.02235183271816721 
-0.02980309476586982 
-0.02039090007735758 
-0.01661380699620035 
0.01296230513565489 
-0.01205278277268819 
-0.01206086091341519 
-0.01914966886599918 
0.0357412669403769 
-0.02430025281925835 
0.04556388726266261 
-0.01889196221682739 
-0.02228309372836586 
-0.02646828836485061 
-0.003819134411167488 
-0.01842368122626847 
-0.005924364058994487 
-0.005982638328258075 
0.01040118010894366 
-0.02229278850188191 
0.008200422012697273 
-0.04130729192110612 
0.05085272750780888 
-0.02001283108171324 
0.02006178052801366 
-0.0220384254853267 
-0.01668340275686031 
0.0003892891600282038 
-0.0156534734283131 
-0.01364388808685644 
-0.04368670061363274 
-5.362521781318213e-06 
-0.01531159404829071 
-0.01499402685224684 
-0.02912416949667573 
-0.004730169049117701 
-0.07509125887618821 
-0.001396616785704126 
0.008579415024059846 
-0.02209036280853178 
0.01350871516413791 
-0.01308168703039464 
0.09027178688711326 
0.01518508472067563 
0.07352206593455617 
-0.005675443367952041 
-0.01413762048135876 
-0.0008450562928364835 
-0.04878038387568106 
0.01063377695405563 
-0.04027493428957481 
0.004897499270026612 
-0.0856601121489852 
0.009182691765169997 
-0.02139270241679691 
0.01316642539539314 
-0.06109995188040965 
0.002653283569472282 
0.05519431218377457 
0.01705562097427925 
0.0373636225019854 
0.01009608244108597 
0.005877655032121031 
-0.005544560702691428 
-0.02895539444792591 
0.00955203387637093 
-0.02405854784751998 
-0.004300600020969495 
-0.03776803635120284 
0.008075821313283091 
-0.05293878756770968 
0.0001629691047385369 
-0.05181637693438611 
0.01029853768976644 
0.02172097861005336 
0.002436532278364081 
-0.01818516410651947 
-0.006571653934983359 
-0.02393722771509946 
-0.002037857067896507 
-0.00738430803943244 
-0.002156926278027738 
-0.01705835287468727 
0.003977249092687587 
-0.004102664180766472 
0.002489733096373373 
-0.00831885874860337 
-0.0129894452387702 
-0.03020587324849091 
-0.001636055671214772 
0.05200562845281871 
-0.008324269814757382 
0.006863661980804489 
0.004982660667882758 
-0.01304226632937609 
-0.01696793587348116 
-0.007378963510418096 
-0.01038267328746078 
-0.02981117700951705 
-0.003143153219263069 
0.006121283970756507 
0.005509713377118444 
-0.01352967863658055 
-0.009182411193685349 
0.009675403145963494 
-0.02118515856411709 
0.04373058907037052 
0.0004986076924544037 
0.0134147970752759 
0.002449116090220001 
-0.03540012486761752 
-0.01017061791379851 
-0.0004850346262472308 
-0.01192197108770617 
0.02620817583468578 
-0.02785802653564359 
-0.02378201739583512 
-0.01757738671308002 
0.04476204500774737 
-0.03049620127891811 
-0.04455492909204678 
-0.003012780499450189 
0.04055566437020178 
-0.003023747968249543 
0.04324859184858677 
-0.001234719284612069 
-0.03655224303591261 
0.0006971751510462623 
-0.01011707424081658 
-0.02027558984404948 
-0.02030515406232955 
-0.001115195837607426 
-0.03359933459099377 
-0.01273524511957858 
0.02074575391109168 
-0.01710241893600981 
-0.05091067674618618 
0.004674202215039617 
0.04833741372718417 
0.007184744462023649 
0.05025292408569328 
-0.01108826775771642 
-0.02400022320447495 
-0.01012360072697403 
-0.01996305048742105 
-0.0008967867189388037 
-0.07742226445308818 
0.007511162247382386 
-0.02715676901155756 
0.006438879838341675 
-0.04528691316492937 
0.01559805311680077 
-0.02178766406198546 
-0.009891333323549138 
0.1121492906517581 
-0.003240827047782543 
0.09340448637570536 
-0.01411027525624256 
0.01868094971269542 
-0.00315170865430583 
0.01385675928828913 
0.008684127827457181 
-0.06143374937852053 
0.01024342840939078 
-0.1082346413687391 
0.01463826063702124 
-0.02370519137672033 
0.005137147463445111 
-0.08180645732973037 
0.01242254293384369 
0.07593373549082105 
-0.007876320883747573 
0.002534794223218012 
-0.002235863947033246 
0.02659534209007044 
-0.02422431840578683 
-0.01328653014036553 
-0.008751144811695841 
-0.002023569675166855 
-0.007585876809245969 
-0.003945375500161497 
-0.004999107528165853 
-0.04672831809445571 
-0.002488756482425796 
-0.01511233270680844 
-0.01098672122744774 
-0.01164697098246992 
0.003364720750633956 
-0.02298713930018758 
-0.007407135679544664 
0.01447738330506304 
-0.02523007905917748 
0.03156946508530854 
-0.013581892420405 
-0.02650168635119436 
0.001354278230278998 
0.01798138082480997 
-0.01889837842595739 
0.000359799553174841 
-0.01908523896650771 
-0.001956285572568156 
-0.01302178107315311 
0.02618692402714424 
-0.003938497802792085 
0.01046573893366379 
-0.00377520949890075 
0.05592201853157888 
-0.01707609621109854 
0.03591441248007418 
-0.01625197608626364 
-0.04992513247964864 
0.0035183164918868 
-0.06799253664861328 
-0.003251244776114578 
-0.001808407541002736 
-0.01351837594216049 
0.02308668896703571 
-0.01491340925202228 
0.02542184534798217 
-0.006342792947786908 
0.01280322031283621 
0.0004636643208346514 
0.02972872183383369 
-0.02001110335049337 
0.003715253000125052 
-0.01251195605503466 
-0.01742647846388149 
-0.006154114166988862 
-0.02376263789850398 
0.001256004417034311 
-0.01009970837092419 
-0.01070476338404646 
0.01733621823141547 
-0.02712928339782279 
0.02418604817759456 
-0.01327933630434949 
0.03945197727137007 
-0.0005991729175000075 
-0.009967312661546593 
-0.00809046848015201 
0.006702652860855514 
-0.01476967152152289 
-0.02599774688818306 
-0.01620381298960773 
-0.02473273352198211 
0.00747027137300514 
0.00661876978924126 
-0.01330444870955083 
-0.03092599066511622 
-0.004844499706719388 
0.05571296318346967 
-0.009037934022069809 
0.0124189956175383 
0.01174449853038264 
0.005205242457768517 
-0.005311249607220823 
0.03116029724334069 
-0.02531738643708978 
-0.01228052948332599 
0.002099755414508757 
-0.007159116236726919 
-0.002249481732874538 
-0.003321333760825378 
-0.0113575821488763 
-0.005151418463998248 
-0.01492520051383033 
-0.05220425300761464 
-0.00690053459584024 
-0.03069964647788895 
0.01049119887056116 
-0.05266576426098043 
0.0004676947029304682 
-0.01197567054804024 
-0.01291518669314559 
-0.05292945779417657 
-0.003996483443939585 
0.05946762532676492 
0.01110774837662275 
-0.01413082597346197 
-0.009186978424686866 
-0.002267975220351097 
-0.01533722749192732 
0.01270521474464828 
-0.002323881068430072 
0.01173314220291552 
-0.003134442239369902 
0.03968054603376984 
-0.02200905898674635 
0.01643110188526447 
-0.02107519110315181 
-0.0211300087270017 
0.0005237292388736843 
0.06200667234679204 
-0.00844371899878146 
-0.06180903199082722 
0.003650962105221561 
-0.02723000269324808 
-0.004192501480119083 
-0.01295468918718087 
-0.002825778604083597 
-0.002646443574418718 
-0.001207367219561052 
0.03231679626200473 
-0.0248503457544779 
0.01314360332239121 
-0.02783845138334485 
-0.01920322865335264 
-0.005373214017218649 
0.00687503183930595 
-0.0109841822079643 
-0.02444944767083175 
-0.0101844024828406 
0.02565272808638852 
-0.02405151802297696 
0.01311617491865833 
-0.005773808403027153 
-0.007093928167738238 
-0.00299064838074727 
-0.00957761176709745 
-0.01583391624894319 
-0.00282280941996763 
-0.01941098821943474 
-0.002302058381515923 
-0.01195257767097099 
0.01006323758419625 
-0.001824356209468261 
-0.003314390019088632 
-0.01189685239517763 
0.02051275014473184 
-0.009901097863121388 
0.02748113044297561 
-0.004249269120648031 
-0.02470351781905402 
-0.001710322352504352 
-0.009317825745467934 
-0.01191309300497783 
0.005398597936814102 
-0.02235455611438641 
0.006769684478018751 
-0.01742504351045499 
0.03044675134864241 
-0.003079505269479556 
-0.01012502423170359 
-0.01037859784830166 
-0.0139180496952846 
-0.01450800518741216 
0.06830021176682213 
-0.008077021595858505 
0.02090126346328163 
0.003022989454376342 
-0.02379469866102687 
-0.02066937245260365 
0.006728111356714533 
-0.01206606847470874 
-0.0360311760478033 
0.02078500499081912 
-0.02544963125434062 
0.006447683711657336 
0.001693698547985414 
-0.01205983667615075 
0.01625127984277764 
-0.0167841838908052 
-0.01330710440244206 
0.00405524035442078 
-0.02636609926728101 
0.01769468967571523 
-0.02894627252293608 
-0.005598887043942019 
-0.04708531305487895 
0.002983865485602688 
-0.008571404547618846 
0.003116206069279056 
0.04824543103703455 
0.02251515314531038 
-0.05098436570716507 
0.01378999071921037 
-0.03343787312335621 
0.009126812365394166 
-0.002613450460794346 
0.01303994609382612 
0.004086866578276273 
0.0007823553692109457 
0.001710689871489347 
-0.003510904667860275 
-0.03883235966737615 
-0.008393622743897921 
-0.003994069039931052 
-0.01582782739566524 
0.003336182929472763 
0.00828781837737675 
0.03299573832804786 
-0.03432724993640552 
0.008039075814533048 
-0.02072770886779431 
0.01715581771612233 
-0.008283203771573832 
0.02270796047504181 
0.001345522885114202 
-0.02770684428454413 
-0.009796853102815171 
0.0231060773648803 
-0.02842283723171988 
-0.00552332445356821 
-0.005333724508008749 
0.02999634578830072 
-0.001579882890465556 
-0.002807963372676095 
-0.01600917328735147 
-0.02580859087007823 
-0.006412708066262036 
0.02300368538244085 
-0.00723938635579022 
0.008640612781394106 
-0.004032299327316413 
0.02244601903699801 
-0.01516796525321745 
-0.008859142883056901 
-0.01487279802335398 
0.01174372133798365 
-0.01696660599715744 
0.003750244606631899 
-0.02630006307918491 
-0.01042174392850303 
-0.008396402340163854 
0.03145972885503858 
-0.02721587697184847 
0.03668474158534789 
-0.0147465642469094 
0.0126493557694107 
-0.01612385791265894 
-0.02879878827133 
-0.01083684328591604 
0.04156257759028963 
-0.03820212959027689 
0.008311854923110247 
-0.01395624586166867 
0.003864927405393967 
-0.01912139018684549 
-0.0008712916507068619 
-0.01845627439339037 
0.01374191569800187 
-0.01594660049409506 
0.04963177238628248 
-0.004420314071215277 
0.02047015772691631 
-0.005263634187384287 
0.02573419027659074 
-0.02248639400843215 
0.0385245081734269 
-0.03087915768255263 
0.005381188199296296 
-0.01425599236241232 
-0.02988449718567081 
-0.01625133935933278 
0.006920046971998159 
-0.01464849989831691 
-0.002808391985749252 
-0.008056247005931935 
-0.008603559683648596 
-0.007953934244154666 
0.04273007210086336 
-0.0002019960168010782 
0.04622831061242685 
-0.02353733207752601 
0.005612903895781831 
0.00076186517376613 
-0.05518079100359272 
-0.004362544267928503 
-0.02704303784524719 
0.00433619903539615 
-0.03927429803640155 
0.001503132844451538 
-0.04705056325540306 
0.006684540291195052 
-0.03175833901040551 
0.002080920586496215 
0.0402597982834581 
-0.007842897060885761 
0.06499007427858264 
-0.01711334520907465 
-0.03833175682538461 
0.01046859466634678 
-0.002649240048340602 
-0.01405114371208922 
-0.04287791065397126 
-0.006816154748194286 
-0.0254746036892294 
-0.0008032017815236392 
-0.0269096991066641 
-0.000365949016985581 
-0.01685771674446156 
-0.008017456892468378 
0.07904758888462893 
-0.004139964840958221 
0.03590326181221901 
-0.0154820548146326 
-0.03523712509060077 
-0.003491963085854134 
-0.0328888218925828 
-0.001485805575732636 
-0.03269288022955399 
-0.006630896299885584 
-0.008045951750138456 
-0.00125088479073591 
-0.01949355244433843 
-0.01605292748375983 
0.01396514945639343 
-0.02527209805999103 
0.04196498297093795 
-0.01997658335774143 
0.01992684238137786 
-0.02742444019045158 
-0.01852745262669634 
-0.0135602020678832 
-0.05059354553762924 
-0.001132755108607907 
-0.06210201567625656 
-0.001892827358837354 
-0.005597151323644039 
-0.008076199962819025 
0.01810542597471669 
-0.02489184068280129 
0.08708695121618235 
-0.00428427491127347 
-0.0265130585943928 
-0.02242411761712833 
0.0014835850300594 
-0.01984217984025873 
-0.01279029330774874 
-0.006465249341786296 
-0.007842062750683885 
-0.02632076101210286 
0.04381008070382049 
-0.0177087609505651 
0.04736962128057876 
-0.03308113848405931 
0.03582874138027699 
-0.01361086638167392 
0.01337503756066624 
-0.01882654955984754 
0.008556698112805754 
-0.03316166390462072 
0.0333069358390622 
-0.0182892366239285 
0.0189229000070961 
-0.01134409252880824 
-0.04483468843403677 
-0.009570258072628108 
0.009884523146517138 
-0.02266263100216371 
0.02495548046045595 
-0.01399729743976866 
0.01453371934405698 
-0.02354438355308653 
0.03228864581183422 
-0.01284621584026411 
0.0909563614133313 
-0.01012970654974895 
0.06544579984386713 
-0.01850440911986333 
-0.01581699348393453 
-0.02008522789799925 
-0.06838376836889555 
-0.0007603356588476636 
-0.05002439355843014 
-0.005349384968542951 
-0.05055603217547477 
0.002668113460489803 
-0.01461689481834427 
-0.01378760788280303 
-0.01882621939425213 
-0.01073342602437233 
0.0491215116026393 
0.005953029043960805 
-0.04582498902674634 
-0.0006925063594499231 
-0.04962491555404906 
0.002013916205720313 
-0.04733768131018842 
-0.002782396478022209 
-0.03041338939936554 
-0.01684560200350285 
0.0291529832836775 
-0.02227845076526325 
0.006470458514529894 
-0.008751218803453236 
0.02402816801177194 
-0.007331381198041807 
0.01195991293449378 
0.008046587361235433 
-0.05454798541195745 
-0.005553682600850806 
0.0105006858722258 
-0.005883633218586744 
-0.005446824916525569 
-0.01098553354536276 
-0.01644245266431798 
-0.005475483330341982 
0.01685120975779657 
-0.005790286518428206 
0.01862780128461571 
-0.02001155880981747 
-0.02845909597202511 
0.0006322110424940899 
0.05437513796749516 
0.0009762009665262998 
0.01030958215495053 
-0.007349907329312459 
-0.02874409728018138 
-0.01029194090594043 
-0.03158372769383161 
-0.008237214145945474 
-0.07330206966880895 
-0.005696175160658209 
-0.03567660657882402 
-0.01561728330933564 
0.02595903929370307 
-0.01222816655317858 
0.03360222335088416 
-0.01113837994628089 
-0.006121173667161884 
-0.007471085415742132 
0.02173005896709466 
-0.02340239235825165 
-0.01118476209134526 
-0.01620172564185032 
-0.020099794219613 
-0.03396114526238558 
-0.06785222342443824 
-0.005235096499184949 
0.0214519840721292 
-0.02161480751427765 
0.05124497777844428 
-0.009494794463079336 
0.01680784910173636 
-0.00630955381425432 
0.0237669804477527 
-0.00331387009057325 
-0.0326496531985378 
-0.009054896456687092 
0.02148969812387329 
-0.02312503684683628 
-0.02636930015103449 
0.004113062103843594 
0.008968837654507135 
0.004309500273535398 
0.0128193981071468 
-0.01550926795729036 
0.01133259678734362 
-0.01563605459866406 
-0.02468202313364664 
-0.01172616787642918 
0.07489646666189355 
0.01108864096183538 
0.01620397123989946 
-0.02639685460850832 
-0.0298038421296548 
-0.006346807288829243 
-0.03320992552934864 
-0.01866061040170426 
-0.01591539931907168 
-0.01160629588298044 
0.008227390745594929 
-0.02743350988610266 
-0.01472649964842435 
-0.005241320718163558 
0.03657175737703407 
-0.01053271618177727 
0.02565771461905666 
0.0001214192684024544 
-0.008209949182616047 
-0.01537322549102582 
-0.01144162071109626 
0.005327732312298899 
-0.02155807121858463 
0.00724890822762334 
-0.06069757558988736 
0.02291696710704923 
-0.003880472367714301 
-0.004734839818558685 
-0.004939688653543875 
-0.00136819838881182 
0.004542884351765457 
-0.002596034222096721 
0.01944675473041558 
-0.003771800501902139 
-0.05480674949584657 
-0.009927398556073814 
-0.01554767217091672 
-0.004508520686097931 
-0.01139167437355014 
-0.005540468503207453 
0.0009434093128046186 
-0.006218443269233799 
0.01022098053988566 
-0.002341931421319094 
0.03474086492074076 
-0.005934105561655043 
0.014692972637308 
-0.001163284545529934 
0.02513731566917584 
-0.001441476205336444 
-0.00968648296509063 
-0.01709246136281015 
-0.02529261292594293 
-0.01487134266440378 
0.02049431509350607 
-0.03575004381228866 
0.005346081553851002 
-0.01596231042317051 
0.00764100721669115 
-0.01006844719056243 
0.05903197978479055 
-0.01847998834837187 
-0.002915321870546957 
-0.01497384919704159 
0.01374329251322478 
-0.01524533017099815 
0.04230591956544646 
-0.03563858012784805 
0.02300995280901828 
-0.02652670680158629 
-0.01209901691953212 
-0.004448230788776537 
-0.03826286313989949 
-0.004084889590647502 
-0.02059415815222251 
-0.01440689700133525 
0.0264602457010813 
-0.02531748804011747 
0.02171451825053949 
-0.00630134003165931 
0.03121041082575687 
-0.01542801349454638 
-0.02003940369455176 
-0.005144571209907308 
-0.02609903545730561 
-0.009237239005788248 
-0.03500197955905775 
0.006210948950249319 
0.001847704560280827 
0.01077300487424669 
-0.001895499939642397 
-0.004697033909092083 
-0.01083688828186301 
-0.01434675301948481 
0.03144084550723021 
0.005152927655661362 
0.04847648814620843 
-0.0006759185872035513 
-0.04079442478669514 
-0.005648489876327309 
0.02709814288337816 
-0.01696611142578337 
-0.00826241890610269 
-0.0190787861608256 
-0.009834407833244832 
-0.002336539958677974 
-0.006832009317213926 
-0.01553909004957876 
-0.0229467064584062 
0.00234250005334659 
0.01519549411688951 
-0.01620217620429098 
0.05577919363491197 
0.004773225759674262 
-0.04418848613795737 
-0.004021437775407029 
-0.02147065675921939 
-0.006205151629719624 
-0.00919284881952059 
-0.009259280097695903 
-0.03824903595731128 
-0.02072406235751762 
-0.004969059174518909 
-0.01380808223923347 
-0.008670309671395196 
-0.0001758591062200831 
-0.0007746314321609433 
0.001888446846846973 
0.04135658307709544 
0.002865294454474837 
-0.03066265575327821 
-0.0006993408002448336 
-0.03025432568560067 
0.01107768439662679 
-0.02478533056077074 
0.005014134940475115 
-0.04977037371504627 
0.007209917054131505 
-0.02683389027004766 
-0.009858648881501382 
-0.02714095791437247 
0.003590044144897706 
0.04148981592736452 
-0.0005009238001623996 
0.04906016715506743 
-0.004692502412023913 
0.01769400169028216 
-0.00694895072182576 
0.02405985579201368 
-0.00454105332216117 
-0.003371752022341753 
-0.02359964929514721 
0.002792881299008306 
-0.0159912996884181 
-0.01635123008667927 
0.003269717105506053 
-0.02382367253824 
-0.007621984808383924 
-0.04445984316110814 
-0.008928054243491555 
0.04164809667937171 
-0.008407194248432705 
0.001323654793242888 
-0.01455106457187459 
-0.00225390770614815 
-0.01689521696525106 
0.01830162126154007 
-0.02223011023884192 
0.0061482896829685 
-0.01495930143780339 
0.007247088782819412 
-0.01137877178707258 
-0.01979442463463371 
-0.01614636714149227 
-0.01893622829298821 
-0.007933857102295052 
0.03243560722328453 
-0.0164547535217144 
-0.01169952659027712 
0.001299947080061547 
0.001553473499828853 
-0.005472155434705185 
-0.06462540626397481 
-0.003139153386216091 
0.05511169283836399 
0.005074836555855271 
-0.02026368277139264 
-0.01441749751820469 
-0.006943038168076023 
-0.008463717267680667 
0.01668901643342816 
-0.02519118552489685 
-0.007515224765950875 
0.006549287767177243 
-0.04164162224685719 
-0.01579321482439729 
0.03061141302458031 
-0.01745145946960302 
0.003499450050355763 
-0.02120451102561257 
-0.01059669984074792 
-0.00272775230153338 
0.004480922080477519 
-0.01651232077155528 
-0.02880619848072053 
-0.004522824694271853 
0.03241525685789358 
-0.01691576556558759 
0.005635989792962655 
0.003047972794542117 
-0.01057211809649953 
-0.02771487387078216 
-0.003124067280904154 
-0.005506762000620083 
-0.02598382526302298 
-0.002896834218305973 
-0.02857357293132752 
-0.004012850264392571 
0.01155989185728691 
-0.01705923297001538 
-0.01319664090582922 
-0.01061899690541135 
0.02397841050089632 
0.002324257513424936 
-0.02041863104428918 
0.003632121375607529 
0.02361368083140107 
-0.02711175029463247 
0.02147695095129954 
-0.006971519152822852 
0.01891567081843019 
-0.01851507768849539 
-0.01810665276436447 
-0.001029915781306256 
-0.03825261687689881 
0.01046973930186591 
-0.03396714564455498 
-0.01351380530483451 
0.02925748371282358 
0.007544928360746513 
-0.01237610347970717 
-0.009471344840524218 
0.007885992357499684 
-0.02206715081532909 
0.0143233234440593 
-0.0006382798800786574 
-0.02695862184795963 
-0.01456891840324388 
-0.02397370021398379 
0.004801980201806684 
-0.02816063682034726 
-0.003943528868599283 
-0.01234418606763388 
-0.01114312390581228 
0.0410768048342865 
0.001790332959030027 
0.02065307355693689 
-0.01267917407749232 
0.008483527067324909 
-0.01989281337837799 
0.03329432193349135 
-0.02594263792362364 
-0.02674483242224058 
-0.0008713875394110529 
-0.0295853945604268 
0.006823740521255637 
-0.02519755151201274 
-0.005266111950178662 
-0.03876641183286451 
-0.007559554812572088 
0.06800672408517354 
-0.02243973019333017 
0.03633432877448845 
-0.002945585498311542 
0.002312510887751773 
-0.02513150393829653 
-0.007671801321736645 
-0.007359361285452701 
-0.06844093505374256 
0.005795458848106495 
0.01572143452444089 
0.01397134000816848 
-0.03317924386934185 
-0.002245098600808038 
-0.0296781702489167 
-0.01280429870746919 
0.02774487070347621 
0.0002462087325567756 
0.00239644106576577 
-0.0104244438583645 
0.06020240846970382 
-0.03028847482757469 
0.0607641199084521 
-0.01829553055014405 
0.002842862936207289 
-0.0281048639856286 
0.03139424230109138 
-0.02046832714959526 
-0.006910979425703605 
-0.01419315718763475 
-0.01661588678667649 
-0.02002487919589344 
-0.03752732998974938 
-0.01125314013192128 
0.003564222195220814 
-0.003217917003099265 
-0.01374275215839086 
-0.01646448510224207 
0.03428774610668168 
-0.0265664786418192 
-0.01479453007066601 
-0.003123916595503274 
0.003000180451658697 
-0.01034607028509235 
0.009620104913916261 
-0.01993879493196469 
0.01368492237946134 
-0.01739703807960918 
0.02419560139984178 
-0.01514655990887157 
0.03027334512753176 
-0.00510801502280765 
-0.01124712886027755 
-0.01046911766603793 
0.02554025637965465 
-0.01470751815283733 
0.005408172604944585 
-0.0156266043603395 
-0.03209786635854362 
0.0002029714711250858 
0.002488713708644079 
-0.01415503530502942 
-0.0006075237500531124 
-0.007381696301364976 
0.008456375682995712 
-0.01064884702166254 
0.04651244248900673 
-0.01779391952968658 
0.003655878923753577 
-0.0242781270387115 
-0.02805340393390634 
-0.009919944154736366 
-0.01244162121219579 
-0.02413709071423213 
0.021388820578298 
-0.01805673058744532 
0.0416828364551395 
-0.04246469445351098 
0.03131627235329436 
-0.02732209777825565 
0.04595802958455687 
-0.02168004649777714 
0.04073706372061431 
-0.02574382917096641 
0.01051476282765067 
-0.03753772170908985 
0.04978602857854434 
-0.0395851788037957 
0.004272771432961954 
-0.02089364691384138 
-0.01642071498176495 
-0.0006752064204966254 
0.007786526708016086 
-0.03211790717409757 
-0.005256053810703125 
-0.02271066340872207 
0.04497547416635912 
-0.02553751845337891 
0.02075469893258465 
-0.01414166066708893 
0.005256397620882874 
-0.009724316559213908 
-0.04723691821487474 
0.009523691620032361 
0.002499963520741041 
-0.02462287471807025 
0.09205547569763677 
-0.000527371097265988 
-0.02304704678387632 
0.002514394065512742 
-0.02819231925080079 
-0.01284103960921879 
0.01454413639964471 
-0.01129216491601854 
-0.01222888033007878 
0.005277874823787261 
0.007867606956805162 
0.0118067530269422 
-0.003536580773438822 
0.0157499058784074 
-0.01222888033007878 
0.005277874823787261 
0.007867606956805162 
0.0118067530269422 
-0.003536580773438822 
0.0157499058784074 
-0.01222888033007878 
0.005277874823787261 
0.007867606956805162 
0.0118067530269422 
-0.003536580773438822 
0.0157499058784074 
-0.01222888033007878 
0.005277874823787261 
0.007867606956805162 
0.0118067530269422 
-0.003536580773438822 
0.0157499058784074 
-0.01222888033007878 
0.005277874823787261 
0.007867606956805162 
0.0118067530269422 
-0.003536580773438822 
0.0157499058784074 
-0.01222888033007878 
0.005277874823787261 
0.007867606956805162 
0.0118067530269422 
-0.003536580773438822 
0.0157499058784074 
-0.01222888033007878 
0.005277874823787261 
0.007867606956805162 
0.0118067530269422 
-0.003536580773438822 
0.0157499058784074 
-0.01222888033007878 
0.005277874823787261 
0.007867606956805162 
0.0118067530269422 
-0.003536580773438822 
0.0157499058784074 
-0.01222888033007878 
0.005277874823787261 
0.007867606956805162 
0.0118067530269422 
-0.003536580773438822 
0.0157499058784074 
-0.01222888033007878 
0.005277874823787261 
0.007867606956805162 
0.0118067530269422 
-0.003536580773438822 
0.0157499058784074 
-0.01222888033007878 
0.005277874823787261 
0.007867606956805162 
0.0118067530269422 
-0.003536580773438822 
0.0157499058784074 
-0.01222888033007878 
0.005277874823787261 
0.007867606956805162 
0.0118067530269422 
-0.003536580773438822 
0.0157499058784074 
-0.01222888033007878 
0.005277874823787261 
0.007867606956805162 
0.0118067530269422 
-0.003536580773438822 
0.0157499058784074 
-0.01222888033007878 
0.005277874823787261 
0.007867606956805162 
0.0118067530269422 
-0.003536580773438822 
0.0157499058784074 
-0.01222888033007878 
0.005277874823787261 
0.007867606956805162 
0.0118067530269422 
-0.003536580773438822 
0.0157499058784074 
-0.01222888033007878 
0.005277874823787261 
0.007867606956805162 
0.0118067530269422 
-0.003536580773438822 
0.0157499058784074 
-0.01222888033007878 
0.005277874823787261 
0.007867606956805162 
0.0118067530269422 
-0.003536580773438822 
0.0157499058784074 
-0.01222888033007878 
0.005277874823787261 
0.007867606956805162 
0.0118067530269422 
-0.003536580773438822 
0.0157499058784074 
-0.01222888033007878 
0.005277874823787261 
0.007867606956805162 
0.0118067530269422 
-0.003536580773438822 
0.0157499058784074 
-0.01222888033007878 
0.005277874823787261 
0.007867606956805162 
0.0118067530269422 
-0.003536580773438822 
0.0157499058784074 
-0.01222888033007878 
0.005277874823787261 
0.007867606956805162 
0.0118067530269422 
-0.003536580773438822 
0.0157499058784074 
-0.01222888033007878 
0.005277874823787261 
0.007867606956805162 
0.0118067530269422 
-0.003536580773438822 
0.0157499058784074 
-0.01222888033007878 
0.005277874823787261 
0.007867606956805162 
0.0118067530269422 
-0.003536580773438822 
0.0157499058784074 
-0.01222888033007878 
0.005277874823787261 
0.007867606956805162 
0.0118067530269422 
-0.003536580773438822 
0.0157499058784074 
-0.01222888033007878 
0.005277874823787261 
0.007867606956805162 
0.0118067530269422 
-0.003536580773438822 
0.0157499058784074 
-0.01222888033007878 
0.005277874823787261 
0.007867606956805162 
0.0118067530269422 
-0.003536580773438822 
0.0157499058784074 
-0.01222888033007878 
0.005277874823787261 
0.007867606956805162 
0.0118067530269422 
-0.003536580773438822 
0.0157499058784074 
-0.01222888033007878 
0.005277874823787261 
0.007867606956805162 
0.0118067530269422 
-0.003536580773438822 
0.0157499058784074 
-0.01222888033007878 
0.005277874823787261 
0.007867606956805162 
0.0118067530269422 
-0.003536580773438822 
0.0157499058784074 
-0.01222888033007878 
0.005277874823787261 
0.007867606956805162 
0.0118067530269422 
-0.003536580773438822 
0.0157499058784074 
-0.01222888033007878 
0.005277874823787261 
0.007867606956805162 
0.0118067530269422 
-0.003536580773438822 
0.0157499058784074 
-0.01222888033007878 
0.005277874823787261 
0.007867606956805162 
0.0118067530269422 
-0.003536580773438822 
0.0157499058784074 
-0.01222888033007878 
0.005277874823787261 
0.007867606956805162 
0.0118067530269422 
-0.003536580773438822 
0.0157499058784074 
-0.01222888033007878 
0.005277874823787261 
0.007867606956805162 
0.0118067530269422 
-0.003536580773438822 
0.0157499058784074 
-0.01222888033007878 
0.005277874823787261 
0.007867606956805162 
0.0118067530269422 
-0.003536580773438822 
0.0157499058784074 
-0.01222888033007878 
0.005277874823787261 
0.007867606956805162 
0.0118067530269422 
-0.003536580773438822 
0.0157499058784074 
-0.01222888033007878 
0.005277874823787261 
0.007867606956805162 
0.0118067530269422 
-0.003536580773438822 
0.0157499058784074 
-0.01222888033007878 
0.005277874823787261 
0.007867606956805162 
0.0118067530269422 
-0.003536580773438822 
0.0157499058784074 
-0.01222888033007878 
0.005277874823787261 
0.007867606956805162 
0.0118067530269422 
-0.003536580773438822 
0.0157499058784074 
-0.01222888033007878 
0.005277874823787261 
0.007867606956805162 
0.0118067530269422 
-0.003536580773438822 
0.0157499058784074 
-0.01222888033007878 
0.005277874823787261 
0.007867606956805162 
0.0118067530269422 
-0.003536580773438822 
0.0157499058784074 
-0.01222888033007878 
0.005277874823787261 
0.007867606956805162 
0.0118067530269422 
-0.003536580773438822 
0.0157499058784074 
-0.01222888033007878 
0.005277874823787261 
0.007867606956805162 
0.0118067530269422 
-0.003536580773438822 
0.0157499058784074 
-0.01222888033007878 
0.005277874823787261 
0.007867606956805162 
0.0118067530269422 
-0.003536580773438822 
0.0157499058784074 
-0.01222888033007878 
0.005277874823787261 
0.007867606956805162 
0.0118067530269422 
-0.003536580773438822 
0.0157499058784074 
-0.01222888033007878 
0.005277874823787261 
0.007867606956805162 
0.0118067530269422 
-0.003536580773438822 
0.0157499058784074 
-0.01222888033007878 
0.005277874823787261 
0.007867606956805162 
0.0118067530269422 
-0.003536580773438822 
0.0157499058784074 
-0.01222888033007878 
0.005277874823787261 
0.007867606956805162 
0.0118067530269422 
-0.003536580773438822 
0.0157499058784074 
-0.01222888033007878 
0.005277874823787261 
0.007867606956805162 
0.0118067530269422 
-0.003536580773438822 
0.0157499058784074 
-0.01222888033007878 
0.005277874823787261 
0.007867606956805162 
0.0118067530269422 
-0.003536580773438822 
0.0157499058784074 
-0.01222888033007878 
0.005277874823787261 
0.007867606956805162 
0.0118067530269422 
-0.003536580773438822 
0.0157499058784074 
-0.01222888033007878 
0.005277874823787261 
0.007867606956805162 
0.0118067530269422 
-0.003536580773438822 
0.0157499058784074 
-0.01222888033007878 
0.005277874823787261 
0.007867606956805162 
0.0118067530269422 
-0.003536580773438822 
0.0157499058784074 
-0.01222888033007878 
0.005277874823787261 
0.007867606956805162 
0.0118067530269422 
-0.003536580773438822 
0.0157499058784074 
-0.01222888033007878 
0.005277874823787261 
0.007867606956805162 
0.0118067530269422 
-0.003536580773438822 
0.0157499058784074 
-0.01222888033007878 
0.005277874823787261 
0.007867606956805162 
0.0118067530269422 
-0.003536580773438822 
0.0157499058784074 
-0.01222888033007878 
0.005277874823787261 
0.007867606956805162 
0.0118067530269422 
-0.003536580773438822 
0.0157499058784074 
-0.01222888033007878 
0.005277874823787261 
0.007867606956805162 
0.0118067530269422 
-0.003536580773438822 
0.0157499058784074 
-0.01222888033007878 
0.005277874823787261 
0.007867606956805162 
0.0118067530269422 
-0.003536580773438822 
0.0157499058784074 
-0.01222888033007878 
0.005277874823787261 
0.007867606956805162 
0.0118067530269422 
-0.003536580773438822 
0.0157499058784074 
-0.01222888033007878 
0.005277874823787261 
0.007867606956805162 
0.0118067530269422 
-0.003536580773438822 
0.0157499058784074 
-0.01222888033007878 
0.005277874823787261 
0.007867606956805162 
0.0118067530269422 
-0.003536580773438822 
0.0157499058784074 
-0.01222888033007878 
0.005277874823787261 
0.007867606956805162 
0.0118067530269422 
-0.003536580773438822 
0.0157499058784074 
-0.01222888033007878 
0.005277874823787261 
0.007867606956805162 
0.0118067530269422 
-0.003536580773438822 
0.0157499058784074 
