solver_type L2R_L2LOSS_SVC_DUAL
nr_class 10
label 1 2 3 4 5 6 7 8 9 10
nr_feature 3711
bias 0
w
0.0722105224001333 -0.009430137229897859 0.005662202418676675 -0.007528204145372438 -0.008484957029757588 -0.004627056246489873 -0.001076244342169157 -0.004053848352268582 0.05181918440121252 -0.02670867474173725 
-0.006305781084018974 -0.005320719058149078 -0.01000989626294083 -0.00721281543661166 -0.0009218304245753723 0.004231370686874692 0.006574043700516281 -0.0074479226399574 -0.004690460039363104 0.004382414408898182 
0.04062187209095956 -0.07519732289584476 0.06288568323882869 -0.01476746282974397 -0.00444144490421131 -0.003077499098686339 -0.04646381443403012 0.006058943460140058 0.0001618660928947641 0.05439106229691917 
-0.001121749749961965 0.0112777757518185 0.003125025599872304 -0.003535452781681499 -0.0005440970372801175 -0.004811347072208216 0.0004441942833800676 -0.002997021255096976 -0.02131414365514894 -0.01556372626384512 
0.02591430634892494 -0.03079086799005804 0.06941910557267214 -0.005685594351114829 -0.02029202922043982 -0.003357787913813446 0.01033467961838386 -0.01673382660256336 -0.04625085013508175 0.06835732679181154 
-0.003827328698390513 -0.01169048608295349 -0.009098217206723255 -0.0001871835317927503 0.006723256144321754 0.004456508401368278 0.003248577882760099 -0.004706032050771748 -0.001095309751451668 -0.01629792462687189 
0.02174059577700035 -0.01392204095440907 0.02770201737939931 0.01957955555575481 -0.01093458738281648 -0.02017645110489391 0.006859533334803113 -0.001237546833703856 0.04063972270719148 -0.01290350434600624 
0.001527775243855691 -0.001402312849120955 -0.009850266206375325 -0.004396622282799694 0.01173228065822612 0.002450293776210852 -0.01107418675763934 -0.002906386940466814 -0.01464016204031275 0.001649008942429015 
0.03892479596978506 0.02756213982805738 0.02860313784814079 -0.009309914588115182 -0.01312656733751122 0.002588531064592142 -0.007057154539655671 0.01484347341159513 -0.04288924027876242 -0.03882382137986721 
-0.0112510807083893 -0.001397814283723817 -0.01080503925680809 -0.004253847895445538 0.008442309519264125 0.008724708295269584 0.004869648821915829 -0.002378470353789917 -0.01207437211394946 -0.01953709272377174 
-0.01752888631894957 0.01929239851948729 -0.0009390878423357563 0.01440920946887849 0.04109153048950002 -0.00340315994367806 -0.006198592434550422 0.0004484323555590492 -0.002760358886478858 0.008315654672888936 
0.004854611457898122 -0.00683801214602515 0.005845530456285076 -0.006762749827049312 -0.01767605551525974 -0.003943678803813236 -0.0001334763124997881 -0.00458530485966958 -2.137457906708462e-05 -0.01247520846651951 
-0.01460021613522569 0.04848629691034358 -0.0696606547343671 0.0240077219003363 0.04475801243200304 0.004273556127669146 -0.05342886066749022 0.01618041839940359 0.01775615964830573 0.0199501337520819 
0.01573354250560475 -0.02125909344209052 0.007831015737674338 -0.007014325199852284 0.0100950463963648 0.001518403946458487 0.01045577545716892 -0.01186195323055608 -0.02090460579903238 -0.003892688855641897 
0.007493513066707914 0.02376210058657837 -0.03783326448902945 0.0008746706951710124 0.04657715553902806 -0.001723367463474105 0.009812785159873551 0.03063376071989958 0.01264748838242928 -0.04362866575773681 
-0.001665091169058945 -0.0103505184163476 0.004315535063261849 -0.002801224651843454 0.003050138044578503 -0.005490175102678116 -0.01452584759320124 -0.006480518331130507 -0.007051924916893883 0.007614503051622817 
0.03182847861211961 0.02634559966664874 -0.01078312007144694 -0.01738554850861004 -0.000266469426841739 -0.0006485324658407361 -0.0001390700039558033 -0.0007348046952198393 0.05943437110275205 -0.02922937476113567 
0.008917142904740471 -0.01563215960626223 -0.01258243487333155 -0.001125766809110072 -0.002922281518713046 -0.0006552533482973759 -0.00509901950282177 -0.002688992963092458 0.0006986060959308657 0.01749863429867003 
0.00657209341314081 0.05758008878875555 0.03836443448671609 -0.02151117082055531 0.02771101495584976 0.0245656516939638 -0.0781791510865763 0.01258692537791699 -0.03452230614634299 -0.04142190054607947 
0.001418226962073356 0.002876370597607 0.008125239400874448 0.0007456023116780751 -0.01373294340875937 -0.006997591128187907 -0.01269643948619242 -0.0001857415734969819 -0.01873927993931443 0.002813462167393526 
-0.02399368903726136 -0.02563666839769182 0.009773780018389742 0.004565148462467908 0.06646816375762812 0.004647820621952582 -0.03332313683072535 -0.01168726909901983 -0.01550395963625491 -0.04044794633769804 
0.0004624367536711445 0.0009295863780019694 0.001158527758991501 -0.002103072228542189 0.0006770146692442392 -0.005811192114261779 -0.001326679226124692 -0.006947883090408041 -0.009671311862568054 0.01217786970002437 
0.0378027967448331 -0.02944623779546042 -0.02013321860016376 0.01987395617011756 -0.01685220702764141 0.001554725528860221 0.01824133714490679 -0.01265563127748672 0.01344682203859203 0.05627699838604464 
0.00736524102255794 0.006176777198520056 -0.004447428266111418 -0.001722643858732365 0.003573700483756016 0.0009684251483087264 -0.01709330197275302 -0.003008626368008033 -0.01095212388586403 -0.003287444840609782 
0.03035017408910301 -0.01975550318413602 -0.001435296014977741 -0.01492126584224857 -0.01137081285036544 0.006879976237590377 0.01309009777680367 -0.002837541198938529 -0.04113060141332852 0.02389573135395546 
0.004469956924041196 -0.02261306543770785 -0.0176008434258133 0.001338786423986854 0.01933459645622314 0.004769952784836486 0.001509721821219994 -0.005346299014590696 0.003881379244453665 -0.003436168326005894 
-0.01045379058513573 0.009057867780295497 0.01475453468005194 0.02237167230906706 -0.0204669733982345 0.01321198365077026 0.02520602600410665 0.01397417850059119 -0.02040416544832671 -0.03678569685844573 
0.01711821237129465 -0.005842542633601222 -0.01393137700972029 -0.005968444129958001 0.01017817594845317 -0.005678474704732448 -0.006021383892832502 -0.006553050699571886 -0.005332840812633147 0.005854635325059912 
-0.03647342555824955 -0.01029080840537209 0.05962662889835276 -0.008009058203924084 -0.005028317657464775 -0.004543308436701693 0.03530942944097225 0.03930253753975116 0.00112772515192597 -0.006215828107977656 
0.009845413470257636 -0.001088193748598859 -0.01647966797086697 0.001579448777179191 -0.01873965486380432 -0.008993566551454195 -0.006434365544780858 -0.01120264802732584 -0.002828562828961377 0.008014389625171533 
-0.03945526773379179 0.006099900557251683 0.02132452877338282 0.004762793028054515 -0.03200642037276474 -0.01335954744407527 0.01509429186901622 0.0486394777960568 0.02389680590194927 -0.02462472532426688 
0.01184826332783112 -0.016677504604737 -0.004087254871690559 -0.002370077350770955 0.009189960852706236 -0.001549652512618587 -0.00946009325808184 -0.02012259596124776 0.008498845182879841 0.007888887526795025 
-0.04298451297877629 0.0791197860181663 -0.05193608586479061 -0.02122574581264363 -0.004090503197750518 -0.004370542116984261 -0.0101688945458738 0.0405236356989094 0.06335762802514387 -0.03878022991689482 
-0.00380319986352705 0.009250139479328675 -0.007686844135386855 0.000495815289665119 -0.02130447322809811 -0.0005415585727152934 -0.002274806120094146 -0.003017706144613168 0.0099293440853233 0.001362280426684237 
-0.01405862217860707 0.005215027836798462 0.03623654422677516 -0.008568005732460467 0.04953557955326357 -0.008365766518885195 -0.04834828076364037 0.002490395530742421 -0.07622613524324903 0.010936910380699 
0.0001310311281386335 0.005432758465002031 0.0156632232714505 -0.003264204304941775 -0.008736550656050075 0.0002652772153641412 -0.001182737514553759 -0.004838304287081025 -0.003140638920507798 -0.008327878053926582 
-0.04281990767923076 -0.02877734758712725 0.01918862822937449 -0.00955703294003789 0.01969901910686299 0.02992651625535491 0.01111291542564289 -0.01141129701861891 -0.06465650251639282 0.09302091509448401 
0.008851209198622602 -0.01115137405831452 -0.0005300350930592972 0.004464965725533588 -0.01037125424327554 -0.005907811551861127 -0.003921464295397206 -2.040911408030443e-05 0.01790467800791979 -0.002635327594641223 
0.02727665607213897 -0.03497410628228888 0.001678934797465343 0.04222284564883201 -0.002190803627644705 0.0100384271427208 -0.0370348631559609 0.004807264474225759 -0.002106036636731427 -0.007757791623414751 
-0.001497478280803814 -1.197148632782756e-05 -0.008144097635700873 -0.004472704257551474 0.003422237131618682 -0.006460241993220288 0.01469812761640632 -0.0136250373048822 0.0009127840772823396 -0.00197699400291262 
0.02856330497689948 -0.03747068611772342 0.01189370504424689 0.003641107986150683 -0.02398123646126532 -0.0001759750952230636 -0.02850659017101863 -0.0003507532994888997 -0.006489428756523339 0.026935290104171 
0.002250680851220575 0.007208825924935419 -0.008074776073457732 -0.003570015409777497 -0.004329325264682739 0.01048152430356097 -0.001812418411194292 0.006186651615532391 0.003449175867737188 -0.01646188080975563 
-0.01513457240619928 -0.01344836469529886 -0.01270655511074026 -0.01594171334699909 -0.01972038679807189 -0.009281840420026511 0.06661335106970863 0.0232138860046709 0.006628033385617486 0.04439317160652266 
0.01358377219494246 -0.006271381180541186 0.006376152825767146 0.001541720761428814 0.005671383218533698 -0.003829788541134582 -0.008906479083567381 -0.008377741780365976 -0.009742485729735744 -0.01208949772129836 
-0.01091750932197593 -0.02029753219352668 0.01818097750355078 0.006894881911849297 0.002281142860353781 -0.001122919032236694 0.0146895278039332 0.00712991787146585 -0.003009457510147055 -0.03367280574581023 
0.01077933677191198 -0.009713692186398155 -0.006602158432975928 0.002314358336197514 -0.002873779787159614 0.002511862286023277 0.005732357564918526 -0.01409132835283739 -0.008287560962616253 0.01055032185499612 
0.04623383548440025 -0.01671946734205412 -0.01079697646037816 -0.005299342792864171 0.06352053996396696 -0.007514864658534065 0.007362326807693411 -0.0009917755809752012 -0.005597943616059248 -0.06969282177009914 
-0.009828376646634098 0.003492270586273436 -0.005050032408099813 0.000523566981629188 -0.001188840808928729 -0.001892683114942548 -0.0006553728486270463 -0.006349648865059763 0.002895992530404769 0.01998643629442155 
0.006728269934053408 0.0176439023797527 -0.0808346316331631 -0.01403490974645138 -0.02223175621979575 -0.02289373961836272 0.02218868465184722 0.0104926922296691 0.07031467846858377 -0.03806810087726092 
-0.01942937411539864 -0.01262006175276697 -0.002148624429939594 -0.003853663499232564 -0.03418668136460318 0.001069089373790943 0.01738281966175459 0.01524518669360106 0.0126084974871754 0.006597992517352532 
0.02746656124685554 0.01612789394107583 -0.008353918593093246 -0.01279860606141603 -0.0008803615961624606 -0.00728038756089707 -0.04076381620787726 -0.009679325481624524 -0.0175649774208235 0.04611126620894951 
-0.0003461703050180007 -0.01954609335987877 0.009237780833920546 0.002803443722943279 -0.01080719280628836 0.0007610729231580785 0.01516025468347219 0.001137246297201836 -0.007090568061570059 0.01093446300422181 
0.0510084892501753 -0.01174290668700659 0.0277355402397619 0.0002554700356413735 0.01544026071124254 -0.002921761775229207 -0.05568980944905969 -0.04719451079433677 -0.02537825149442413 0.03955025621584229 
-0.005909816583399194 -0.01330561102763201 -0.006475555785415255 -0.002656158894274642 -0.01368250600886009 0.009711993829509364 0.00853566088448803 0.01590037283497444 0.007976030430135849 -0.009520699831676411 
-0.0143994019307412 -0.004473985195650219 0.02305378813231666 -0.005637004266513933 0.07122021599257626 0.02240663032266727 -0.05723214637890648 -0.02857505310389991 -0.01666793042037984 -0.0283657204591381 
-0.003630639014014788 -0.02188977116533404 0.006418877908413168 0.001452036551672614 -0.009551305455985988 -0.003728350496279588 -0.001619767217106412 0.007651742040107611 0.0202373261161087 0.01241033630291411 
-0.03474153387764202 0.008119795010018546 -0.04528284217486588 0.01681450470084286 0.02593649101737568 -0.004310239467725394 0.01669244921849744 -0.0007286201691501737 -0.01731923068614756 -0.02503394978007987 
0.005330991398009087 -0.03224895597291489 -0.001234732553622607 -0.003226360921745823 0.00184507997561492 0.001848354786428206 0.006762186038096142 0.01288249907624954 0.005130414038601038 -0.004872061707313518 
-0.008383027790790636 0.01492198051388398 0.01661332823631468 0.003226755681394576 0.03824408104386077 -0.01084200392990717 0.006216498842784332 0.004634456457685975 -0.04116746385754087 0.01497223962677247 
0.01092557933277879 -0.01303133402535633 -0.001572045927583087 -0.003521939006936693 -0.01279122857998049 0.007668076798141906 0.002627352851922213 -0.0002227594268018799 0.00399626807397632 -0.007112536869149815 
0.0150865650630865 -0.003994902157634716 0.05748665196561453 0.01438510615058295 0.0155342354079104 0.01022905958484415 -0.009380218116091681 -0.003646099935900141 -0.070216690701513 -0.0179241124516887 
0.008332006297390029 -0.01278993045584519 -0.0007523541105543019 -0.001292739448730959 -0.01786839708834675 0.004977510705156496 0.004964490584683675 0.001192342807356322 0.01627929786295389 -0.01897982986557168 
0.02538629037328532 0.07518207765873326 -0.06545820759986869 0.00801234756024952 0.04195719487116023 0.03535014580354678 -0.02361779928925417 -0.02572034026746351 -0.002320917809748442 -0.04788596325656683 
0.0031694340622161 -0.02014974756555126 0.005781415930144693 -0.001679125722270335 -0.01642896598114077 0.004105563455546441 -0.001976550425761046 0.01203128950733813 0.007841103235740204 0.0005405032526841183 
-0.03918103513614382 0.009981906553051992 0.02453252214370385 -0.0138679684126087 -0.1120530059944401 -0.01570068086663539 -0.02934968047750039 0.01596224620548849 0.08622741309373651 -0.01169288383572191 
-0.002560877276246508 -0.01073432936997781 0.004484742278893582 -0.002919176557435641 -0.002652706137671216 -0.005359539693497484 0.003113600330104254 0.01538969647914205 0.02603610131593389 0.01547837687793735 
0.04159312275193971 0.04865906382555525 -0.02317834072668291 0.0002994556578478953 0.004398226242278448 0.01005740511750406 -0.04773972726563127 -0.04160500735329969 -0.06333513143811197 0.0002744989739258059 
-0.001862260351396404 -0.01192229514378418 0.003194247454041615 0.001766648548484198 -0.0269158487051922 0.005462935628412333 0.001458872708733078 0.01104572791904686 0.0122957438521773 0.01131677624516789 
-0.03520321758713831 0.003060910130973098 0.003464941000961041 0.02713750070807143 -0.004788330951317769 0.01422169387950108 -0.009499989073608384 -0.02339053811203314 -0.01537391400408166 -0.0445794642069638 
0.0240399069204941 -0.0165611612508772 0.001911397133694365 -0.009147876575804398 -0.00866180657740033 0.01264233120351243 -0.01064795527035827 0.01046928362522163 0.003024932605452284 0.01502216321627606 
-0.0528325886009438 -0.02455043105307554 -0.01225779482823655 0.01583322238186038 0.1487089756408915 -0.0293413497581573 -0.01057126289678281 -0.003241382441012517 -0.01127829285781278 -0.04638401202117329 
0.01596643385584483 -0.009519090067481566 0.004879536319352843 -0.003431750875833077 -0.03762823353668276 0.008489216016715062 -0.005777293738202805 0.01175147566758518 0.004055162403135371 0.01867314092500235 
-0.02508649269262124 -0.03182081846236426 -0.01474536914704032 0.01079555972341937 0.106039007584273 -0.02416438182230828 0.005873488345903297 -0.01179210141585593 -0.03660065087152441 -0.03638322873924948 
0.0005547769948295076 -0.01097844877215085 0.00615841249684545 -0.002426282190465756 -0.02120529798230957 0.01082387018942034 2.998117344793113e-05 0.01345724694311007 0.01544062705674315 0.006592322211341103 
0.02054015333469886 -0.02932884884327383 -0.02552667429674933 0.0122272758681391 0.03281533370912713 -0.03617865340120682 -0.003478113669764713 -0.01321065551027295 -0.01007073330887835 0.01245651417567284 
0.004627935769888923 -0.002993530615307895 0.009246400170270203 -0.001445827765544568 -0.02648901195400728 0.01103291108415886 0.004648118083889892 0.01161450374780544 0.009898601198758602 -0.000575164049123022 
0.01663371625017151 0.04324394115042374 -0.02418201947475059 -0.01906535301368797 0.02064590215685432 0.01304149234522942 0.006725490559746244 -0.03367575788740433 -0.06278644964022288 0.05713867140873435 
0.007522502060250593 -0.009094593424195196 0.005689446379338501 0.0004952533951353487 -0.02736910058179803 0.005709849017764759 -0.005378491497873362 0.0110569897438412 0.01507163573978668 0.007208735667420215 
0.05207225859965685 0.04768654318002907 -0.008453339448059323 -0.0318152628414834 -0.03026389184299037 0.03377356619997875 0.01376845540120353 0.002833597944873918 -0.0428531611023285 -0.0754700607164451 
0.000391301948297716 -0.007119692315639762 -0.002851619065940014 -0.0014986754849346 -0.002312840405413606 0.006051932936322577 0.0003292241044774082 0.008780682557015163 -0.001096442741110691 0.007629453986033499 
-0.08370468542891718 0.00062477678810675 -0.0008253566124904694 0.007908266290091845 0.02768032917095586 0.01482428418393571 0.0107825559920399 0.02379286730608824 0.04341499060390973 0.006001047082001958 
0.01184953486528221 -0.009634684626292085 -0.004245296925659031 -0.003877206644984573 -0.004674719663419416 0.0003360929386468764 -0.001719477266529889 0.008001509225123524 -0.0008097510796620452 0.02357421427699705 
-0.0759560361078738 -0.01614031559899916 0.04285004014343816 0.01616789103370523 0.07406462444577189 0.02656594964666179 -0.03396700388712379 -0.03024436511055126 -0.008933074972567644 -0.007838849979762296 
0.006244090719302364 -0.01609526164411897 -0.0003322067359463578 -0.005666103107004401 -0.02550449684845681 0.001414974741102327 0.006345140170946139 0.004948217144039191 -0.003759879962594105 0.00776801492993594 
-0.01531643329382695 -0.01414927522364698 -0.01436431131258068 0.02017852204909436 -0.009071537323297206 0.002361816134509323 -0.03778267926795714 -0.02781873412388648 0.007261576813993607 0.001781410615114706 
0.007410980916740191 -0.01547656748374802 0.01010250702820245 -0.01070751575527384 -0.004330025233248259 0.005406866283135836 0.01261563651324305 0.004739782412997109 -0.01159932615076908 0.003767398482677979 
0.02332700286701398 0.01110202834481676 0.002476119547966595 0.01865921552624662 -0.03716206870770212 -0.0106215067460705 -0.06582981968648968 -0.004082665162509835 -0.01834492676973923 -0.03037264014713048 
0.0182598250538545 -0.0221060021250908 0.007427037690142618 -0.004141357233378879 0.004038145706349659 -0.001123194416550825 0.01139486184982121 0.001915374216520939 -0.004846032795317512 0.01855371076126706 
0.03745295625737188 0.002044025971734245 -0.01275632521431155 -0.02039565329031113 0.009953718125758087 0.002802988803478227 0.02983134575963317 0.007583852911070817 -0.02335345244463011 -0.03944591250546586 
-0.006784383888698451 -0.01483346971246377 0.003164852161870812 -0.001979239862164061 0.0047098116971466 0.002842244082156144 0.003475834983976963 0.0008095743459072195 -0.002782947315445893 0.01882750918516756 
0.01808961153298656 -0.01302912594769168 0.0003890781776093979 -0.0003955149438652711 0.006576095737696202 -0.029241303227752 -0.01189733488819642 0.004890697759544166 -0.02481516713923012 -0.02691531260995727 
-0.001707332917775446 -0.01885397280614373 0.01332830761001119 -0.002278875398329709 0.007418946332944674 0.006952516110484275 0.001349102080745961 -0.007220337825772355 0.00569311142385827 0.01241538983902349 
0.02155277098031067 0.03504439881526304 -0.001840384526401105 -0.005565774683057132 -0.02102189007434865 -0.02910557362660691 -0.02076466039802153 -0.02323650991843413 -0.01936769609755191 0.01221664839336001 
0.01520682040766122 -0.01966879334311252 0.004616962754980228 -0.002246071795127454 -0.002943754972872838 0.001509534978874287 0.003073117324508418 -0.0006429378137832536 -0.01750013248451277 0.02866423275114526 
0.02464517073760291 0.06615607352258325 -0.03351361938358108 -0.004780882438843913 -0.00509344306234611 -0.008714995383538279 0.003578887170836822 -0.001576008339598141 0.03054754403594279 -0.1033431413337664 
0.005869837919087878 -0.01342480810139096 0.008215952276927008 -0.01036046705016063 -0.007774409416991122 0.01033569419246084 0.007347782493309352 -0.004133795093086233 0.000858294967690905 0.008599249283879852 
0.008640454430052688 0.0531553424303874 0.01562860561050763 -0.0005960428188899812 0.01674692658254734 -0.008018568708473115 -0.0315638403617164 -0.001042134325126136 -0.006555397094587577 0.01270194570004881 
0.01262003145469818 -0.03659114326457297 0.01366455740439262 -0.002448811150939951 0.001866075295892125 0.002684577489919383 0.002996053396740122 -0.001760226395350186 -0.0164107655027941 0.004573165465120915 
-0.02579057973869988 0.006734331454050201 -0.03727097670467087 -0.004548050564879423 0.01720895855811374 -0.003272691853501984 -0.02098731248650936 0.002882364433020135 0.02868689078253881 0.0302564856321984 
0.009579369288467731 -0.006629728408939714 0.01609454374892665 0.0002336735174765886 -0.02244052387969837 0.001146618443182016 -0.009097198468479747 -0.006557528714990316 -0.008314087069014766 -0.01031942278947012 
-0.02123469514447465 -0.01519546860668434 -0.002247720448226042 -0.01002080278151684 0.01049138564304537 0.03442741367091764 0.01110446435936423 0.01690613497322077 -0.0286539989962069 0.003898398985936498 
0.01334916794868804 -0.003512576183893602 0.02113254148594854 -0.001404988306054846 -0.009176778551247711 -0.004039214359827134 -0.0001433012839719406 -0.0104511603291991 -0.009873543176715991 0.01029735000700113 
0.03880629785208326 -0.01176639456084314 -0.003922755291562283 0.0304750057764302 -0.004441672347193619 -0.0148631468153321 -0.05177404991546977 0.009184773016355167 -0.01164693686087382 0.02057319956875664 
0.01235416128015913 -0.005859035925132495 0.009477792061869796 -0.002983520269978787 0.002476951434750444 -0.001913746364762206 -0.002056123206603601 -0.005018655906094798 -0.01111509525707978 -0.006548793083458663 
0.04589822454189769 -0.01573187621361391 -0.08442921801074105 -0.001049064375058166 -0.01237367568309819 -0.02420090859459307 0.02787857838084252 0.02469617397676275 0.01120474588974493 -0.02733356609875088 
-0.00238629220276986 -0.01259327289130555 0.02630433963907109 -0.004738445747939053 0.01105954379939855 -0.004382438331786006 -0.01233258428624559 -0.004579863763368319 -0.01154941169678686 0.01550170346320504 
-0.02209283543453383 -0.01557341580821948 0.02717266374255552 0.006222342413739563 -0.01969643616715598 -0.02834489465222742 0.04510125680437708 -0.00286429759647781 -0.001597753435871377 0.008785048077908884 
0.009036280998978076 -0.01096924568977589 0.01605002103584761 -0.006263464702229751 0.0005307816706286469 0.004914767812130487 -0.0254198739686473 0.00189379836944697 -0.01606426622049635 0.003296741228136228 
-0.02990826552946916 0.05214091539385106 -0.02211433906219223 -0.01458377586426705 0.01867910952290856 0.005588939681383715 0.0666081445225095 -0.01731312585408789 -0.02310191140605839 -0.065286695633459 
-0.003940340608854164 0.0008229667853284633 0.007471052339595882 -0.002138925179620931 -0.007140014577377466 -0.006965725545882627 0.001441173623003116 0.002833341373987902 -0.01125410984104892 0.02398426308079494 
-0.002467843886946475 -0.008667313618004329 0.01636996111177643 -0.0006423174715034965 -0.01769222638581398 0.04930779676547728 -0.04270240135677836 0.006266671621597957 0.06374241062849696 -0.1078877050185832 
-0.00682602484286043 -0.01215759737511309 0.01062836304574543 -0.003802415766721543 -0.005998595459554177 -0.003885687169186975 -0.01150552827660271 0.0005358744137614639 0.006656665145101824 0.0119885957171881 
0.040297814583114 0.04673616928985324 -0.04562315262410874 0.01393967604139432 0.02724416910894649 0.001074238172197371 0.01393627489640548 0.03370826368760026 -0.02270258242254104 -0.02596701091735186 
0.01091960770055052 -0.009306090776844462 0.004411144223987398 -0.005952149805801683 -0.005600317882587454 -0.002592303318601925 -0.02007867116782353 -0.01049656050731011 -0.006479391393040129 0.00747347117030952 
0.01172309970781799 -0.0142712720776488 0.01899665644480804 0.004337646399302622 0.02205180994805907 -0.007930837370898638 0.04985977265267795 -0.01898013505320107 -0.004423579668586138 0.03907272271189399 
0.001753173808197776 -0.003838725102806756 0.006370361602682357 -0.005669146922036497 0.005608338278294689 0.001606936951576127 -0.01766360690089322 -0.001825762877735598 -0.001163954470276486 -0.02265815978233259 
-0.03724295834947618 0.01235537065758413 -0.01860179164680427 0.01317141723024791 -0.04063919672877812 0.01037995780115037 0.0495685110811723 -0.004915657488971567 -0.01807475276661494 0.01918665819280758 
0.003913639295769613 -0.01204908794455282 0.002824927316734451 -0.005649878968877349 0.01578040587860222 -0.004256985252929847 -0.01134420792215812 -0.001643034645632687 -0.002661489552770418 -0.01786393139955795 
0.01546699516093656 -0.006432101801148846 -0.00302266831289914 0.01638491801967959 0.02230268980068201 0.0005130160566361094 0.004421781858913299 -0.007258629737875967 -0.02134838646600267 0.01562555021087197 
0.008810574368418797 0.006093260946321379 0.006322112112009855 -0.009783362605939592 -0.0112417614876057 -0.008240621142314161 -0.01212048006827736 0.0009704269498899113 -0.008934845094385213 -0.01301850879186982 
-0.027353576651521 0.01104374832935105 0.02397007484426857 -0.02571402585188743 0.02780625820496856 -0.0172765257383955 -0.08364996405157653 -0.01849132080904538 0.05080774017854555 0.009221348499132878 
0.0006088297575026023 -0.008966958930174317 0.005290593009714012 0.002208542198758726 0.0009128574996603791 -0.002006418285038481 -0.003226483116687039 -0.002295411513442925 -0.005788802215313749 -0.01383694989462665 
0.005550643928588559 -0.02880101891826586 0.006267538284545822 0.008507811806279512 0.01982663201144024 -0.01375022956294213 0.005856341533732683 -0.008864173083718091 0.02179776517917395 0.02170286629877757 
0.02033449453921919 -0.00339009759994456 0.009437636926543503 -0.00969062162039711 -0.004274305054454777 0.002687489527492764 -0.01152349491406493 0.003435374723960881 -0.01255981081224506 -0.01515503969153214 
-0.05668645061621316 -0.01689652615335154 -0.02729313752590217 -0.00625830156043116 -0.008600348237269269 0.02051524140740808 -0.02197413791188477 0.0272624121305957 0.01476180150349806 -0.01017605226909219 
0.0212910791519505 -0.004374391268364115 0.01028001938552965 -0.003879589047953855 -0.0006665778653106615 0.0001022006243485322 0.001813049156550183 -0.01338585689570073 -0.02313935308407952 -0.001922041780131518 
0.02229714473538771 0.01472706439719718 -0.002341591517725332 -0.002172201793268652 0.01291628280431699 0.001278472155448731 0.02179723398603547 0.01835116347066895 0.008741315423243226 -0.04110560037161609 
-0.002600052059272704 -0.002292283611124146 0.01661312533829071 -0.006421238248816521 -0.004794063039379447 0.006620920378296449 -0.01128744823739112 0.00434392173982306 -0.01330884891207831 -0.0001808496691210814 
0.007337943501200189 -0.03171140362451357 -0.009483101908296489 0.02452410425345079 -0.003794138718916359 -0.01350715403546541 0.05151673243116917 -0.01457659441390167 0.00936071794807254 0.01984035904413603 
-0.01348765676905963 0.004587143911123877 -0.01168389772799639 -0.0048864261191796 0.02490888418395549 0.0007844178518635406 0.003874483785878607 -0.00813922987754 -0.01484705243397708 -0.003746196541098911 
-0.009108006817583676 0.03464423555336173 0.01402498332012187 -0.01856597649125565 -0.01296631475385376 -0.009619698950611271 -0.01423745751850477 0.01523139142417389 -0.01196503960220624 0.02998025672164874 
-0.00084079013632787 0.002831902925445642 -0.005133963129980637 0.001864273855093313 0.006575046955457355 -0.002560121230512419 -0.009275512406307602 -0.005329865716365938 -0.008508604362034272 -0.01182369770891897 
0.006619348194457497 0.004739051051750182 0.02177146549602924 -0.02198879547357366 0.02389698095097895 -0.01296337798814855 -0.03363595803185709 0.003805369999912511 -0.06288965785197952 0.01430794956241013 
0.008638775117927728 -0.001486972678608075 -0.01324519139728613 0.0001887896195383554 0.01436714770557006 -0.007648725637088925 -0.002572094953009107 -0.005241327520385677 -0.007674067826539889 -0.02229455690750141 
-0.007056135862101095 -0.01266667157531234 0.02855327417338181 -0.01373201859040251 -0.05471128982241057 0.0156172378772726 0.01366026029421696 -0.01269427921752793 0.1052224746884196 0.001431460716380393 
0.01090160356487728 0.0008948642743948049 -0.0063752086091797 -1.635157446430106e-05 -0.001716575115244705 -0.005817304893991198 -0.0120777381120113 0.00301892561475204 -0.009631421755196608 0.002419922139017544 
0.05026996086301676 -0.05242908504691686 0.001598610628716184 0.01394270471738615 -0.02305529624869889 0.008317444654738033 -0.0002947417163273589 0.01582509234550158 0.02672723010141254 -0.03899677821502909 
0.006509909455061864 -0.005389449959116223 -0.01354235774690925 -0.006169012625034893 0.01175703485033859 -0.004075500877613817 -0.002268832824176351 0.003737845878581478 -0.01097656964479248 0.005294756114068014 
-0.01757381920382569 -0.02376022354834223 0.05727967406112269 0.01176156384385183 -0.03398716022564911 0.007232188849196148 -0.01322511255518036 -0.01083309116459419 0.01646936916906332 0.04687609351216118 
-0.003130757826135421 -0.001851113932918129 -0.01781873704769377 -0.004386454564075524 0.02674811401304653 0.001476522871056479 -0.001006343693833807 -0.0006612887924773883 -0.01972891112221769 -0.02270352731663263 
0.03395594767698987 0.002082063852485351 0.03673973028031093 0.004682588361737069 0.01647093614356848 -0.006384920366975729 -0.01465065807953086 -0.004366774345551871 -0.02981767421106661 0.007637900164985685 
0.004740420126255903 -0.002762035154679613 -0.02069269572904269 -0.004660611398410042 0.004920428115109921 0.002234503726977315 -0.002575383548325783 0.003785915138983749 -0.004603657226836842 0.001958167338882246 
-0.0007495637951789869 0.02012496178997298 0.0136731844887744 0.009802564259504898 -0.01594867776451129 0.00560050879287711 -0.01872071707510254 0.03870705930133171 -0.01362469453784139 -0.01982898604188783 
0.01647256492781627 -0.006613487306271817 -0.01564256958447229 -0.002975137013791416 0.02033454354373151 -0.0006634128336791561 -0.008361513697858577 -0.01430920134003488 -0.01271049774392588 -0.004588134065825191 
-0.02070251815383176 -0.008391762845465632 0.0442556986512317 -0.002618115926615121 -0.07066692017551422 -0.006587407828273839 0.005904329345521617 -0.01704921994681867 -0.03107014967416824 0.05550851715349831 
0.006423949308691617 -0.009382022415414805 -0.02378377921307247 -0.003473836491261087 0.03207051752604637 0.006262774967919089 0.004989185810413247 0.003706866970881963 -0.002171779044332392 0.00574728443060929 
-0.02401545511696479 0.02417785535800454 -0.01648674017804539 -0.002711292574058957 -0.0527204976340523 0.007307106482337287 -0.03359523762672902 -0.02484996390591626 -0.02017775386851485 0.02294595628450699 
-0.004081369376344476 0.004289162751779529 -0.00557975223659654 -0.0008464048289245218 0.0171701502977642 -0.00151007787409946 0.002500089445522603 0.005673004622022805 0.001943500682578711 -0.005513639319305163 
0.03768465893853176 0.05065782595285711 0.01636871331877045 -0.01984493836099989 -0.007766280294611518 -0.002128434570306613 -0.04986147325742803 0.02100571188079957 -0.02591244375099286 -0.05458556509485157 
-0.003787689235362941 -0.007789912711201575 -0.002809236788481044 0.0023693393867127 0.01713873360845546 -0.004080404795240916 -0.005983517143706768 0.003858431348893497 0.003123267668336324 0.005306732354877215 
0.0653557792060144 -0.02183975131333965 0.02228995957556535 0.008705141581905442 -0.07715816723946853 0.004564748903141828 0.008389510497390142 -0.01262332022595118 0.01620196373257776 0.02495825808177528 
0.01438362725503835 -0.01136583827225488 -0.01132216038146557 -0.003678801495962128 0.02111438739227426 -0.005760453687534594 -0.01048229224703586 0.003042878093242958 0.0009646580979638783 0.005347390735396306 
0.009521186547925418 0.01789209095676535 -0.005255277639369577 0.0141042919832083 -0.02417067667336079 0.0239177661924403 0.003982317619771262 -0.03912674742590721 0.007612599357296316 -0.07872080185735474 
0.001190404515747645 -0.01505493227866026 -0.01408135288715665 -0.007494725318141347 0.03819168487636404 -0.007662603419144223 -0.009682676720650416 0.005060727347977695 0.002554384021809626 0.01015976022921555 
-0.04145874686309045 0.008058356215770886 0.03720715872785519 0.02010091219725859 0.01273045560361342 0.02378467409904557 0.02798931970660318 -0.001502316658220463 0.03516245686913845 -0.0182594217095483 
0.01823195610691796 -0.01730554440230356 -0.01081043410675907 -0.002828962831597646 0.02217848263125031 -0.002714266187166975 -0.006787138476290869 -0.005196263834195532 -0.002256545866878937 -0.007147022223466186 
-0.04907372388519367 0.004744916062054148 0.008996972214804385 -0.0007268049388848251 0.004236962596763046 -0.007334714499517879 0.0336424129373121 0.02917444575942855 -0.007548233092347859 0.01740040974988006 
0.03045845889130034 -0.02620770587410843 -0.01375626795996444 -0.001430377057435922 0.01398034626207841 -0.00700772533541166 -0.01046578572041474 -0.001634904801165186 -0.0002880911762351678 0.01067435290565985 
-0.07110943029875882 0.02753114472453112 0.0302529197241497 -0.006008390795993323 0.005606530233914101 -0.001869859426528504 0.007336682314560944 0.03810509106014708 -0.00664656421401967 -0.05813246703815806 
0.02405976662344051 -0.02004150651363101 -0.01367490071672724 -0.004770165363046193 0.006484501403853494 -0.002103991010573222 -0.01078299348125553 0.005698172477691257 0.0004424841940817304 0.01684681727508678 
0.02705401913448345 -0.001966068661507478 -0.04206023861936362 -0.01553761433907736 0.04125472794819923 -0.04513401386863097 0.01513120369990521 -0.006404449399067263 -0.04854436110851259 0.08379742469070332 
-0.01985847173618654 -0.01084388631367985 -0.004451285802491626 -0.0006482533896705337 0.003453372389620169 0.01294582601750364 -0.01161220859513783 0.0009021341587032963 0.008238320195795653 0.006221963039829302 
0.03500565620510011 0.08513831945707104 -0.04505023995911157 -0.02040020512149634 -0.02838280315596269 -0.01878560482505471 0.03560426646476782 -0.02492705081918858 -0.0096520655530049 0.03750628447260192 
-0.008397370013711339 -0.006216119273404471 -0.00527124772014117 0.003681237746117755 0.00625303473221087 0.004969813651249649 -0.00424513585193912 -0.007059062284714375 0.006193960345632576 -0.008656064536061219 
0.06449029653967779 0.05705132881300595 -0.01613845478034655 -0.01477652162584577 -0.1043166739444764 0.03032600001562051 -0.02981327926974181 -0.007957350052773295 -0.005172822802747301 0.01017599457781255 
-0.01924061196873767 -0.01775743324605548 0.007926628435352341 -5.247175400287922e-05 0.03109725877353378 0.007560409349108963 -0.0104808203139463 0.002049280286129691 -0.00418060589606373 -0.0006524675655439528 
0.0327864260662989 -0.008014607796591482 -0.01876077942739794 -0.002534372828929742 0.001674211778617291 0.01758495556256902 -0.01811050572037889 0.01609371862751615 0.03575440849148182 -0.04343320582074722 
-0.021454665208488 -0.01262570737825878 -0.004443094935648532 0.001226121170929508 0.009644436049030876 0.003998401142912882 -0.01197502993860515 -0.001233992996759976 0.008782669615886579 0.008946620561558469 
-0.01130789407516821 -0.01827948142156459 0.0143925418324981 0.004408116509182841 0.02629504495307713 0.0006764705559389226 -0.01531639975477953 -0.0165757635500168 -0.03018497133342133 -0.05725377425791971 
0.003118437402383204 -0.01361019040183226 0.00290537194374395 -0.0008024083527451789 0.01683207099358028 -0.001595603673541032 -0.006024325700036355 0.005958070523053569 0.003987700187129593 -0.005224068814170941 
0.009088096874178157 0.01054649585896517 0.004780139774676639 0.005797551312853554 -0.01537448721733813 -0.004499199186927734 0.0336959053661968 -0.005122330170702149 0.01053750253647168 -0.03098583357961892 
-0.005054090886087327 -0.0131810218638191 0.01027224850979311 0.0005870012786537126 0.004787298900139182 0.004840117220943491 -0.02536965306132966 0.01004281243065893 0.006534839532958629 0.001868488299563987 
-0.04806723657122119 -0.02096569076673965 0.03349103639985559 0.005195306502431871 0.008674660516431818 0.01282160447049517 -0.03701895511477384 0.01500536958943005 -0.02702334797237304 -0.0334213760455232 
0.0008469840579722162 -0.005462754604470912 -0.001403896832882688 0.001398619071675937 0.01072078316516325 0.003607078570544274 -0.009806572260310556 -0.008235167824964898 0.006507279690858285 -0.02445591613783721 
-0.01869150203332089 -0.03283048161383056 0.05852288660049849 0.01928686481596841 -0.009052591698180764 -0.02051245012679335 0.04087547000075391 0.02937312565037895 -0.03034965070974945 -0.03424903610706306 
-0.001569082082990962 -0.02092436090089285 0.004105233610116156 -0.001791672417286177 -0.00397198330450264 0.004510309497635154 -0.00543901407279271 0.002475112904060814 0.005366523193718708 -0.0008043201001538935 
0.03148092047502547 0.0009010476162573723 -0.01250325473713442 0.009806579762483558 -0.05108825578763896 -0.04422831814039119 0.0688978274875392 -0.02586648664081025 -0.06204871659006631 0.03309379319356121 
-0.01790452496428689 -0.01411691276619927 0.01152773245847111 -0.002082523228518341 -0.01586428713139051 0.007192882391576562 0.0002386760667784183 0.00173805651539398 0.0148813280484394 0.02808135183921383 
0.01980458930935092 0.02375285361502893 -0.0427712780925586 -0.004507256409085102 -0.03742392191080487 0.03438214791189557 -0.01484988858784429 -0.01593803312257648 -0.02800862699116068 -0.01048927842657131 
-0.009630563631787867 -0.01685941832275581 0.0175689925165762 -8.171546926151548e-05 5.725434158274395e-05 0.003384858043790095 0.0006065443156089034 0.002162214141791012 0.001359317669729696 0.01356930947148573 
-0.02723161038557138 0.02299169658474104 -0.05148771000277656 -0.01987700691383517 0.007731447535892379 0.05852559956037259 -0.05362303499762928 -0.002097900862689986 0.02603869874697406 0.0002971222236682953 
-0.006120577446386542 -0.008987490750422648 0.01429634873906149 -0.0005516159570179187 -0.006340160064900318 0.003883582020595936 0.004259374700478569 0.0008937916269852212 0.006491493974929184 -0.002557555274748758 
-0.001130829756782634 -0.001400431863254976 -0.04562845352166128 -0.008251814589806727 0.0892516096854556 -0.00972461079235357 -0.05940570602697701 -0.01507238353637604 0.006965461462472494 -0.04447452761518146 
-0.01340251893667721 -0.0183126872431594 0.0153782283436916 0.001506323215322061 -0.02316021267710026 -0.0004429660026541225 -0.000390938911606144 0.0111515633098115 0.0001122386838363612 0.01580397032514377 
-0.01311909656345628 0.03235808198293978 -0.06751359600262073 -0.001194373948406217 0.07614723601655482 -0.03313509604909406 -0.02631834987593412 0.019038065577703 0.006895142030268547 -0.01883654353979739 
-0.001450009109725438 -0.01422738058630074 0.004443862821530327 -0.00141506485040192 -0.01092142941735809 0.0045578332095956 -0.001557889790825606 0.006466839288346196 0.006696240875405744 -0.003645209186429951 
0.02356637672547213 0.04031122755033722 0.04203530362135268 0.002861964456777172 0.03978289018202463 -0.01513889669380735 -0.01125112962051291 0.008467575146756385 -0.02743344072698746 -0.05344541008959039 
-0.0115565315894608 -0.01275094757701776 0.003012365550091548 -0.0009415874211318442 -0.01569774217826372 0.006262465900439372 -0.003594031404702048 0.01206343885831076 0.001316193484423207 0.006383984708935426 
0.02060547513053051 0.00982597124638061 0.07189950287243144 -0.006122419800338599 -0.01560238648339971 -0.00129819094175835 -0.003592664086448575 -0.01858091847733559 -0.01870568828739502 -0.009928950694255981 
-0.01009585545977574 -0.01733987860520253 -0.003923264243042858 -0.002097736655748941 -0.007301013400350689 0.007688312670113245 0.0004294085785279576 0.01533972745008854 0.006083389956995177 -0.007089465570571727 
0.02683440619619881 -0.02674988080232968 0.02494261658148332 0.02291034279771923 -0.04043240580485713 -0.0204057018856592 0.01510980432981303 -0.02087861609945223 0.005717915417578624 -0.02733857453023725 
-0.01401041040595323 -0.007032391847110912 -0.005263513590965882 -0.003558742926172234 0.005025853149850297 0.005029595837186748 -5.681295437995812e-05 0.00474582178446567 0.006517748829034987 -0.002112255647502118 
0.009684947485991803 0.01828744121430432 -0.04167289214299697 0.02886883606727289 -0.02905299732244274 -0.04629279863933948 0.03280087792525056 -0.0109933637117498 0.01436931210653632 -0.0315950917247378 
-0.00950707978474263 -0.007370010744602756 0.005060160129682456 -0.0001466418795264316 -0.02043085374310859 0.004396690265963395 -0.007836281657371647 0.007969556180543789 0.01251118879993492 0.01221518553259712 
0.01264420956056332 0.01453166834849249 0.0454317307817981 -0.001368122717621675 -0.004796573653417944 0.04739883449976914 0.01405028946104363 -0.01240245322679099 -0.0381571628435123 -0.06622274821404274 
-0.005353413662161379 -0.007372755802211228 -0.001702259578207182 -0.002538302939742975 -0.01797164191424301 0.003923951844846861 -0.002527555283133484 0.007908528602227297 0.01092301754285508 0.02443062789340958 
0.02137154824421155 0.01092934663366501 0.04119931987650887 -0.01557822010631934 -0.03043886598531616 0.07377685680732968 -0.014896179550399 -0.005760177761432687 -0.02009713223278122 -0.06063627220764486 
-0.00589523638604309 -0.01244522037561243 0.008367864734651032 0.001916775871764838 -0.009745807539152242 -0.003501743087810461 -0.005920125088823446 0.01772776281266516 0.003725048514720431 0.004890188466655222 
-0.0348958538247804 0.05694816321853929 0.01076858486193815 0.006699211239252418 0.1100490114081636 -0.02711033389378881 -0.06888301938306648 0.015282389046127 -0.03301681640287708 -0.05378550675831447 
0.003957688024925548 -0.01699127459601066 0.0004655181558231866 -0.0002685372531441052 -0.01545832256520354 0.003325076586360051 0.001977817869886267 0.007820887429405076 0.005611057369911014 0.01026590896290127 
-0.05917135377693646 -0.03374378102244407 -0.02992829553265604 -0.003758830483771972 0.0890746824427452 -0.0275526208505587 -0.02922721199011089 -0.004264615427611205 -0.02391099073740347 0.004325474727630693 
-0.008825996604989211 0.003495571527107323 -0.004385728815997747 0.003952893055827701 -0.009354721586393803 0.008268303615594075 -0.002755947942756109 0.01030752374357484 0.007691673337083205 0.00472770781098757 
-0.004069881815178019 0.01735937975169782 0.02650391515502397 -0.001588301414520991 0.003110453561680932 -0.01740874289577846 -0.02284747838076 -0.02921093563518311 -0.01496666806157125 -0.02624535604074591 
-0.0008849566912007368 -0.008786824120438429 -0.001655274276107975 0.0009421605981011497 -0.01043316462010595 0.003579273792408411 0.001672935586963386 0.01263012633149761 0.008356523688594195 0.01000649937032211 
0.05688994295573772 -0.02229996521551625 -0.03148154401349174 -0.02309059909537071 -0.04202426609469338 -0.01315964258786737 -0.01206374281474489 -0.02818940860915075 0.02754644513310458 0.02095137399143274 
-0.006734519798863975 -0.002296998481186995 0.004752001921401958 -0.0003348380581110856 0.0009951773408002856 0.00691717390463067 0.00345831559785269 0.009501232317804271 -0.001507831505884132 0.006312097823656811 
0.04318531660624013 -0.02401901298585791 -0.04584540122073748 -0.008531327718595581 -0.04009680353062021 -0.003172689211251255 0.03525331639196169 -0.0244239014630542 -0.02933278831955564 0.06798714093860304 
-0.0196941044927601 -0.004160820829850214 -0.00696572646837932 -0.0008008458119192325 -0.0153544834076003 0.004417624354000962 0.0034113693995121 0.01066432667159347 0.007841756182837056 0.02165946528065014 
0.06445966045205094 -0.03611251115475447 0.02564982339291415 0.01190980055834152 -0.02282982500123 0.02505242413320928 -0.05018375214298679 -0.02642880020527317 -0.03690583538136757 -0.009928980867669114 
-0.01123154812285925 -0.008393682923084747 0.009132296767164786 0.002103669414874997 0.00439230564056357 -0.008450360024009635 -0.001857842586092597 0.003348293204264782 0.01015467085140968 0.005026416297930953 
-0.005498449522679185 0.02795852516213542 0.008427775973371174 -0.003341234927496903 -0.003027341342134146 0.03180889714832794 0.00693532824491914 -0.01293343433445425 -0.02052368638833308 -0.04868970393513593 
-0.01944518420329551 -0.01438050123005692 0.005426905646100874 -0.000372295793597305 0.01196330145370605 -0.004858448663057667 -0.0003351262333002436 0.003473694511991525 0.007146220309961456 0.0007993790287995639 
-0.01373272039057763 0.01059885024953415 0.02300243240509107 0.01862471654890383 -0.03555007245829659 0.02341082842630244 -0.006258158352853584 0.02990537615316465 -0.01265090634639464 -0.01727745514946713 
-0.003641391038738781 -0.0126793313505303 0.008270922026055439 -0.003428807693100331 0.01264340070480826 -0.003352137131534797 -0.00303054912682579 -0.009707156129943027 0.009854064368236472 0.004101809828110677 
-0.00440998711313955 0.01035096707911417 0.000962461988255767 0.01606961479070157 0.06356813596878781 -0.005095936058436706 -0.01885630106188045 0.02100525325698199 0.0009748134319645427 -0.05913043159907752 
-0.002492948212705259 -0.01594821927308603 0.007664366872880656 -0.002110367806169842 -0.0002192531183553217 -0.006441484132758937 -0.002584509979055871 0.00288517885527998 0.0002684802303294779 0.009900102905186165 
0.01163812113666365 0.01523573659679877 -0.04230650960378581 0.01047129219058457 -0.00510674027696922 -0.01072540344469422 0.01149432379607555 -0.006039457644113071 -9.828892887269216e-05 -0.01900841826907145 
-0.005017562454817608 -0.01241214339787124 0.004868385051165471 -0.002633711656520777 0.004792005508365965 -0.01081405837288872 0.003707542693373924 0.004452045650049151 0.004780248015538647 0.005802078641829712 
0.05161723848066287 -0.00121860417714031 -0.01864385345057471 -0.01403988959129706 -0.001317814319876843 -0.01254732912444893 0.02753540045576759 0.0057517301183304 -0.009874915564176662 -0.017381574368814 
-0.01277943143502003 -0.01203141052032016 0.009665897429163666 0.001106877651827003 -0.003179692328941347 0.0005410254576651684 -0.01160381961105887 0.007743917573105732 0.008379713811469161 0.01141032686694432 
0.02767528029658313 0.0261275800763238 -0.0139454004836559 -0.03264505209756587 -0.01082485533433333 -0.02647154113126543 -0.004627483198797609 -0.02141214666829386 -0.04519288295892884 0.04655339947087582 
-0.0086986539648803 -0.00779082278792334 0.006846362683077513 0.003421650197748603 0.0002585015642052533 -0.0004853033702434236 -0.006743136835378297 -0.001734294938555886 0.01345504883501331 -0.002444581417543188 
-0.02949727428522319 -0.0008730339148687925 -0.06964762595443628 -0.01765009613709716 0.001718266575180525 0.04305770360143578 -0.007052255067446055 -0.02422870418788141 -0.01695575811327856 0.02166997076995871 
0.000396426948746525 -0.01078851555043843 0.008391387230334472 -0.001621920654886056 -0.01514758937917893 -0.003751613122519577 0.0006585797000282675 0.007248569053131259 0.01503009853957562 0.01752290025031621 
-0.05063901648287215 -0.002621119835863832 -0.01188839844376783 0.01930973377038971 -0.007459143233331261 0.02215027969239251 0.01388572981200793 -0.01426166947322565 -0.03474277691419758 -0.0273352519945896 
-0.001264741289843589 -0.01135396061194486 0.01017543922511366 -0.0007077747341624203 0.009025252112764458 -0.003437454555993647 -0.002083083494064289 0.001530278262196984 0.005178422183949394 -0.01426608138576109 
-0.0007816683840308699 0.0007831386099900598 -0.00898439115728664 -0.001423224441583506 -0.01611513610173074 0.01650062872314671 -0.009278820597400012 -0.016974480991492 -0.04865986738932452 -0.004412536335256376 
5.735789923860206e-05 -0.009278121220343709 0.00261082802267712 -0.00262589644396572 0.008646613801166249 -0.003968612086665319 -0.004922376843700693 0.005495569949145715 0.003975594590246232 0.001541731068722264 
-0.002069887399110534 0.007285405811885432 0.02101813460988887 -0.02002276238148261 -0.05397773579717662 0.03697308088339308 -0.04907954234933225 -0.006985456482858934 0.01201736202918079 0.06203752892145358 
-0.004199509025856315 -0.02109303538069995 0.003983802162155975 0.003321194240053138 0.007450872554675496 0.00147623786132208 0.007730965640581695 0.005515402018776955 -0.004396836137161677 -0.01395235899513507 
0.05117996853024578 0.002793969822505509 -0.00205130285944997 0.02623739142562422 0.01001322596069927 -0.02409797243760109 -0.009622953371829579 -0.012346155943254 -0.008118049350053455 0.003512625236015198 
-0.000338353670062967 -0.0181645380645158 0.007726363543578097 -0.005443322442540278 0.01407039553162184 0.0006932716552191291 -0.004591685687595638 0.006683194676718743 0.005439730213726371 -0.003783308126238168 
0.04450605684694956 0.01199797297594601 -0.02704167951586791 0.0008907278311553996 -0.01632940136039297 -0.04397071581692611 0.02561570885353175 0.03107709837867506 -0.01660757876869331 -0.02299004394908363 
-0.001231575320967673 -0.005463097916899252 -0.002632044532187736 -0.0008643042323272254 0.009245762480337788 -0.001971003667015081 0.0008180656530074994 -0.004394537170794631 0.006260313202957178 -0.004382617697720284 
0.0500688719584557 0.0003332574190001241 -0.005506751274123779 -0.006247974293723024 0.006316088347454405 -0.0263772986860451 0.03691547856855097 0.03888124116477731 -0.02624999216441261 -0.0232527400132866 
-0.01177519078219031 -0.007619529556648985 0.003050681284877866 0.001452597246925448 0.005869312355063482 0.002385230792497742 0.005221837844285719 -0.002846890429030401 0.005971183162260244 -0.01061199073347801 
0.01840557234075499 0.06216732547440119 0.0007728726263528098 -0.03107825508134853 -0.02567306341118603 -0.005013385669553862 -0.05384849354274329 -0.01213886063587023 0.003201882068390901 -0.01668011372985096 
-0.01583785336354575 0.008746429089664956 0.01848750875428595 1.183612544959344e-05 0.01363758857145416 -0.005289515326754111 -0.002962878836285567 -0.004705296262401004 -0.006920883390101053 -0.006644697286409388 
-0.07122938845016837 -0.0357038791694009 -0.01861640814405118 -0.003529636210002803 -0.0272680064358693 0.03871855859805225 -0.02732520090650718 0.00817118412994596 0.0412117409688888 0.05833347851584302 
-0.003369801784768367 -0.007711276615499759 0.001724625625076131 0.0003376651099952165 0.002231316803266822 -0.0007370079822901901 0.001227455414865782 0.004033152134635972 -0.003067460641167275 0.000294702567029174 
-0.08525128000089122 0.04270032378931856 -0.01617453704646353 0.01655626378219721 -0.002910177901550872 -0.006926200753468283 0.0372777987340067 0.02956280862793653 -0.009109414679195356 -0.008472674693791048 
0.01158044967949663 0.01091296664764446 0.0112040838113573 -0.007103569096423433 0.009134398232846687 -0.009337603768401212 -0.008911139600912705 -0.006200519158987095 2.164299631072986e-05 -0.001951276122791168 
-0.03519053330980775 -0.002871311819984418 -0.03270675253312163 0.02161597114587412 -0.007879636842612539 0.02229469658772412 0.002789326458714956 0.03542936334854083 0.007037248736105767 -0.009457638427762167 
-0.002485266034947206 -0.006764806514574619 0.001302040449831436 -0.007228731489453639 0.00992108569448163 0.003666440045256686 -0.005695258101739415 -0.008139604541714692 0.007311352579662168 -0.007265381643059697 
-0.0148140651093661 -0.02373745039299223 0.0160511267519955 0.007506202438474742 0.04980984596383802 -0.007393835644527515 0.02854430158909013 -0.001362529266380785 -0.02787179889542089 -0.05128946690133276 
0.01053897029986069 0.0004974446751083912 0.001724688538919114 -0.006892669340818277 -0.004715247729455921 0.00252012170427221 -0.01356704285926354 0.005858837403177924 0.006558014747674763 0.003998635266032592 
0.04306701365789352 -0.02112632614469801 0.01477174078214139 0.01153271848289992 0.03351422891578215 -0.02961455021905557 -0.007608175822144432 -0.02698545679375659 0.001934027752028043 -0.01025164679042368 
0.0009215475806791229 -0.008278403133820797 0.00104931618633895 -0.01047542602107083 0.01879563899529907 0.001867899307757638 -0.0006464669281346305 0.005110525999960111 -0.00163021603806204 -0.009477668731090355 
0.03097827195887066 -0.03211842006704788 -0.007058292918724333 -0.005601267561555144 -0.0299419166694778 -0.01846969857422952 -0.0393638615695263 -0.0296949763441339 0.04579033632978334 0.03501796265711631 
-0.008359758286975582 -0.007195520286633644 0.006606678721171763 -0.0008148065882959911 0.009151487660418102 -0.002919675425590219 -0.00422795269610345 -0.002231010755246525 0.006036074439695651 0.01090178506132916 
0.05925022341553926 0.05125362349980319 -0.05022128303605979 -0.01197854589402601 -0.05256406757604332 0.009654589691568759 -0.04151263360697263 0.01917433596324707 -0.01505086041354143 -0.005945978432053051 
-0.02075700739409356 -0.00112388749459039 0.01857969631837503 -0.001518094911897696 0.01135154324174434 0.002137713393215931 0.003859663987281189 0.007937640323152761 -0.01048069894194809 -0.009927628057479357 
0.03410443228643704 -0.0001808787258344861 0.0348896221633009 -0.01380952238048419 -0.01931311252600896 0.008129739942036793 0.004492979658598352 -0.005360181811981848 -0.05138932137179105 -0.01189887414194274 
-0.01352787454809508 -0.008958729187002119 0.008647214944167743 -0.001252537006351466 0.01451830462147727 0.001350779609665985 0.001931589903915279 -0.001881898630300829 -0.003384027802162828 -0.009098944569204386 
-0.03066251098026255 -0.09291303470945195 -0.01014865364261784 -0.0020073311811228 -0.04021501361357248 0.02369657515792149 -0.0004271615905617046 0.004910846032313522 0.002374775666046734 0.06337644164693983 
0.01055477128810606 0.001626379804159257 0.006927423552682183 -0.00401717246889636 0.004955967420889418 -0.009963895732122393 0.004527727169190591 -0.01323634559614224 -0.001120110292684193 0.01263374935719323 
-0.009774697309838893 -0.0709385385721706 -0.02087357272846677 0.00260668194468143 -0.05139177634575405 -0.01736390650968852 -0.01402872683107151 0.004047178730495845 -0.02680346179405831 0.06192263413453004 
-0.01016360860385466 0.01504455018735473 0.0001441603750752329 0.001783458652599117 0.02230475386812431 0.004701444416890322 -0.00508779377875711 -0.007481306630603046 -0.00887869266258858 -0.02110536752731641 
0.08732262206880316 -0.05009537774251267 -3.755863420655865e-05 -0.02151431556102889 0.0251556541652544 0.01941168619989714 0.02842089902916362 -0.00195110250363719 -0.01366022081757061 -0.01033192674630643 
-0.004102726981098395 0.01038120163120647 -0.007881606547095646 0.001187337621355477 0.006515963364168435 0.0004685146989371135 0.01137180153940542 -0.006230432582505556 -0.01512910415749555 -0.01571720493657686 
-0.02450822516225604 0.01432389696405137 0.05038308956484337 -0.01671132004539201 -0.0293035715824805 0.00169617021166847 0.05980408044955877 -0.02576020220044921 -0.02270866521867236 0.001308759621831811 
0.007421918532652006 0.01295154891702631 -0.01488155527732954 -0.00718727721372041 0.01696537517391858 -0.007699593154431053 -0.01070802064909715 0.01198363646649372 -0.008919555474044093 -0.0205078087835839 
0.02224699300137281 0.03274128782069581 0.001376975699691788 -0.007202904205839213 -0.07552285451748084 0.007575761580817338 -0.03268642129087408 -0.006632813090844505 0.04109854112191776 0.001505307681766255 
0.009916391796973199 0.01566198811733367 -0.02378483466784173 -0.002453306126274524 0.02473635294940203 -0.01123256245304947 -0.004000232219843715 -0.003234909113784901 0.002075945230324287 -0.006631519494465831 
0.003577929511945471 -0.02122272885305933 0.01474562417121987 0.01490759677876537 0.002575575915089873 0.005245811743410933 -0.05257134247234067 0.006035388974721005 0.03115325633113871 0.00287034772087018 
-0.0002976193803644315 0.004738973923339433 -0.01886275229552949 -0.002030102165715556 0.009376044291840279 -0.002625627086738072 0.009562122126278334 0.006489500486617967 -0.005518100278576984 -0.01157976154550544 
-0.03438636912351922 -0.01956711609389756 0.08164600462099382 0.003498848173444465 -0.01090453357253161 -0.009854208855809616 -0.02819884993827858 0.02581865915866564 0.01488706751274958 0.01222816551592571 
-0.01085976189765121 0.00540320438795416 -0.01391188726834222 0.0004839432805410435 0.02224120721278269 -0.00243014505478462 -0.0003861344563534501 -0.004604674720237952 -0.009197220818398114 -0.005861678754469401 
-0.01084587707733865 -0.0162587947282871 0.04684556550699549 0.006798256372199211 -0.003629013326602102 0.004244001970719261 -0.01872981652797272 0.007704577280877439 -0.01597534651977296 -0.004083951179732453 
0.005894787428553126 -0.001255369854102611 -0.01952001742594853 -0.001957954426560811 0.01991092675589766 -0.003655638647019828 0.01159864286927865 -0.006066906002454004 -0.005708752186707648 -0.01407833286257866 
0.01171787243464847 -0.02630627978662552 -0.01431499415250276 0.006501033339693244 -0.008840005727224287 -8.247222176821102e-05 -0.03330974614398305 0.02307856188427595 0.001138347876117247 0.02541395626365349 
-0.004791978221028899 0.01089500518631097 -0.01719286590289514 -0.001294873075160358 0.02674202591118165 0.00446513536161617 0.007838567300624898 -0.01263149829617317 -0.007147990556354218 -0.02149329647261096 
-0.03415326772890583 -0.04703139931248714 0.03602303084783715 0.0003963793561954957 -0.01713019816324233 -0.0134140180306544 -0.03069346900297074 -0.003432421118050788 -0.03717845348567168 -0.01417404763288289 
-0.01452781685774893 0.003451914504402029 -0.007539904761858273 0.001173677021828005 0.01391823437903209 0.009265418316460767 -0.008438041097012712 0.01237200184943985 0.001736615845694209 0.005933279292803631 
0.0463914506640094 0.02170920490079611 -0.009515119469789675 0.001789584369600884 -0.01943940810139428 -0.02630087970365329 0.004705358378839055 0.01912199537687106 -0.0294413296657469 -0.002882629949633903 
-0.009529556889477953 -0.003181792929037116 -0.006264466033892044 -0.0005483448816103566 0.01156758747945063 0.009122399506400614 0.006980932070126534 0.002639989687663294 0.008635569829011166 0.003751054094543837 
-0.01751099957214932 0.06306420375318141 0.007080386465090053 -0.006021802570332969 -0.03365214815301024 0.02047305079175946 -0.06682148053795894 -0.02107044749375827 -0.008095915104186401 -0.06589678660367775 
-0.01104976772464041 0.002498332699873681 -0.01423640612374508 -0.00138285159990758 0.02355254751528528 -0.0006022353617156905 0.01536290481588014 0.003098217898975037 -0.0008026061731914189 0.002131330175884958 
0.046092404965438 0.03948709206632756 -0.0008319401282558151 0.01001835483132441 -0.03355588039179114 -0.005114347229192998 -0.03936781504807131 -0.02133356212213013 -0.006108587794646807 -0.01132005096614307 
-0.01656743569001735 -0.01313386607952141 -0.01128735477745122 0.004877764535110319 0.01874038502808192 -0.001487951880890873 0.004851824468148822 0.003544193726620243 -0.0009953945709540776 0.02137259145999264 
-0.01813166491802277 -0.04521870131529668 -0.02331140594667739 0.008744288678667294 0.007500298991639975 0.01120087315704394 -0.009000846189204053 0.002866805548406152 -0.01667569120140164 0.005835008196979683 
-0.01415327254754144 -0.007168387584278642 -0.006347682776249865 0.001349804476690214 0.01522737968578792 0.00171954953348919 -0.003967363375897107 0.002353302451462551 0.002496594359003201 0.001492885503677409 
0.0203346074732924 0.007708896377347363 0.04378713039384138 -0.0005809986256925045 -0.04390227199186981 -0.02879182497540624 0.01760960000397808 0.0005867749167877971 -0.000425920485783522 -0.0004283469269564732 
0.002057587087545984 -0.01675565675256715 -0.008684806834510389 -0.0003088945183368338 -0.004389454174537824 0.007086589211646522 0.007542695152343039 -0.0001245444157494465 0.001597622990678711 0.004346564307308104 
-0.008044611480516425 0.005587767420462833 0.01475740310282017 -0.0155594532376047 -0.008581334368759408 0.01090147865082024 0.0246419270947993 0.02197211598984307 -0.004438840210451223 -0.007203478732605275 
0.006542215500625363 -0.02063289476095876 -0.01478009339156627 0.0006068020300241247 0.01179234215494417 0.00157249980151186 -0.00223769309104544 -0.002632709374623716 0.007802983383681013 -0.0001676115050328817 
0.02947441476393418 -0.04811178457142411 0.008765751678311921 -0.02070419004103574 0.02504033729209344 -0.01489678624891436 0.005881482542208364 -0.01986612903732801 0.02753789314171918 -0.003973229658970083 
0.004669252349000877 -0.002176744509450438 -0.01096063314299526 0.001039961831625969 0.0109026815198617 0.01243021747317072 0.0004700288576325261 0.008936199483838198 -0.003313726714055458 -0.01555291732293739 
0.02226642663867404 -0.01011293523645968 0.03741466753931248 0.00522353387308208 -0.03242488920823025 -0.005920523792722771 -0.02271518711619027 -0.001395372729336446 -0.04721366252948257 0.0005912636914292372 
-0.009422195321682323 -0.001859902062300628 -0.002025810505387114 0.005632450524679331 0.006007451824398357 0.001517194217403093 -0.003098018930105344 -0.004181731803627013 0.004746629014748686 0.005425545877451698 
0.02740422708879994 0.04388816972334909 -0.06096014450169104 0.00242353777703948 -0.01369908959889706 -0.02010771477834482 0.03570752101279246 -0.03186586849918113 -0.006879198867199098 0.02145923695688372 
-0.01536160672819282 -0.000872613264314229 0.008776777218956373 0.002445026276142717 0.003069788333686548 0.0042266710640663 0.006833951069054495 0.001688477017596957 0.006127291479142568 0.00412371406876343 
-0.05221547565420195 -0.001070968358018134 -0.0366517076825381 -0.02618454238802466 -0.005652955387770193 0.03335874558756276 -0.06425648412613072 0.005383006576643663 -0.04048073981259428 0.0542390819061381 
-0.004580684418305004 -0.009069607150741156 0.005917434127487928 0.004788159224981875 0.006921449892113559 0.01135177758323353 0.002144623263953521 -0.004416889712793123 0.00782454170040937 -0.002508680324269356 
-0.05784516532129786 -0.02473530644976429 -0.02498152384290795 -0.002535611761537055 0.06641463095394251 0.01202113000642699 0.009237706970787404 0.02579410658873983 -0.05528989556481698 -0.02411060072828511 
0.006048752383003484 -0.002164170164859613 0.005690105491716671 -0.0002363898402817603 0.01782654143459713 -0.001192999582309003 -0.001119538699384224 -0.003922473492018485 0.01276186925135799 0.001290432560207893 
0.004745337979507989 -0.01066647285984025 -0.01337679544163224 0.003935322484422172 -0.002092121409257343 -0.04952580543905827 -0.008446161954998359 -0.009317561514046306 0.02284462799831041 -0.02284780757843697 
-0.007781948474443468 -0.004060261487079991 0.001276311472956655 0.0005927523521930697 0.01268361657535368 0.01296988850161971 0.0002775008338753385 0.002794546919366192 0.001277726413317416 -0.007529004215096479 
0.04823290159131815 0.03619794355682378 -0.01602813078607931 -0.01061899083876612 -0.04511992960514877 -0.03159372513978202 -0.0007577045850640941 0.006215819732244821 0.01398954228894811 0.009220600206810918 
-0.01799447381754395 -0.01593480272532731 0.004231519102247692 0.004040926404187892 0.02100254978789477 0.005632217959893032 -0.001014079029537486 0.00333518065640444 -0.003286335571196754 -0.01322922515197417 
0.04292137118176382 0.001164549903696586 0.01349452435944927 -0.01109714748075747 -0.03307855948764581 -0.01020232176956338 -0.05019219146349262 -0.0188615953132936 0.03762955498601642 -0.05496935232722368 
-0.01804691424926014 -0.007861144627684811 0.008246825970006763 0.00144620470980454 0.006861247353082991 0.007297036170514214 0.004516471783411052 0.007158943661120101 -0.005910468210991639 -0.002270271366528599 
0.06558679544474028 -0.01637454078232411 0.03829535175079296 -0.007419873122615221 -0.03177249217898123 0.01450732997239014 0.01168910199063746 -0.004071050308674005 0.003236870460042994 -0.07119146664146721 
-0.01544023497972538 -0.004475433666332742 -0.001193682801767879 0.001748281874160967 0.005895085379272585 0.004594852855634621 0.005197260956859871 0.007184607495700973 -0.004782250052213531 0.006091681969428305 
0.006736053427003816 0.03312820734374617 -0.0104643572457737 -0.00315091876293949 -0.01801051096379035 -0.01859300978732977 0.01400218932908332 -0.06657582068825807 -0.01239229439978515 -0.01274312226294829 
-0.01954805686165636 0.002157374734856734 -0.0005807619304510035 0.002377637652673094 -0.006147839342870513 0.00504794112374832 -0.002251593828218643 0.01636005826172442 0.006057093230992515 0.006705789327712295 
0.0271639555841677 -0.001849452372759009 -0.05835310042111332 -0.01314755312783 -0.02025477931614762 0.000522497570735629 0.06085391102442952 -0.05644891204674847 -0.02089444846849078 0.03023710250572585 
-0.004417643526332144 -0.001224874734923422 0.008917260111348132 -0.0002183730559566748 -0.003197845869363308 0.006610397900563633 0.00343526613828476 0.01372589875307383 0.0008391925956013822 0.002721208899221974 
-0.02431975286505257 -0.03300277497031767 -0.06649815956586502 -0.02619323866332052 0.03300962440645125 0.04410456553542338 0.05403462120516791 -0.01007324780263197 0.005813901397544043 -0.0411600148843333 
-0.006495035416937487 0.005829680688524506 0.0105937425702225 0.002119796630163014 -0.003993209883996219 0.01260609944732313 -0.008865050318781487 0.004756455682525432 -0.003684386277821698 0.003495070471112797 
0.01741993014839273 -0.02210058440357157 -0.04297966639878031 -0.01324499193892781 0.03097381612248821 -0.05642813863499715 -0.03817003529625224 0.05044495435117807 -0.01523348631198638 -0.009922828653297178 
-0.0118785927828317 0.01334412960350822 0.0007470038156413206 0.001871519486170203 -0.009165559334483967 0.01834544047081294 0.00334825379891696 0.002167288472031143 0.00573899019890222 -0.006489556916605464 
-0.01172459970107744 0.01815647148020415 -0.04585705131278904 -0.004565768512653597 0.07439624194336768 -0.06064870836421275 -0.06448900117026202 0.04150461443640963 -0.01992722101223896 0.01453870021883921 
-0.01754585671653107 0.006557771032152559 -1.874859829723439e-05 0.0006778882160466645 -0.005086932063476115 0.01958772740759683 0.01584775817208196 0.000475946928368077 0.008251480762736262 -0.007058455871373046 
0.03384178078872229 -0.01172764205165429 0.03531969484372838 0.01021931905587551 -0.03766355079082173 -0.0278464203613458 -0.04482756570177258 0.02177051957276402 -0.0179696782342268 0.02619851748774677 
-0.008912397213884043 -0.002280318038709161 0.003619275482696313 -0.004473668318438337 0.001122607339807119 0.01867945165842112 0.0001468240458496828 0.007103134414473872 0.001912139311047497 0.002113530197666732 
0.03702718667473319 -0.01511644779464585 0.1116153621605915 0.001969871008849591 -0.04298817131061543 -0.03277062961275411 -0.07180172157236579 -0.01492560161243302 0.002370285850943767 0.0007681150071738548 
-0.01627838328936414 0.0008743011196249713 0.001268595505019037 0.0009541690842789365 0.003641693315377005 0.01252580567116932 0.007348048537196283 0.007931154537324077 -0.003817308873351547 -0.01826827431853262 
0.01800986155561283 -0.02579123575366052 0.04074092877495669 0.02765120094263345 -0.0406021950264616 0.008884880480843967 -0.001451095951669265 -0.04958168278147507 0.005194166211615547 -0.01903673800821901 
-0.01582041633417499 0.000984818088102916 -0.007260691400015039 0.001548030695628331 0.01628918165469914 0.01242925348874559 0.005621227069453922 0.01326281972125388 0.004408123484052445 0.001929719426024285 
-0.01735422458553107 -0.01899979949805569 0.00684806677748275 0.02012278477843007 -0.06021578596984443 -0.007606831883551469 0.01307624357721106 -0.07280896827332523 -0.03051359267401451 -0.02678530359370198 
-0.006020299824667549 0.007616391279162487 0.0003572757087928082 0.0009215126412679694 0.0009512354214260055 0.001919519418853971 -0.005295166390072809 0.01547140044586543 0.004916641977556957 0.005090985098257018 
0.0619128871963435 0.006316825993686298 0.05815969346860743 0.02200484626744822 -0.05092282245863555 -0.002402731719801795 0.03824011048256482 -0.04094889240658774 -0.02846328246105319 -0.05432039465081154 
-0.02027924891843896 0.002354329760852397 -0.003719316478880197 -0.002005094374491638 0.004297609622999083 0.003568165143470611 0.0006326334830855493 0.0138878450327818 0.006333679202118017 0.01003829796695016 
-0.001411887691792754 -0.009388003096587791 0.06273008990994834 0.0005766808257168996 -0.01771344555753074 0.02989440860837738 -0.02228885790469914 -0.03460453678685677 -0.008338332917087091 -0.03547556471278668 
-0.01281713668114698 0.01230252465080089 -0.005487284471286436 -0.003546521792716726 -0.001821200641245588 0.006265238016228217 0.003106222093746479 0.02313166792155673 -0.004122737943298966 0.01166365006228026 
0.03380273408876092 -4.486627573499298e-05 -0.02776848489553089 -0.008760414038510059 0.05651683535099507 -0.03004024187486922 -0.03087448437541676 0.03206665437556356 -0.04426618569143624 -0.03861236184535568 
-0.0270959297305398 0.009780654613632863 -0.001779905806768704 0.001217764682529714 0.002085486227907093 0.005160405352100322 0.002817082944968543 0.01538901017809927 0.01414787675680397 0.01687483576600432 
-0.0133316533773205 -0.025002060208531 -0.05065828195804739 -0.001388770068529038 0.1180519347676261 -0.02552821193364182 -0.04747527058002289 0.0108341545288279 -0.01456912140709778 -0.06260761631839712 
-0.006553299442751216 0.004281107120015869 0.01113736857410997 0.0003699696112621309 -0.002665067733993954 0.00427537448610558 -0.008184659672057563 0.01464989669371004 0.004168028237648133 0.02006758064996211 
0.0209730330899341 -0.05191031000543555 0.007907349796448014 -0.01823778083283868 -0.02328149138435198 0.01083713771966376 -0.03655673406066835 0.007311289431455406 0.01142007534331524 -0.05036468617697095 
-0.006893095043942732 0.01795773139282956 0.0008070893152410178 0.003339417967380505 0.00355241599167723 0.002886680118136005 0.005622033042693175 0.01206788657723342 0.00863355367271555 0.007682942024996367 
-0.03191169490498019 -0.02513947993663218 -0.05164320234990892 -0.002948525206875072 -0.03810179997424772 -0.0002050411608142191 0.02120955543487012 -0.01158468653906332 0.02848897583063932 0.06194155077613274 
0.0007593810682178396 0.02258363058291022 0.001012556789157701 0.0009783555039305117 0.0006250892443963862 0.0009634535999891291 0.001459445396852071 0.003935740834153903 -0.003784611630736332 0.004967715036979571 
0.02929071588084155 -0.007257660833671939 -0.03866098438678194 -0.02468137485531098 -0.06574841025737176 -0.01976691854613104 0.007800628568662878 -0.03868176868576228 0.01459094889141927 0.05458400099296679 
-0.007394649013828089 0.008589016655937583 0.005580808567949895 -0.00334065244705865 0.01268231759630678 0.003440194741136445 -0.0001145647141085262 0.01290936486419629 -0.005989368770889926 0.02063238884530421 
0.03590716787259601 -0.05519312973282026 0.05755328544852233 -0.02092589415507357 0.03232017246905285 0.02394135871998812 -0.01572404197744838 -0.01969151367039591 -0.04222204786636866 -0.008861655967645361 
-0.01506290569113232 -0.00424351325945275 -0.004252819504852626 0.001275061972982348 -0.005081639209269073 0.009996286919374276 -0.007461164373944113 0.004423018290229669 0.006217244459289091 -0.001434912370750471 
-0.001660374446952877 0.01769278003368433 0.04948609442647324 -0.01836188917415941 -0.03781631734594688 0.003312583613577309 -0.004217517758675327 -0.001784312282330101 -0.007483305451092792 -0.01130914379626244 
-0.007028250750560873 -0.01554666761699769 -0.0007349891072060133 0.001131437959830504 0.007957525837539246 0.003941384406133005 -0.008491422125482909 0.006368605017011303 0.007967145352545429 -0.004874311395309027 
0.009210738698022672 0.01324106986480897 0.03777224092975036 0.002625629241641388 -0.0708705458710655 0.00309864960352369 -0.04919143476714175 -0.02564918146512585 0.009692440264827802 0.02150759990796612 
-0.01324706243850078 0.001182321585207517 0.005041118610672309 0.0001191054046313457 0.009986067752134137 0.00102120110560707 -0.005142674997802651 0.02043253127237608 -0.009695999686923444 -0.0100388414220568 
0.007985521681571217 0.037793223764729 -0.0749268777329586 0.008046809004651382 0.02783977900340942 -0.04419512262279078 0.02605630296049604 -0.01745095739494515 0.01388456471138049 -0.02428247078158598 
-0.0108788242641269 -0.01226092748084995 0.01307314524319114 -0.00461701986239662 0.005723313059155096 0.007220705246793606 -0.01172747517926489 0.01610810687223935 0.0126963703243477 0.005112953366343739 
-0.006945734278720213 0.009522488788301881 -0.0585286820005279 0.01565923993502129 0.00906841837319919 -0.01084505028141883 -0.003639286653928467 -0.01489939325364244 -0.01413425287080305 -0.04536402955377292 
-0.01137437009091943 -0.008022210148016098 0.008816345983102606 -1.683245812622812e-05 0.01463714344805294 0.009767220148977174 0.001214554417917514 0.004127501615352154 0.001930209198436247 -0.001803392352984201 
0.04494516264888095 0.01268658156357727 -0.0552939565650819 -0.002113220185873765 -0.02580026669547003 -0.003320776639913805 -0.01513003145703212 -0.00386223392362306 -0.007597260715910947 -0.02146960540643567 
-0.01546563120635907 -0.001718645663265168 0.01429557590280347 0.0003052452060880215 0.001965905670837519 2.962496777492353e-05 0.00157968479856454 0.006866539500401472 0.00701889635377918 -0.001970876639845634 
0.01345121462548905 -0.03328394890029143 0.001422119988808303 0.00250351381671329 0.03224963977427871 -0.03268659771332517 0.009060288431897913 -0.01389838474961566 -0.05934636526919317 0.0240340347310723 
-0.009472086931302141 -0.00385806966959905 0.004153851660808835 -0.001381333558971774 -0.004170694429062293 0.0002969368227530518 -0.003812134926641035 0.006568893121808278 0.01009799362663295 0.009915967158730618 
-0.004579049077249889 0.007764027579681587 -0.02511066973555018 0.000751139193384949 -0.02779762482974381 -0.009898090026434402 0.04106166250411727 0.002148939091990532 0.006994719559973118 0.02117799900794133 
-0.01243890936506183 -0.007307099196361619 0.005613047051613786 0.0006325805499324608 0.007913857497809948 0.003052593076743485 -0.004149299994490562 0.007419993898388029 0.005866103413143731 -0.006610661405141194 
0.004279374120596384 -0.02665076280223875 0.03146537776367042 -0.0107917227535348 -0.04108476182513549 0.03991196553469226 -0.009104279546482866 -0.02101656312936033 -0.04157568333253227 -0.01979446784862387 
0.001790851823474975 0.002813778266820879 -0.004398109885818131 -5.149561296203135e-05 0.02425585440042962 -0.002202040054998944 -0.006219216256725901 0.0002156739418870018 0.003902391482412048 -0.001732120977983693 
0.03147755026994378 -0.02318218570220655 0.01720017885874791 -0.02375608727889939 -0.06977009547030975 0.01841957131075073 0.04017101770485995 -0.01662858469084202 -0.007659462904140991 -0.02002822773360105 
-0.003009084741167639 -0.00296771597031719 -0.006406314053446134 0.002022679650307261 0.02564892362973196 -0.002611138972726219 -0.003631884580763953 0.005618755695025082 0.003688035032017787 -0.008433567229717586 
-0.008768648063094091 -0.0228878723611772 0.006536480912405984 -0.001096923416263484 -0.003285407411948763 0.01595472647396752 0.0240734230484758 -0.01399547112914333 0.01526343357354305 -0.002773263293548402 
-0.002853545355009327 0.005621455538105872 -0.005328640731708626 8.954984680325449e-05 0.02180591016990263 0.000419964273432081 -0.0002429748102128941 0.006310984898647392 0.002931887540962518 -0.01092595669602128 
-0.003091309962199283 0.003530050127998829 -0.0140428137407758 0.02803640229860648 0.03598851519667279 -0.02049357565487021 -0.01769528174431519 0.02063663487153147 0.01339026370777674 -0.03750141859285333 
0.0005969399160352635 0.004116349132277391 -0.003060828702052658 -0.005011128387307713 0.001071794611972606 -0.002109934101769185 0.006078686587716486 -0.004506817323833799 0.00405148128916791 -0.001180017744745364 
-0.02538929823888698 -0.02812641612554078 0.01740615159739415 0.01102455360087687 -0.01676492902963042 -0.01637610096304508 -0.01912921391808997 0.046213646445596 0.00647225268820065 -0.03978818654493726 
0.002961018048132944 0.004821062399678022 -0.005598784240401579 -0.002855950825616674 0.01527344082391922 -0.003399188493953617 -0.000285816296187594 0.002600371786366078 0.004956131238988257 0.01329571105580557 
0.0004997842071660734 0.06668108218341508 -0.02442332060578553 -0.01972828964310047 -0.08339787253953425 0.006969323682859853 -0.02494868457140822 0.02563792350056856 -0.02738369382774688 -0.02734696419559657 
0.00336774693286482 0.002647628896610722 0.0003306654019654781 -0.0005759640083220256 0.01554874777801309 -0.002324607004936605 0.007546026144101685 -0.006959605071540236 0.002247435073982078 -0.007073126634234472 
0.009226029469662051 0.01493778034736139 0.01138522948691388 0.001452585892036531 0.03537889601702728 -0.01651011625004598 -0.02682029406131685 -0.03782208268390307 0.006801176351376632 0.04937126054924212 
0.009684334322503632 0.001063426144913631 -0.0126880009640523 0.002664348628253047 0.01334928286423506 -0.0007002110704451419 0.002401799650574877 0.001455419299641181 0.001746943523334698 -0.002630286350721931 
-0.03062817872460464 -0.06199841616018814 0.005319727636860507 -0.00175263204747109 -0.04582719701034189 -0.01423626858261687 -0.04229143257009795 -0.009438605791349643 -0.05124796668079905 0.06376871356931521 
-0.003546639707954024 0.005240925862187285 -0.007525310666888962 0.002635278107029231 0.02607365171700984 -0.004556098435468323 0.005689249348811216 0.001750795564915502 0.00718865715641236 -9.855598240927808e-05 
0.006329193703533366 -0.01743213346164736 -0.004717416866774972 0.005911888900199071 0.0272865961396045 -0.02807563900091048 0.01097095328006783 -0.003122565347541255 -0.05437481970409688 0.04222424885371 
-0.004860943193318977 0.01471733817307234 -0.003004231494014882 -0.003281273873437103 0.0005373961460390372 0.006964784544956428 -0.01024531870229347 0.008741274938386135 0.007399039474662776 -0.0275014965039436 
-0.03489754026513685 -0.03861208436654173 0.02006599448195194 -0.02111929893939026 -0.007219196858727578 0.03771088951446373 0.001236036838067186 0.01824719995032626 -0.0245338746755315 0.008489390498623146 
0.007611140952534361 0.009717425136080104 -0.008241074990787165 -0.0007849358139725687 0.0157374645447303 -8.667716367542338e-05 -0.005338272222764836 -0.001836111918511028 -0.003031744616868074 -0.01344339093349905 
-0.005922974059073696 -0.02107995198355071 0.04585945587683908 0.002992443077720555 -0.01340225072483394 0.02139995893046667 -0.01592768881046976 -0.007092145602041019 -0.01305404087171965 -0.04874113413324814 
0.01620598601807363 -0.0003775981460145103 -0.0002398605025597587 -0.0009191829009759243 -0.003846718473180875 -0.004623439207503154 0.005470343612126749 0.003246999532125305 0.0003160740977424756 0.007092817265700571 
-0.02867290788498119 -0.08021829141443305 0.05710207192611621 0.03269426995767918 -0.02580117958428321 -0.008473580715911729 -0.00611832140196294 -0.01181698961562718 0.01255513812761342 0.005023611917488306 
-0.003609453103939844 0.02095781551222854 -0.00399048880116667 -0.003128323587105336 0.004171650833623489 -0.002890739980069614 -0.005417064881940549 0.006907335225160098 0.001296725162142006 -0.008293234923283014 
-0.01062653929709668 -0.05665721325717014 -0.02660949723739251 0.005282088595438266 -0.01739455678296646 -0.002145928483484807 -0.04905334912659178 -0.01424692378846318 0.08254986076860134 -0.0009565305547365952 
-0.01084206532503138 0.003424077862003673 -0.00412636652158561 0.0003793094910942597 0.009646814960818376 -0.001665960992420519 -0.008341402081994105 0.007227875045355486 0.008273704915526262 -0.01164496179520879 
0.04188206370405448 0.0851473279969769 -0.02757039084562574 -0.009717117603971297 0.02148671967252928 -0.02572585828888254 0.02878533006182277 -0.006517347243614003 -0.03291057638380247 -0.0391918407845686 
0.001152987799618943 0.007964482807050356 -0.002869903988748853 -0.001873468346413367 0.01048944113113851 0.002130358164177184 -0.009447316814089836 0.003025701802141529 0.00232745516648247 -0.02006036457260845 
-0.01776752884444334 0.06194673516468751 -0.02617998271999689 -0.02041047364967952 -0.03557287588211565 -0.01216180501609802 0.02084699482400672 -0.01366044102123163 -0.02738467201558561 0.05001809142947407 
-0.001824104408116312 0.005265353267727406 0.004729101443488115 -4.405672238338221e-05 0.01504751901978204 0.0093378902866736 -0.003967929871120864 -0.001157696811617021 0.006858057635014923 -0.004947437964853486 
0.02902317452882403 -0.07267044455742384 0.001484896927449478 -0.005362840891463617 -0.02905226077108533 -0.002745937765974251 -0.007381738542733672 -0.0009893690896831686 -0.0468888646569423 0.07286078499411182 
0.004074206176556632 0.008944782817098781 -0.003492465763932194 0.002524822931465124 0.03702519298848998 -0.003386528039340477 0.001743413941810152 -0.002650692272874921 0.004537047311122185 -0.02142477099462367 
-0.02639482400316058 -0.01608398617773777 -0.05076020586917636 0.01098473155798776 0.01012864820267969 -0.02482558229792103 -0.01294479434781169 0.01813877569334587 0.02872976416920886 0.0287072962395237 
0.01599165394405467 0.003215118461935972 0.001202956875317164 0.003074021372533482 -0.009742596519001223 -0.01405630910470579 0.005859714297312372 -0.006331918835723568 -0.02158431277784111 0.001814040243595305 
0.03319487757679598 -0.04969511522669511 0.001227480488299422 -0.01032515338501952 0.07101323728258338 0.01174586095648172 0.04977642829844158 0.005494757216437523 -0.01582124567803295 -0.02797567036137351 
-0.003255366742010274 0.01283303193740105 -0.004463121445771481 0.003611919999363645 -1.778647111671734e-05 -0.0007571840598889828 -0.002880312407206542 -0.006712207538778151 -0.01243468260402707 0.005780556387859094 
0.01697247661433859 0.02573237831465797 0.02263684620938561 -0.03642309624250724 -0.003274627952734741 0.01848528057300944 0.02591606029041469 -0.02068041624229159 -0.05218579654057161 -0.01567965488740325 
0.01284629634795829 -0.001903937705352467 -0.007131362491705344 -0.00100437785567668 0.01659476488787668 -0.003896808146390958 0.002938309183458566 0.005861031248102533 1.378572645134876e-05 -0.008802132301845442 
0.0003289162376978675 0.01582168862133063 -0.02334644267448189 -0.01490491006881732 -0.02051240944068326 0.01885424931145338 -0.08183917627993038 -0.02687745740871903 0.002689180154053727 0.05578547116629016 
-0.008184319364498382 -0.004324252346570483 -0.009126157211912072 0.0029691688248856 0.0146599553182772 -0.01004435574529051 0.004823810512084518 0.008737185882034338 -0.001142172482423654 -0.005745064775551172 
0.005996195612341018 -0.02974535576479505 0.0225215339273975 -0.01944989607809892 -0.0823990858672116 0.02854446225429366 -0.08713407305902882 -0.0217808469257007 0.006318827755767445 0.02270140680912392 
0.00319974944790938 0.01419254666309138 -0.004167683991228166 0.006497266237238554 0.007436571729777862 0.001541443491317599 0.006193336094712235 0.001671376830704598 -0.006507271258054124 -0.004214221923434483 
-0.005669524336215132 -0.006861388766133431 0.07480862264849285 0.009421723427360669 -0.06150230233220051 -0.03219446630839944 0.03803658143729823 -0.0101194078783391 -0.0163371249109975 -0.02793990397427488 
0.005199151063871097 -0.01530021240378101 -0.00841418062686417 -0.004316909691272802 0.03179392413701374 0.003267548629396216 -0.009827875250163957 0.008606670880610954 -0.01505544363698897 -0.0003569063953107122 
0.01369045621733426 -0.04878163632690324 0.01576022842469071 0.001651632092631044 0.02785416967049776 -0.01869496871244545 -0.01745506041313509 -0.003119942657644704 0.02488673556074996 -0.03184985641782032 
-0.01396255734182825 0.01564068893203828 -0.007110525960041254 0.004489333175758878 0.01040190749850317 0.005332325525661123 0.004431476553778395 0.002438487972233102 -0.00953279974262497 -0.001083567281492507 
-0.00305111365846646 -0.007642662865390029 0.01256191051437654 0.01739992694586345 -0.01180090450484816 -0.02467732357058694 -0.02195935728071412 0.05925713897648452 0.02910549449651227 -0.03716798433900195 
-0.007289432076235004 0.01310698664799615 -0.007279257602606825 -0.0005506474229688926 0.009865396982655129 0.008425441831410975 0.006049585579780402 -0.01084271139087309 -0.005229806202922039 -0.005947124543035144 
-0.0155209180445387 -0.01823957611383311 -0.03370510123311193 0.0195677003082055 -0.02095705004245371 -0.01845543279482906 -0.01722846256759623 -0.0004806955405230783 -0.0220414781659863 0.01969531088712291 
-0.02043420006410262 -0.006430511741414841 0.002032422435064745 0.003572353996149891 0.009547859513076351 -0.004592439720856337 -0.002383037439797628 0.0008301901881600162 0.001406075251886677 0.01427978257109139 
0.06997627375001236 -0.03501564825917468 -0.007075808727686269 -0.01488796833595839 -0.01924432335012406 0.008302737247475975 0.01371660018946272 -0.0119682397613017 0.03856874523878627 -0.08943600788245816 
-0.01255257290997757 -0.005530532249196692 0.007508369587692108 0.002007074023764271 0.000735089410632454 0.001177922731166896 0.001817387017230691 0.007339929180995001 0.004041483328927111 0.01420323282302578 
0.03097264077317553 0.02126850221520105 0.01612204417539386 -0.01155976495164509 -0.02945683909297866 0.005257234436971871 0.01086940280736511 0.01899892260089678 0.007327536286549873 -0.06384379333998173 
-0.004759578458783043 -0.0013580059265734 8.130356814685121e-05 0.002536299899381683 -0.005274132883912049 0.002029511999387598 0.007542453981266966 0.003977608999525296 0.0008895825486679407 0.008733683280679227 
-0.03244146111528694 0.01948655491591577 -0.004585385757445904 -0.0148858026516853 -0.02426417419734551 0.01430194531301334 -0.01372989435317054 -0.02912323254376746 -0.0623009637639624 0.0760637971145387 
-0.001359493047419036 -0.005840184828721273 -0.005482218463759988 0.000175986937678246 0.00515956579155118 -0.007351341414805524 -0.00141028244629146 0.01315752185826728 0.002376386641668853 0.01395602291854888 
-0.03791870668851335 -0.04069849755125519 0.008644002347757746 -0.0181223366638345 0.005224643830882844 0.01425581797801418 -0.03436009933331483 -0.02962287831066327 -0.03498873514267579 0.03374910049486078 
-0.0221578339102889 -0.00472057835315217 0.005265460873421116 0.007143627913715997 0.01442199151777907 -0.0004486176940251622 -0.004182634236169813 0.006448978560806616 0.009019460754339785 0.0006091964936679529 
-0.01495852010754494 0.05063289999392849 0.01870249290487048 -0.002361258551853972 -0.009286825105420031 -0.01088089865702832 0.02529974662599911 -0.0297988188201612 -0.01346674402846614 -0.05748821451010927 
0.0139276281293694 -0.008612415881158577 -0.005589180815365893 -0.004383773388934491 0.0007241467037094075 -0.001970266863207731 -0.0007563388036388334 0.01441035137405794 0.006658712010873996 0.0009979221690114258 
0.03993915541299101 0.02370385497027385 0.02048839319912006 0.0005517902508530177 -0.0190484501577535 0.001397765250880986 -0.01028617340504412 0.01062558619161766 -0.004980308583787317 -0.0613364266185036 
-0.005228566973640715 -0.0074860420370652 -0.003385087795178688 -0.001334309662133903 -0.003832506886469719 0.005121658622684896 0.001996198060983537 0.004609427216521677 0.01192169250103201 0.003033400843108053 
0.03983393853880687 -0.00943133427417087 -0.04087212865050298 -0.002763573747644541 0.03219189731259157 -0.004960293209493607 -0.03702374157022578 0.01421433049592588 -0.01205973523314158 0.0004866463532504846 
-0.007800767363269538 -0.004074243284061112 0.007040657358861772 -0.0001719595389729925 -0.0001538142562241063 4.906483817350301e-05 -0.002344903278047464 0.01206273372059079 0.01001098032347802 0.002794011182270554 
0.01410964205784234 -0.02058398950551129 0.002211686306041782 0.020477984330161 0.005382703543579203 -0.01660774092191273 -0.04618829355530474 -0.02913055294791034 -0.01888090831123476 0.04547364570830477 
-0.01642123852569753 0.002444858178771274 0.008542038827095281 0.006660124796361306 0.005380453733414546 0.0002277137887965231 0.002888545110370584 0.01605136720047516 0.000224714392607856 -0.009835772844862752 
0.05558360837470663 -0.01183079596975483 -0.003952443204638105 -0.01455322697137552 -0.02471771847289786 -0.01962681189882648 0.06544185226177429 -0.03594212484244488 -0.01189924736640431 0.01294162682336588 
-0.01782211758928689 0.001373934782998975 -0.007774830568787767 -0.0004677038958865255 0.00186900807732619 0.006903594866873675 0.008647567671836661 0.004473468702664003 0.003646961663131499 0.006569673724343181 
0.0100428416446322 0.01244428253997642 -0.01425631099130875 -0.03035044173659222 -0.04687437463155132 -0.003171105332182435 -0.02509496678601789 -0.01039120490780187 0.01598803786358871 -0.02762594981516125 
-0.002167661565022085 -0.002465811187643531 0.01274133264316317 0.0008816768059223001 -0.003342360569925457 0.008484446385593109 0.006711119170434921 0.02098892056148617 -0.0009242370189353569 -0.00260539947640638 
-0.02138198380432388 -0.02438252188665655 -0.02524981417428515 -0.009800885871477281 0.06186695016991637 -0.009882230587923906 -0.02037688610361494 -0.02121683020857234 -0.03879238748595503 0.0186650378666055 
-0.003719905056260023 -0.003900734089130944 0.005246906213111128 0.003930515681298668 0.01679925815463056 0.002394959865222782 0.004856067068773407 0.00793808446108866 0.008035618421987195 -0.002501334761140056 
-0.007706894705424371 -0.023451739790236 -0.0219470840072434 -0.009844133035121168 -0.005513796754632819 -0.03558240639971877 -0.0002322253362100562 0.006940722986255083 -0.0467351470033024 0.007960510292244944 
-0.01474723310039808 -0.0009728645010184686 0.005024405115388749 0.003640732529424831 0.009246926543997792 0.008616026866315091 -0.003648588474960122 0.008374515943546238 0.008153509559304852 -0.00138492032458598 
0.001476255088108236 0.04724118297305916 0.05239954344913802 -0.001420473416977541 -0.0406999116432473 -0.03956114949204918 -0.04554821279608445 0.009529001217681222 0.0203561013910259 -0.04837936774699467 
-0.0007457419969486034 -0.001840234305932551 -0.003115546081255145 0.0005361904388247621 0.006230898671502528 0.009715473634559635 0.01124397284185572 0.003341437313677325 -0.001700240475732647 0.005707413113910687 
0.03479731937646133 -0.001641802789840625 0.01004155558827351 -0.01357435265245161 -0.0490940690589144 0.003724504588110346 -0.03903017245895547 -0.006288811043650796 -0.003940462781695444 -0.04105217336717907 
-0.01598495482259915 0.003043047266390341 0.005346164674569446 -9.472774257255825e-06 0.01937979613314692 0.002033800333113677 0.01444393732781702 0.006327943667269005 -0.0002637436446565121 0.004919985497693963 
-0.009045311796398555 -0.001627246420948634 -0.04214016035585977 0.008150852811017687 0.008264502043731137 0.07098344646506789 -0.02550779739422388 -0.01241284832734242 0.003382343368337514 -0.009599077923943928 
-0.001593759333932257 -0.0002156434312779273 0.0003083659348126647 0.0006941591371937369 -0.007744533002661743 0.0002285620362710167 0.006588318680690782 0.008924852326632402 0.002398561818033209 -0.006536468155294722 
0.009919649233833939 0.003678018939860061 -0.004481503198923999 0.03930639194849572 -0.0298344939121865 0.03503397003714547 0.04003166944772123 -0.0765643481507351 -0.01536486029351015 -0.03399341926052902 
-0.02138013594179029 -0.001085205330759378 -0.001697573337445517 0.0009520741026644325 -0.001490741693537064 0.004980829664958925 0.00566632573442198 0.01252006712091781 0.01095605855549057 0.01304556941108193 
0.009055842413935651 0.01550708226694937 -0.02366493279332334 -0.008521621934042043 0.01483946038142163 -0.0223100688495694 0.05570713117299414 -0.06652010542911878 0.01559046125702715 0.0089718795178303 
-0.01006686190337545 0.004039290891154301 0.0007877018559293914 0.001838083884593701 -0.003167064314488508 0.01508921259819469 -0.002318719352228216 0.0137377415312255 0.005257285760727975 0.003402452805565711 
-0.02115214111180417 0.02838615749399696 -0.0166395988765653 -0.01072405190039423 -0.03304794226900092 -0.02228896526404666 0.03913169575012491 -0.0105522890936143 -0.0336944758353338 -0.003431876053297682 
-0.009663686530641598 -0.004318364170178845 0.01087765527418513 0.003777766581391414 0.005382833925214601 0.009914175448587014 -0.001042929756022876 0.01206372416466603 0.004854345235549683 0.0003571615712153486 
-0.01162076094319085 -0.02806394685626828 -0.04278620334971923 -0.0261466074329445 0.0270781014404184 -0.04034098863811659 0.01188577810440206 0.07899773366443455 -0.04051729702656507 -0.03615922338180307 
-0.008012473570406058 0.008330211839206727 0.003591324426510312 0.006574377395147386 -0.009475497319469058 0.02034131545166147 -0.0007194719488961376 0.002529555659456401 0.007109948698425018 -0.0009655256073356473 
-0.03409908353393812 -0.02207226598443673 0.01246663705569807 -0.02907154255158116 0.08897106995652003 -0.05809662163672537 -0.08594189543113931 0.06244926077693704 -0.04477723670932499 -0.03982803296620498 
-0.01231153802684149 0.01277798930321204 -0.002720734849679721 0.004953522390991095 0.004977718373197866 0.01367797278620101 0.009699673507046886 0.005513262556994788 0.006724240570761223 0.006297144146071035 
0.05819355127573347 -0.02553638781747408 0.034489706162763 -0.02428609465571378 0.007990452868366509 -0.05814165682552112 -0.05432283055040409 -0.004435398285805149 -0.008764855687585194 0.02064774060340489 
-0.01698667902268111 0.00619090133653916 0.0005519427535163413 0.006616401226374114 -0.01385656028168614 0.01521934550922091 0.00925841076010739 0.00974178596912535 0.007550891495829576 -0.004062741271887693 
0.07743065118339906 -0.01994966154297185 0.02660397295948804 -0.01802096113390557 -0.03290204755575054 -0.02717951581180918 -0.06601053919076282 -0.06735757871739032 0.01854170664155815 0.02554543117228839 
-0.009978500483668894 0.004861385366363474 -2.963522216468399e-05 0.004814888715579618 -0.006204142598125951 0.006602784902744442 0.004313450175952594 0.02121932764804475 0.006604293128860525 0.003706953002093027 
0.01885998557322312 -0.02740972201430343 -0.01984104259392035 0.0190162603445738 -0.04413825985554486 0.07448250576685264 -0.0387105572642552 -0.05745627257257043 0.001221038581766252 -0.009072958764846461 
-0.01483631471461394 0.005144662012032707 0.001547294935797615 0.002501579241085555 -0.006814987410686648 0.005217916687314739 0.006366577605114877 0.02997063428621276 -0.000431068735598024 0.004551493282744267 
0.01502924584685915 -0.05492776104297432 -0.04351707681315189 0.07251057663782667 -0.02971771917315156 0.03800466436384767 -0.004334000180169799 -0.06594342575591251 -0.03069290544361863 -0.02394723557899382 
-0.01380396451413364 0.004643119187671417 0.00605589432355897 0.01095689208952597 0.004243939654958062 0.0009851289498067873 -0.004685133555490389 0.01567720365016901 0.007211238150039039 -0.00436056136403364 
0.03162663484564794 0.01356671909622877 0.03775641159017356 -0.02029241812510835 0.01174766257118798 -0.02692554517584044 0.02152325071657438 -0.06880396230909633 -0.01627295827088173 0.00900899344555023 
-0.008900321807673204 -0.002384650453440923 -0.0008865082766717985 0.01099529266193326 -0.0037094456416199 0.002335530986919541 -4.620313685293123e-05 0.01987179768089705 0.002572437173924586 0.003870334839770295 
-0.001130703114034338 -0.005019372981023409 -0.0101088220432182 -0.03029198498038334 0.04550628034212392 -0.04553954788537015 0.029700303084082 -0.01250220858787134 -0.01533649625437377 -0.01656414658773464 
-0.0119241502241032 0.008976741337066033 -0.00214364749676079 0.01496091893744004 -0.004792163861583987 0.006585089811291012 -0.009362910418182378 0.01776470482535827 0.008727977244420511 0.009526158406768979 
-0.02153345925157914 -0.0006933441056615301 0.05912348155001337 -0.04220834881784171 -0.01233263940400338 -0.0497524540057694 -0.0457251529212756 0.04749408646495031 -0.03776465803672376 -0.02290787433284741 
-0.01022773594147896 0.004180496258515792 -0.0006151148994129398 0.01327916360168632 0.002358239224455391 0.01070465176604921 0.003402898888108609 0.01330562863921416 0.009392504216320523 0.004796634384059522 
-0.003429145869180718 -0.02147068521861128 0.005468350153127965 -0.0417718323182749 -0.009835903754817495 0.003818157855907328 -0.03160248496514052 0.02163657155673264 -0.08408742244190279 -0.007512541388109502 
-0.007294201062954813 0.01130042018412455 -0.001862028750138746 0.01348314619342433 -0.004385547412265798 0.00198108893383873 0.005604002543918305 0.00773509240504149 0.01038843331559889 -0.006201885007296503 
0.01018480016170437 0.01095503624050471 -0.03097111375521015 -0.04449168148028832 0.002416579119868719 -0.02112627143026718 -0.02923109087758881 0.01646394607502183 0.008574458002040507 -0.01397985457897329 
-0.00820195661194802 0.0006928407920127616 0.001183006890567449 0.01599730975061684 0.00524300606960934 0.006576478816002001 0.004385155162577539 0.01325940347359614 0.01039767242204451 0.004992620286269949 
0.04334335835320458 0.01628029490018944 -0.03359444954897908 -0.0363404301611651 -0.01376892513012145 0.01583298975979077 -0.0008176551684264397 -0.04216497762318308 0.0356359836843476 -0.008368864406568529 
-0.01065585336874233 0.003489643539219853 0.008730532053434428 0.008135639576097203 -0.0006457292475896354 -0.001675298956167061 -0.00516205160125311 0.01401796023959325 0.002814858842350109 0.01327191565352181 
0.01475660041307226 -0.02993346184995299 -0.004932562074939328 0.02247327135693137 -0.01244747487236595 0.03463770924047373 0.01264034989113233 -0.06340369114329295 0.01933096604022067 -0.02656430167638677 
-0.01103561385796224 0.008157431902453405 -0.0008012483620200832 0.001847751469172953 -0.004568283364664168 0.003574050522412044 0.001684074321124921 0.01672981172945999 0.0009533981097608592 0.01887941391433738 
0.05126306694848455 -0.03823282283883658 -0.03613810462642075 0.003565499647554685 0.00946697533732152 0.05148989110293706 0.001622300598554367 -0.05764063229210981 -0.009258290326827366 -0.04403682741315403 
-0.005674762122508813 0.006002434797917065 0.002915528616209813 0.003196176105282897 -0.008993350578566406 0.002558707194517593 -0.00470332016364843 0.01661541224303834 0.003189671146774559 -0.006832063102098188 
0.08069864576733296 -0.008929405136428 -0.0117708388575312 -0.04598795592727523 -0.00220258409083825 -0.002887159317306849 0.06305739288001169 -0.05477968968029335 0.03167638015404185 -0.01584947261822 
-0.01639862910463137 0.008736285202439287 0.003299718522365839 0.009389601668989549 -0.01219467480346831 -0.001785926892399539 -0.006055398104002616 0.02006903106896581 0.0007582440119920644 -0.005685294450923012 
0.03243563867536841 0.03699109543443219 0.03605157308952184 -0.01552651839207186 -0.0769449158025145 -0.02319661270101561 0.0376379192326072 -0.01043053098178269 0.01920290711745315 -0.0190179774906281 
-0.01539135846638889 -0.007503756270908147 0.003822934747233319 0.006626896582393357 0.01202531381234135 0.004711289337826745 -0.01287815302707664 0.01622702150800322 0.002615710432199591 0.002965016615874988 
0.0005495342786610222 -0.0303534834731894 -0.04286867211086225 -0.01116354259481399 0.04701993298432119 -0.02564009673266422 -0.02735405172068815 -0.008120498038026031 -0.02623072783428877 0.05620774323002539 
0.01014561456632028 5.396735515512687e-05 0.009208939262576264 0.003606607683927708 0.001935432594140509 0.002876886699016174 0.00297441954878152 0.01067970233778559 0.01071780279079927 -0.005122830886804635 
-0.122715252933355 -0.03567463638127345 -0.0112968108839733 -0.02384102346075501 0.06833932515384114 -0.01145600522459006 -0.05285957114848282 0.02166419436130787 -0.06524353318417331 0.0009210729675509179 
0.001006131087184373 0.004268419477294425 -0.003114506188767505 0.01001783152869191 0.0108449086564187 0.007174615817488698 0.00865147928965493 0.007412143369628193 0.0003706723541186737 -0.008552525697808237 
